610 20
1 0.325124873669 -0.268400038579 0.268965299485 0.0668662785024 0.102195980846 0.79404890968 -0.236893175114 0.201862839751 0.15691127216 0.669067642115 0.313457982962 -0.151985987235 -0.0859046851319 0.4367704687 -0.0128452230824 0.198213799181 -0.0332787724759 0.049085069609 -0.115692697603 0.0886602464019
2 -0.258235561287 0.0148729937568 0.181474718741 -0.0495648577245 0.114118992798 0.272757209765 -0.215079159301 -0.115712442041 -0.0960966518446 0.453011663466 0.459055611103 0.151119827254 -0.0274335620623 0.140171952025 -0.0571793555237 0.0359423714524 0.0317014233375 0.193117216293 -0.124705262921 0.123411356122
3 0.0616802210064 0.121021818044 0.115310993231 0.0525763907714 0.0614790757751 -0.30507721232 -0.0843416951832 -0.0139788468437 -0.0229574321441 0.203127933481 -0.11618664954 0.230488589323 0.0999669859279 0.438214579295 0.0274251942565 0.0794385382526 -0.145328768769 -0.0275194742682 -0.0509858813665 -0.182273005605
4 -0.0213633198628 -0.0269873202332 0.0239076685178 -0.0244699311465 -0.0418125184585 -0.037040277393 -0.0340747619807 -0.00701286699608 -0.00600884423786 0.0131333107495 0.0171839381815 0.0858739865255 0.0294672881981 5.84117281633e-05 0.0407841708057 -0.0726809624394 -0.00190696156804 0.0651748618009 0.0173646110247 0.0207292589376
5 -0.12132563822 -0.0466463943637 0.0227473736045 -0.165910019087 0.18791833182 0.0748850305044 0.0227184642022 0.185948445968 0.0231079667201 0.138424951854 -0.039927051554 0.0608661366622 0.00570720204071 0.137586601879 0.0417821577472 -0.0897899297111 -0.168669540458 0.188672193946 0.0584809794862 -0.0144595266508
6 0.00112414246745 0.148357309162 0.195706681111 -0.220932127414 -0.241773454162 0.085210513767 0.128124189345 0.230281746865 -0.0775984125293 0.0250758543662 0.0638866236751 0.0825283926349 0.0958358040981 0.218660813345 -0.102447356625 0.0313900060389 0.0475822171245 0.370036026543 -0.0413750714851 0.242376308122
7 -0.0520275708372 -0.10024681654 0.173590478284 0.0519148838995 -0.079592187509 -0.122910494423 0.0234526346197 0.114463456769 0.0375304793723 0.315254044511 0.0300579619008 0.0635258088734 0.079432016182 0.0776734803791 0.0972204264857 -0.124253976323 -0.0773959075766 0.022846024417 0.23649415071 -0.242312405581
8 0.0607990104478 0.0416234878742 -0.00346351060712 -0.0263170798001 0.0677879538307 -0.0632539132491 0.0140782546913 -0.0194726153624 -0.0325185855595 0.0268739904811 0.046854460848 -0.00696616490021 0.110208260379 -0.0252159366784 0.0280285442875 0.0205887651591 -0.00254832117937 -0.0257607679202 -0.036289204399 -0.0908135627584
9 -0.105506921391 0.027028024855 0.0793041525114 0.0284723854018 -0.01867454587 0.0223895540728 0.0755415312469 0.158503188995 -0.037848274046 0.127527698851 -0.134687109285 0.0682268153782 0.0966285669041 0.100676889094 -0.0266430598248 -0.0404044677032 -0.0574478062289 -0.00628289039123 -0.144209383428 -0.0447769330831
10 0.0640433529065 -0.182899450093 -0.0553280946313 -0.0927998972903 0.0923166913781 0.140385790785 0.0847843202419 -0.17957741772 -0.130871924322 0.243582238027 0.351413729225 -0.129550789452 -0.07507400874 0.258935911041 0.261444533333 0.104623263819 0.078483057675 0.620855589082 0.139143078018 -0.0875241904032
11 -0.191517513477 -0.0948188312634 0.130456825771 0.0260626477019 0.277190403221 -0.139155811039 0.142732601483 0.028794777119 0.244489798015 -0.13760042207 0.196388483047 -0.162447743212 -0.0815566036445 0.0935345080327 0.0684102413332 0.0355730020448 0.0511539425495 -0.0126717458697 0.353961984001 -0.022640782947
12 0.0278836874562 0.0547427782263 0.165375526876 -0.119676132351 -0.0516297355427 -0.0670900230594 0.0470463615866 -0.0884047547987 -0.119547155757 0.0607587917893 0.0348171283112 0.0377255234254 0.0560508031222 0.0695226781932 -0.0895452534836 0.11025639098 0.0520257905709 0.0108397277382 -0.0602942087153 0.02616595825
13 -0.0451607613412 0.032013389223 0.00847102580684 -0.00457072740964 0.00094932187383 -0.0618234148872 -0.014507414009 0.0343186980824 -0.0404080440217 0.0330498687261 0.0918658151542 0.00231965959253 -0.00785630579169 -0.0265590449265 0.0886685483694 0.00947672560375 -0.0416943994341 -0.00207991405435 0.011197680359 0.00266821841845
14 0.125268186745 0.0559351205215 0.0749651222207 0.00965381645602 -0.165541219981 -0.106407704511 0.0346843898379 0.107879665615 0.135353910231 0.126467477942 -0.0910641624871 -0.0323890196284 0.0734488253059 -0.0660594921208 -0.0659115523921 -0.0842178436453 -0.0583632781323 0.103052635397 -0.0356470541913 0.0742492714607
15 -0.0813925514787 -0.017009194 0.0159477944564 0.0169984794667 -0.0095341756252 0.10155884384 -0.0461167199515 0.0216989568986 -0.131213252157 0.0831892520145 0.162867368485 0.0404945858696 -0.0773901779294 0.0122309315834 0.0430801258789 0.174668487527 -0.0956356578377 0.0683192290576 -0.0657809038567 -0.101149277107
16 -0.0139598498786 0.245738311054 0.399029214958 -0.147614804537 -0.0142221449551 0.0130355159689 0.0605104914448 -0.0904072359499 -0.0807361938014 0.220428764249 -0.150243977466 -0.0812651508792 0.208512774549 0.410688713499 -0.247833402427 -0.21803784643 0.299466200561 0.0423824117752 0.151118514625 0.0477958383328
17 -0.170904171373 -0.0989699741605 0.222514224551 -0.149858581855 -0.00870426828842 -0.207246616207 -0.0204725692192 -0.061288550787 0.17734214014 0.41635982665 0.168076959105 0.0712154768858 0.0911688045711 0.18491074894 0.168403578599 -0.180878215362 -0.132125948568 0.391593106482 -0.132442716648 0.0776936855187
18 -0.058755328826 -0.041149279804 0.0274027144173 0.0324100665121 0.137787388684 0.121830993013 -0.231327972708 0.00954219015123 0.0843042998671 0.0860479805122 0.0558339953548 -0.0724060850255 0.040271651884 0.168486537034 0.0547078627664 -0.11287833032 0.0100220196355 0.0572336635091 0.0480684631708 -0.165216738085
19 0.010677815329 -0.0286191763702 0.0448801573218 0.140555609203 -0.0476292302091 0.304549599904 -0.1685289607 0.17250087781 -0.312517383659 0.176026534424 -0.0922434172727 -0.135365073338 -0.0229643237738 0.210922958134 0.136931586617 0.182139718282 0.101561744699 0.0282289647918 -0.0253901202605 0.104790561155
20 -0.035185758049 -0.0586534993433 0.0224643442742 0.0573060918784 0.0389697840259 -0.134100001055 0.00889636715756 -0.051892869596 -0.0700858871482 -7.07076039767e-05 0.00536703262012 -0.0421116912985 -0.0125687348041 0.0879738683044 0.111223411157 0.110931143494 0.094144012331 -0.0363881368216 -0.0618559732222 0.0879470043684
21 -0.255668984643 -0.00629345512178 -0.0626936661161 -0.0109900042069 -0.287179248154 -0.198219661336 -0.00755437966256 -0.0623698139238 0.322798763949 -0.0166999443513 0.321382545977 -0.167924615255 -0.0483081962349 0.32209053607 0.222004309636 0.101038810333 0.271508013864 0.211795775321 0.141252282829 0.184923517897
22 0.173502159307 -0.0988913553821 0.300473259363 -0.10040220366 -0.0844839014083 -0.0559436935246 0.0366205437708 0.0565272163399 -0.0313657103265 0.0488162118404 0.106875322626 -0.109704124242 0.00311113239852 0.10730260912 0.136744127732 0.0109811936731 -0.149790683388 -0.0832759628509 0.0418712130285 0.0376342083701
23 -0.0341523289811 -0.0512027669922 -0.028223739129 0.00167366141669 0.0691067890319 -0.0243834681487 -0.0015618905279 0.137237305485 0.0165365258877 0.114799304949 0.123472804695 -0.135427520079 0.0964749678267 0.0763743072691 -0.0573943651154 -0.0417496552678 -0.0364698034868 -0.0229571297606 -0.0979320774969 0.0712183977044
24 -0.089912138471 0.132154771914 0.121778362928 -0.0244124849203 0.227260636528 -0.0686738726344 0.0558067917762 -0.00750462664791 -0.0578793457853 0.0526964700275 -0.00964845416438 -0.10525946361 -0.0604412103077 0.01034893734 -0.126932085512 0.0325509287207 0.130807681665 0.083608312208 0.0241073539394 -0.0205825333478
25 -0.19706274748 0.0768961716865 0.134218371199 0.0477794940597 0.282653051981 0.0505217183506 -0.00722627566794 0.0498825500124 -0.0545477292642 0.172988492426 -0.234339186719 -0.174733480508 0.00651198033636 0.0526107337134 -0.13539218846 0.0484865586246 0.193332726732 0.275021169462 0.0649487310685 0.269422111812
26 0.0374677003067 -0.0329474199549 0.011095189134 0.0432775354958 -0.0134860315432 -0.0611598353327 -0.0885678599441 -0.0212569962535 0.0322294278383 0.0639171467073 0.0853116463119 0.0767426751433 0.00146956776219 0.157073066252 0.0842908056574 -0.14322382372 -0.0282393325816 0.126997420863 -0.0860999653073 -0.0977681449531
27 -0.0742793653331 -0.0517748733909 -0.00262467471298 -0.0146007208415 0.0435118033898 -0.00863087916346 0.00689901745085 -0.0945504933083 0.0279070245101 0.0771797015739 0.0634967876064 -0.00450192293373 0.0794148035783 0.0843781556863 0.015075048577 0.00538141133173 0.0408151715022 -0.0197235278849 -0.0482394034854 -0.0296958714081
28 -0.040729819796 0.0336744364543 0.149486497388 0.0175194123749 -0.0207673620108 -0.0329669977356 -0.0833817340736 -0.0531629341987 -0.00435742955205 0.0283025754813 -0.0773132768945 -0.0678371738331 0.0539057599394 0.0708432834438 0.0317216148702 -0.0106652599285 -0.0133691014003 0.0707786479773 0.0289083244908 0.0654276763105
29 0.219557068379 0.0393301996089 -0.0533268066183 0.121212401384 -0.0286102230306 -0.137943949622 -0.125039674897 0.290917833575 0.138206665122 -0.112961889172 0.0035325266759 0.0249854723829 -0.0146822626409 0.112309902083 0.0901853680183 -0.0983665485869 0.0171745135657 -0.0728399923119 -0.0500923347162 0.137179506844
30 0.00627282670906 0.0115833102063 -0.0147390882497 0.0333162397758 0.0338071428351 -0.0318014081236 0.0150413628813 0.0179285199899 -0.0561016165826 -0.0129493016491 -0.0340579141581 0.0241991167331 -0.0362058719614 0.0296960126133 0.0258140463756 0.0365183066721 -0.0118940413361 0.00101102826538 0.00673316443531 -0.015293229303
31 0.0950512575657 0.0517822219768 -0.0122318663021 -0.0778244227948 0.077200349268 -0.0747380130065 -0.0563125832946 -0.0284313236341 -0.0353319329266 0.124576642625 -0.00235764360351 0.160241890725 0.112290417126 0.0371776668842 0.0101932164682 -0.0991467217282 0.0799919495008 0.11835749146 0.0239787316649 -0.0970620235562
32 -0.296934144352 0.44102324167 0.295686772104 0.409115004682 0.0399057504951 0.396873664445 -0.0438553641478 0.029486496284 -0.0278205366357 0.404994120191 -0.155293247536 -0.280336629984 -0.290861513742 0.472932032299 0.194872816388 0.219120322152 0.363841513549 0.336163889265 -0.179759955272 -0.0359661270093
34 0.147575904591 -0.0123807178636 0.22329330835 -0.197326553419 0.0371067245313 0.0108017271284 0.217634989016 0.534233500344 -0.2425367219 0.527764022339 0.348722188355 -0.205681992819 0.0628243718724 0.211802469376 -0.199466327032 -0.090917823243 -0.0268941353942 0.38542602074 -0.156909527233 -0.0446492751542
36 -0.0470168125142 -0.00641799863277 0.127269577364 0.0132862721547 0.0116024828691 0.0322034615723 -0.0722995850959 -0.0349312837521 0.121728571465 0.197062718998 -0.0667669245425 0.273016994195 0.222287056979 0.0712546579993 0.0479177275024 -0.337556578604 0.0582219964194 0.223249484881 0.00175268302648 -0.00961355103344
38 0.00468374937783 0.00100565092638 -0.000657194553468 -0.013440753242 -0.026039232579 0.000914483978611 -0.0168135946287 -0.0150234869196 0.0133633044018 -0.0213126021304 -0.0234325666913 0.0153464463941 -0.0143934305552 0.0148229654701 0.0346293234486 -0.0119681334177 0.04031618224 0.048036135334 -0.00717045336769 0.00357911308048
39 -0.00824680430677 0.0264589814485 0.0728130061738 -0.241391372824 0.108828870111 0.0526475043578 0.00295068995337 0.112693061392 -0.0260026547713 0.17773570518 0.127806640653 -0.210125832074 -0.124023022614 0.252651309633 -0.246323939668 0.33169987144 0.32863818394 0.00149270275306 0.304375062669 0.0773335720728
40 0.0382020543722 -0.025340725836 -0.0247190516689 0.0333675222797 -0.00944845991231 -0.0250445508156 -0.0538154959163 -0.0340098429825 0.0583442976906 0.0295866738465 -0.0108181358897 -0.0301512535723 -0.000485152201175 0.0455820476527 -0.0506753212636 0.0285033767634 -0.00384812819135 0.0255063471288 0.0246231991344 0.00854069086276
41 0.0924480565747 -0.00504479817613 0.0389250529865 -0.016433795181 -0.0939315518221 -0.0574491983461 -0.0119223115606 -0.0103728501948 0.0553754843929 0.0867096855399 0.0590892104961 0.119215840771 -0.0426654594252 -0.0384838935061 0.048408080103 0.0846912768323 -0.0777198850618 -0.0102424350725 -0.105694149356 0.0504639967958
42 0.0691378763567 0.0481258586206 0.105249108616 -0.0766840321174 -0.052565445448 -0.0759031348141 -0.0376576776969 0.00118133205403 0.00872933260846 -0.0354688423199 0.0496464472444 0.0178146424678 -0.00165226435188 0.0147595490628 -0.0391572859093 -0.00155869818349 0.0297080800043 0.0996229095205 -0.0179382500383 -0.036154853503
43 -0.0310773590628 -0.0338863779734 0.0807751066808 -0.0512515593029 -0.100400621828 -0.134126547276 -0.0838539075766 -0.00508627871698 -0.00811250135342 0.0590954573986 0.0655623418076 0.0735031465693 0.0761225383067 0.065536246846 0.0526262426419 0.0586607114582 -0.0999782402065 0.0899870010072 -0.0396904834911 0.028040775914
44 -0.0591459410185 0.176827307251 -0.0315967998167 -0.0481329791974 -0.0488131133844 0.0251607994316 0.091053389865 -0.168690999004 -0.196289226946 0.16854997325 0.0131422480073 0.045718358999 0.0350773286323 0.0356285686918 -0.146962997039 0.0902644436081 -0.0145501448814 0.212135424882 0.0934298382008 0.122419204899
45 0.0944618268381 -0.151488271284 0.0513312574603 -0.171136725185 -0.180594499319 0.0672375965623 -0.0460207162054 0.067923164971 -0.154137437572 0.0335461837253 0.0443323347806 0.0506505105665 0.0625343260379 0.124105862141 0.128484412052 0.0456302243033 0.246192142169 0.0458396278686 0.0574978890067 -0.074482930843
46 -0.098206535697 -0.0230284251508 0.123810272912 0.0670661539261 0.00712262163902 -0.0779086613056 -0.160024640361 -0.00210671835047 0.128086453279 0.0815564102876 -0.0448865760738 0.102620596546 -0.03527849679 0.172565530436 0.0194182354923 -0.15309529054 -0.0316769269982 0.13813770564 0.0405294418148 -0.122076495271
47 0.327207486866 -0.247368240256 0.252581001779 0.437864335326 0.244891640464 0.550917401971 0.0089628724064 0.488973924438 -0.238097064297 -0.0716911030697 0.137617591134 -0.0212941013327 0.139312549657 0.744156268277 -0.153203140255 -0.0302097272853 0.20399409874 -0.14187074976 -0.186754542407 0.146612336693
48 0.136747016393 0.012982893829 0.0544376796527 0.120524380546 0.0158752538685 -0.14072323037 -0.00461219267428 0.296772670662 -0.277743184905 0.147055572089 0.250719837756 -0.0274147168371 -0.00897217121309 -0.0261488436565 -0.0960660838214 0.053653483063 -0.0548321548962 0.184030873023 0.08644509316 -0.0245382451981
65585 0.0130320150405 -0.011826675442 0.0433711887209 0.0377428460184 -0.0360447311239 0.00225923351758 0.0286895574959 0.0198610727694 0.0208609965253 -0.000905204079839 0.0251661726034 -0.0310048035139 0.047059862911 -0.0085712697695 -0.0641363883433 -0.0902143038952 0.0341194518529 -0.00586857235729 0.0594437018695 -0.0400692406241
50 0.356621656066 -0.0596211128143 0.0973484322558 0.194631583089 0.202658946466 0.1335817643 0.41797492469 0.354424346906 0.188991918214 0.0368976501635 0.239562130847 -0.311896086662 0.137981509606 0.459912358279 0.254748726413 -0.365123974246 0.430352575501 -0.144499871381 -0.0734809530682 0.266460726792
52 -0.00407179672103 -0.0111852188746 0.0373011318447 0.0282706168734 -0.0920908417553 0.0612873074161 0.0216910497822 0.133293508316 -0.00252424932479 0.0270946929215 -0.113282334229 0.071844588078 0.159759345421 0.188728118676 -0.0169290609553 -0.140383328841 -0.0555501201206 0.0789484126491 0.0450043824244 -0.114558330209
53 -0.0148165005059 -0.00719452127705 -0.0500094430607 -0.00691006458265 0.0479077953224 -0.0113320650816 0.040189348132 0.00726978691969 -0.00838088106115 -0.0278835105421 -0.0625067827787 0.010325326113 0.0124729049979 0.0735304571557 0.0482237872598 0.0221744093738 0.0242564777738 0.00971760521382 -0.0780146319612 0.00543091124154
54 -0.0344406995141 -0.021358758402 -0.0271544917751 0.00400376477467 0.0133967534631 0.00940537352337 -0.00452715977941 0.00299735902321 -0.0477080675809 0.00355854633588 0.0336517144804 0.0226400115221 0.0469681589006 -0.0175612445347 0.0412617820029 0.031997887994 -0.0199610516687 0.0356997758829 -0.0455669899991 -0.010322226138
55 0.0117411023336 0.00533206023957 0.0117424659448 -0.0263590920003 -0.0270407530132 -0.0276212687415 -0.0282187792272 0.037086044845 -0.00855895457713 0.0124751705598 -0.0248602236897 0.0301806726346 -0.00608523435987 -0.0134069582865 -0.0213402174537 -0.0279160735254 0.0409779241822 0.0326188639556 0.0229821337085 0.0173388394557
57 -0.0231760398194 0.0692575555068 0.064829886419 -0.00667013188368 -0.0111285699909 -0.128823223544 -0.0208263236024 0.0299212407905 0.019448085663 0.0964919360395 -0.0719848850912 -0.0385086148696 0.058946339403 0.0476597785642 0.00180736514829 -0.0220651611445 -0.0134663693542 0.0369382874912 -0.0170867974238 0.00568013291726
58 -0.0263472252534 -0.175342249205 -0.143073401241 0.244100704284 -0.0511508003569 -0.156263858325 0.154640433448 0.0931251368465 0.167952497944 -0.0271959239222 -0.0478647189993 0.100148596737 -0.016473626685 0.0317701618952 0.157782451785 -0.0286990672649 0.218135633268 -0.0436606296942 0.000769135946578 -0.000942915203217
60 0.125015502483 -0.00237382385404 0.152771516853 -0.0731884770141 0.225256774975 -0.0169592213824 -0.024873988759 -0.00739028652054 -0.121693863286 0.0661710750731 0.192053096247 -0.0285730029834 0.184464319578 -0.0310082862045 0.00315007441552 -0.1125762342 -0.112365609187 0.120802079162 -0.0126871625958 -0.153739374532
61 -0.000552404869923 -0.03682416817 0.0330638387649 0.0204304070008 0.0730467339756 -0.00633845732069 -0.0363695838391 -0.00659579991234 -0.0354314599957 -0.0288388998911 0.00372155605397 0.106374048725 0.0255408313028 0.0565801974592 0.0852182673646 -0.000150603884731 -0.027884425743 -0.0546625784277 -0.0329144717311 -0.0662174242394
62 0.10803076005 -0.155965148254 0.0576166098683 -0.189795339767 0.350072336925 0.11992484063 0.243013518721 -0.102729905841 0.178801426846 0.209119918269 -0.0685279262881 0.0154204423211 0.0890759424098 0.0262972532899 -0.166638148079 -0.138368079161 -0.0479966077885 0.362351031591 -0.0604254322991 0.164684807848
63 0.0694112586127 0.0800019838461 0.0720368392362 0.00969853021744 0.00879729783461 -0.02007365565 0.0144866312434 0.0216627513695 -0.0563534773776 -0.0315399239885 0.00754209536622 0.023163360923 0.0728676089306 0.0458493479703 -0.0122133208349 -0.05519446972 -0.0560765060173 -0.0828909942356 -0.0397913791821 -0.00487803038428
64 0.0322700803176 0.0545923233774 0.0346694209407 0.018804607276 -0.0238431594881 -0.00995949586735 0.0333959585746 0.0367491117506 -0.0140791873507 -0.0226905153475 0.0170108934791 -0.00531723459655 -0.0105736679088 -0.0163628258861 0.0280056690419 -0.0185291428392 -0.0265701067403 0.0087879585845 -0.0669202915255 -0.0143279175211
65 0.0254432178828 0.106598669287 0.093327503556 0.0230792141916 0.0152496515171 0.0242138337528 -0.0243453153761 0.025725335996 -0.0498331312873 -0.0379527118171 -0.0114692997386 0.0113096761502 0.0177654501326 0.0276399607214 0.00852294735479 0.0441237185239 0.0715933135736 0.0891395708349 -0.20938501006 0.00827709215463
66 -0.0496908569933 -0.00524613860077 -0.00926834990365 -0.0464595676027 0.0408577914517 -0.00221119925939 0.00369544893696 0.0455605226378 0.0245673837214 0.0550484356754 0.0644315987486 0.0262427359811 -0.0095457911682 0.0301265865122 0.0652320339765 0.00859618918964 -0.0539733903645 -0.00904619535472 -0.07783177431 -0.0299279248149
68 0.0141033042498 -0.0436423514242 -0.0189648798945 0.0623551007532 0.0249721168688 0.0571380199895 -0.0156248865873 -0.00655381874807 0.00911448951289 -0.0155546103527 -0.020815941679 -0.0727389232664 -0.00228174304485 0.0820110847466 -0.0128931286318 0.0296042533678 -0.0642110150804 0.0198435347292 0.017483071626 0.0108393744263
69 0.0577522316721 -0.0659814212471 0.0479183306921 -0.121513226898 -0.0111913366902 0.140262008746 0.11373452941 0.0250126002774 -0.0637631742803 0.0534185997782 0.0571696604272 -0.0418669412564 0.133400199642 -0.103928825244 -0.22952820213 -0.0119816665473 0.0454401934841 0.0116287397253 0.0834604432978 0.133208125525
70 0.0727145523408 -0.110130943694 0.349530744196 0.0160582455716 -0.0195737203355 0.209952988124 0.0926341123854 0.0104956474179 0.0235288526704 -0.0288282318025 0.0295919160493 -0.28003621054 -0.0931143480412 0.0887568700078 0.041171892117 -0.0609359419244 0.246648799757 0.121126793392 -0.10116844047 0.0166075911693
71 0.00606597082724 0.00868041790017 0.0113671615053 -0.0273137121643 -0.00734534884523 -0.0326146734745 0.0278075945344 -0.0292846905076 0.0236694131803 -0.0153642432971 -0.00873943905673 0.0113110116948 0.00738507748416 -0.0151463608455 0.0151715047237 0.0317625930443 0.004437585953 0.0290519971396 0.00267174529031 -0.018136416289
72 0.00972752977404 0.0484102461933 0.050619173088 -0.0279435492558 -0.0837945134653 -0.0220578365212 -0.0308956552436 0.0317787911285 -0.122081465236 0.0497210721621 -0.0124507459488 -0.0124594920264 0.0597120203198 0.0812009906786 -0.0109452551485 0.0385031070663 0.00593342635071 0.0165291214253 0.013595963662 -0.0132983017305
73 -0.105028340815 0.0290475063975 0.0612358336369 0.0915634723821 -0.0764035722847 -0.0648211674772 -0.062967251898 -0.0695498435395 0.0446097313946 0.0824534832716 0.139324722946 0.126352898154 -0.106642651425 0.185492691558 0.0173419139612 0.00452641153253 -0.0559524616697 -0.0111222117027 0.019170445371 -0.10887472684
74 0.0427686146448 0.118881983324 0.0526809277084 0.0244256496079 -0.00571724641921 -0.0868356440014 0.0055002916949 0.0331041804275 -0.0339128232346 0.0928096807386 -0.0454539176605 -0.0427412884297 -0.0626899011292 0.103538049928 0.0180401721027 -0.0675007323068 -0.0544371878408 0.0945232132079 -0.025855595082 -0.0598258297396
75 0.030869676129 0.0323294591044 0.0527670685251 0.000741691726601 -0.00773248338048 -0.0106434619081 -0.0111119866143 -0.0187571749271 -0.0513420289862 0.0147270800915 -0.00747218846027 0.0178664440031 0.0462392333066 0.0629017136388 0.0177773399663 -0.04447419796 0.00339674968586 -0.00967682462332 -0.0263931772207 -0.0514791176601
76 -0.0170365647569 0.0632676456305 -0.00976144237254 -0.0650900487123 0.00988287500774 0.123174661861 -0.139852442177 -0.0638217760397 -0.0835395314609 0.126388848503 0.0729610192603 -0.11169218453 0.111982582551 -0.029193290219 0.09604736181 0.00917639410046 -0.0597379207506 0.164676212911 -0.105429215707 0.0816513701718
77 -0.0272835901488 0.0250770455112 -0.027203836806 0.00802308831959 0.00925343973636 -0.000967342656192 -0.00301815707509 0.0115517472614 -0.0193810604377 0.0125795963824 -0.0377087738178 -0.0060808721046 -0.000691590401095 0.0290657472714 0.00876819765956 0.0193482424119 0.0252281553034 0.0115065755163 -0.0267876312023 0.00377551948443
78 -0.0410897067729 0.0396003178727 -0.00519755875237 -0.0252186758297 -0.00168202349982 -0.00588437120527 -0.0199091295023 0.00227743435218 0.0263805054419 0.028317729891 -0.0347251923134 0.0368297719755 0.00372521326501 0.00473974294261 -0.000366534515319 0.0138135484121 -0.0168486090219 0.0504950024916 0.0350417357677 -0.0575582220949
79 0.0476963635052 0.0332890196161 0.0588973363104 0.0469010706783 -0.00184289090675 -0.0999699404957 0.00353486748266 0.090327968152 0.0352357842892 0.0197960184609 0.0283159400452 -0.00881144072232 0.0514982166326 0.0487553298991 0.0975751785503 -0.0304446549115 -0.188589235918 -0.0057792175896 -0.0168351747379 -0.07001867528
80 0.0195418591815 -0.0151046641988 0.0273763012041 0.037977330656 0.0287858501093 0.0113306235044 -0.0102236930112 0.031534713815 -0.0251010774585 -0.0480935032649 0.0161571858928 -0.00059398042314 -0.0276866488843 0.0420022369798 0.0373161463346 0.0150978188188 -0.0622947279695 -0.0197931880637 0.00461979682315 -0.0385241181934
81 0.118644506127 -0.101548466515 0.0364634792117 0.00582984364141 -0.00809750793545 -0.0321748243586 -0.067355112882 0.0330159504138 0.103968816634 0.0570977075371 0.12467922196 -0.059145340067 0.0145520062418 -0.0399146599076 0.00314088335532 -0.0646847851377 -0.027278440573 0.0638171860837 0.0433181152389 -0.0691553404326
82 0.0218018915935 0.0277231634703 0.0513255676847 0.0626297034795 -0.114778419331 -0.00765384780468 -0.0259134150973 0.110802790275 -0.0139386268013 0.00348029517915 0.00987918653676 -0.091904441881 0.0103387701334 0.0217577181174 0.0352879309102 -0.0400943653975 -0.00404637575919 0.092638460894 0.0572589100388 -0.110617913035
83 0.0110991319995 -0.0251277797118 -0.00866320286021 -0.0337505197647 0.0202364887611 -0.00741875929234 0.00473860924085 0.0165731428011 0.00380649969651 0.0109953569862 0.0199372794771 0.00521255419881 -0.0185204464628 -0.0168038631034 0.0256884346688 0.025836835212 -0.00481690440882 -0.0333787945467 -0.00389559195442 0.0187449509434
85 0.0510233403619 0.0700004353069 -0.0130827272224 -0.0166889050254 -0.010644402234 0.014405538208 0.0558019407486 0.000949672386031 -0.066570848011 0.134790204378 -0.116395162813 -0.14053799915 0.0257786829646 0.0091571190093 0.0179870658449 -0.0728575685155 0.0417820244537 0.0742222548667 -0.0310788216591 0.0671144376821
86 -0.174038104712 -0.0457045134432 0.116440551206 0.035487101027 0.0110799505533 -0.0989864437776 -0.0194283156175 0.0391596922803 -0.0114719802084 0.0189621390105 0.122754160708 0.109074205238 0.199037192817 -0.0190262457728 -0.021659004436 0.0560543115518 -0.0834065290298 -0.00824273790225 0.00339948596561 -0.0579800059393
87 0.021944987398 0.0201115993737 -0.0173086583927 -0.0357592395468 0.0107393723119 -0.0750460197147 0.0237748981898 -0.0385308380875 -0.106745831452 0.0104195595591 0.0655320239512 0.0206801654914 0.0278297231959 -0.0259889655856 0.00742167558633 0.0601878014353 0.0308710823265 0.0580996693624 -0.00275939588104 0.0047385711176
88 0.0596267899384 0.0541528241358 0.0772133274789 -0.0321415955525 -0.0320175825048 0.00437384420648 0.0718273917158 -0.0348343095932 -0.00149220867618 0.00279129699913 -0.0771297427576 -0.0594590086057 0.0572479802431 0.115003730471 0.0904487658181 0.0272030456313 0.109626916565 -0.21581335948 -0.0423000431478 -0.00454267652149
89 0.0624084203375 0.0188693955763 0.00669020561771 -0.0610369894988 -0.0511843401849 -0.0983543276024 0.00202735859764 -0.071830383891 -0.0373691131808 0.0465855059713 -0.0472337513221 -0.00623295568262 0.0396335206645 0.068070968674 0.0805413975809 -0.00207404591956 0.0394253811371 0.117005727571 -0.02757646589 0.0240034900395
164367 0.00917272321056 0.032430117436 -0.0183024182107 -0.0205393462901 0.0340783255559 -0.00929856592554 -0.0244498037032 0.0186752928707 0.0204784658677 -0.0111253386729 0.0295437037665 0.0192887920563 -0.045268619099 0.0271355973091 -0.00503312789426 0.0118284668664 -0.0170442276865 -0.0162884271388 -0.014082279762 0.00315178160579
92 -0.0625958533281 -0.0454317319725 0.0795859471413 0.0169787580935 -0.0432549974103 0.0431912593905 -0.0796742687504 0.0250209788923 0.00248964721868 0.0270300021442 0.0325511724835 0.000568101922038 0.0892565521012 0.0333419322526 0.0420006499256 0.00264281925265 -0.0565454176687 0.0775174444771 -0.105743337699 -0.0242450123846
93 -0.000207549467666 0.0772444629938 -0.0481537921538 -0.0937240108834 0.0949759207345 -0.00670000720444 -0.0679769213778 -0.00313938997252 -0.100704170677 0.0285124626531 0.076227466273 0.0281895419892 -0.000348839980156 -0.0398730341882 0.0317352482275 0.0807421899839 0.0105841304658 0.0608394117862 -0.0247695665705 -0.00702913847044
94 -0.0689713668429 -0.0034353797989 0.104191950087 -0.0845922530486 -0.0101104004282 0.0287569039617 -0.0144626380339 -0.013585516683 0.0359407313956 0.086490237517 -0.138378008707 -0.032089552371 0.0684016851275 0.121053264811 -0.0435611285885 -0.0369361705148 0.0155391711509 0.0682963462777 0.032228113871 0.011525576519
95 -0.24701751934 0.0675910532485 0.225651530405 -0.259185443534 -0.173185017458 -0.0706434500394 -0.0579793926785 0.0966313850108 0.184791484305 0.392101977546 -0.105267212096 0.0118427253642 0.15140082186 0.426230100079 -0.055919766355 -0.00472769111421 -0.0982790881965 0.27918463606 -0.127936225377 0.179518060896
96 -0.00846953913995 -0.0184063460591 0.0381320890707 0.014721773326 -0.0334716339344 -0.00417981762501 -0.0369770491512 -0.00666857883205 0.000436946577136 0.0229075445925 -0.0201583684315 0.00955151189821 0.0258249978678 0.0311986461545 -0.0163828102295 -0.0217578887296 -0.00120142712635 0.0295343795609 -0.00863236976103 0.0106638907212
97 0.00315693401478 -0.0253283926059 -0.0142907698658 0.00735022528315 -0.0543281878799 -0.0436778818699 -0.090090250667 -0.0448093046211 -0.0558056914968 0.011294117441 0.0684372854701 -0.0491048916555 -0.0823854349073 0.0553655897545 0.140998713021 -0.0467757546655 0.148480180072 0.0582436770632 0.0119794508473 0.112754090347
99 -0.0293525001125 0.0459775459493 -0.0243772676938 -0.0211820823493 -0.0248160770181 0.00150400386469 0.0387584268481 0.0323036688132 -0.0260507977261 0.0576339322356 -0.0590351353929 -0.0371925723622 0.0522879148131 0.0796237400093 -0.0180034742648 -0.0106399398292 -0.000744232587735 0.0341985701667 -0.077592710381 0.0224820713222
100 -0.0311793097775 -0.0102888089843 0.000387457208086 0.0295144406181 -0.0498994632875 -0.0622217238573 0.0219594739875 0.0461295278189 -0.0227089869679 -0.0288282052272 0.0729189283156 0.0348554295056 0.0104020484782 0.010467743824 0.0253458518278 -0.0220367327089 0.0401383457755 0.029352690759 0.0267823452331 -0.00743434952709
101 -0.0376977851309 0.000610885969249 0.121748035789 0.0800593849245 -0.0606760509197 0.105842950128 -0.189644869548 0.0111952930443 0.0574152761569 -0.0541759516958 -0.0439692527904 -0.0562781814048 0.0471791690602 0.30107009113 -0.172074996268 0.0656709696865 0.137079090328 0.0850905360673 -0.0888176271928 -0.0279685460939
102 -0.00847969839239 0.0146461016345 -0.00170522928642 0.0366685320993 0.023350274449 -0.0380384970349 0.0458111794401 0.0576576660787 0.0131836953091 0.042722425258 -0.00604616858912 -0.0296418867071 0.0512870392918 0.0340131409448 -0.00781076183911 -0.0889280271998 -0.030139262493 -0.00467666964826 -0.0151483985898 -0.0440781419677
103 0.0249648316104 0.0260494061447 0.0334164404706 0.0199163547703 -0.015925646066 -0.0114757956795 -0.0136813230637 -0.0138936996448 0.0147022793806 -0.0335522346946 0.0264021236241 0.0310333253405 0.0143871809765 0.0232857878304 0.0319545608181 -0.0166991685074 -0.0324501091988 -0.0233548200091 -0.0210431765151 -0.0357125940197
104 0.132483616769 -0.191138673873 0.297967135968 0.0649128917182 0.262244741794 0.0898214483329 0.178976379594 0.0459700409594 -0.0217839998546 0.116444160819 -0.130146049347 0.0394364882277 -0.173924003845 0.349021030339 0.121342126706 -0.0203233732587 0.392794706134 -0.175830644079 -0.149951895871 -0.112218762624
105 -0.0973559172195 -0.0355891143987 0.0789348032465 -0.0602935078981 0.162169656182 0.017871123636 0.0597855916756 0.044682617302 0.0864412165483 -0.0620813980427 0.221092156055 0.032031728275 0.0316987817893 -0.027957231849 0.0421948433131 -0.258331172853 -0.00722602633138 0.0644518492463 -0.0455862774856 0.0123674162638
106 0.0199784899164 -0.0301967324686 -0.0319506079874 -0.0210430944408 -0.0169705757333 0.0364034810418 0.0102099399974 0.0227307590022 -0.00247519125942 -0.0178025806648 0.0342076847284 -0.00420975288104 -0.0292705924366 0.0258197926891 0.011299975191 -0.00572431390516 0.0197673552547 0.0359355105586 -0.0176853503359 -0.0262891476593
107 -0.0963959927013 0.12333494309 0.221031369999 -0.0359615767684 -0.0158055964127 0.096411245188 -0.112347984916 -0.0403230311815 0.075058857004 -0.0267100607789 0.16083709999 -0.117098586052 -0.0133678947116 0.00349484731741 0.027376489238 -0.161737722034 0.0554621093663 0.109616958834 -0.0155316255655 0.0433902886267
108 -0.0272835901488 0.0250770455112 -0.027203836806 0.00802308831959 0.00925343973636 -0.000967342656192 -0.00301815707509 0.0115517472614 -0.0193810604377 0.0125795963824 -0.0377087738178 -0.0060808721046 -0.000691590401095 0.0290657472714 0.00876819765956 0.0193482424119 0.0252281553034 0.0115065755163 -0.0267876312023 0.00377551948443
110 0.0910995927269 -0.119511160977 0.377856835433 -0.0279192643559 0.210021854311 0.140797910605 0.350150586736 0.0735400872809 0.369835226476 0.582529293406 0.222040997392 -0.168358418301 -0.028978016621 0.21559748965 0.106547883192 -0.178476352611 0.607101043141 -0.108945335819 0.351473648847 0.0308052467102
111 0.125836520755 0.316911692851 0.138075218412 -0.00516916577623 0.140867680975 0.478515328895 -0.280831291213 0.00139391674954 0.457621572469 -0.0608525467759 -0.134777290687 -0.301783480552 -0.120492188564 0.609796157997 -0.0314790832102 -0.154731502153 0.071542228516 0.0261743230022 0.141118398458 0.0265018534517
112 -0.0790713689265 -0.00620361804436 0.221545038879 -0.070183116659 -0.0762045453596 0.209626966344 -0.0167913946475 0.183625070538 0.000295373503369 0.143077522963 -0.078421478931 0.0677326299772 -0.00410072210817 0.196880508212 -0.162343410895 0.166087230154 -0.0763764693826 0.11575920329 -0.163037876869 -0.0560999142131
113 -0.016794516472 -0.0242945433388 -0.0242743696406 -0.00387293368876 0.00752417185995 -0.0178417797871 -0.0306274905675 0.0607104056121 -0.0527919729307 0.0326285105061 -0.00111698583085 0.0794494733108 0.0564628490349 -0.00993883496405 -0.00467717137649 -0.0277963899642 0.0288069095457 0.0277600361417 -0.0221179478738 -0.029425560852
65651 0.0156352690786 0.00627145747524 -0.0138614451501 -0.0153427236013 -0.00301928371028 -0.002266887944 0.0158537307091 0.0186942128871 -0.00152570170689 0.0145881069601 -0.00741793194099 -0.0135911068365 -0.0133113771381 0.0143688331874 -0.00645159197906 0.00537464879984 -0.00648023748573 0.017918298771 -0.00827322120199 -0.00852249985668
116 0.0631436013583 -0.0405514813069 -0.0188758814432 -0.00345171289767 -0.0571886561748 -0.0928774270688 -0.00773544852108 -0.0246484070398 0.0277328444163 0.0469244427074 -0.000183631199105 -0.0131588675386 0.0545303010502 0.031427758432 -0.0616099438711 -0.00317178787343 0.0115733613578 0.051382132126 0.0950636524451 -0.00066314583054
117 -0.010427387392 -0.00932318896019 0.0270482289166 -0.0307175170661 -0.00493782989442 0.00171571430504 0.00535746838642 0.0297166352202 0.0251129633514 0.0156848397027 0.0193882293717 -0.0251158709667 -0.000624804685132 -0.0188049083591 0.00592238969059 -0.0279779721344 -0.0111580551339 0.0206652990195 -0.0260507881371 0.0241328028926
118 -0.0226141429231 0.00411950684889 0.00551191035208 0.00751572188767 -0.0171543787765 0.0181770575434 0.00975575750479 0.0113813835348 -0.03147194518 0.0122270004307 0.000595719953015 -0.00835258900059 -6.63051871657e-05 -0.0280559415557 -0.00554832082039 0.0453953268151 -0.00786370424593 0.0209811659877 -0.0230708340188 0.0219880557228
119 -0.0313981826725 -0.00602508388513 0.0487462492608 -0.0222082373077 0.0219999496528 0.000288204976602 0.00524226143767 -0.0373159502178 -0.018908126218 -0.0261682611149 0.00419422038046 -0.0202967499266 0.0560224314832 -0.00271272426525 0.00315980620071 0.0277177844791 0.0197314441918 0.0152710354386 -0.0219325481911 0.00465461097009
121 -0.0136307345076 0.0442101025247 0.00287228814495 0.0320804195453 -0.0148193773972 -0.0247866780343 -0.0268269548857 0.0339367831379 0.0130866771153 0.0306013830288 -0.0138113866381 -0.00917643653655 -0.0235446457527 0.0509986838697 0.0251530434329 -0.0239604901213 -0.0105124058494 0.038790677845 -0.0489349237674 -0.0342078060898
122 0.00919736134166 0.00304221617153 0.0348293084243 -0.0722348444179 -0.0159867871446 -0.0683627315275 -0.0380383063068 0.0478637037749 0.057432016322 0.046448889843 -0.00604464205043 -0.110769263723 0.00301385630609 0.0243892373515 -0.00480959499391 -0.0285326374348 0.0136884187125 0.105261436041 0.0291943856335 0.105196684478
123 -0.0714960613916 0.0355178096725 -0.0801817741555 0.0153628010332 -0.0899523829297 -0.0284359629709 -0.0113678672455 0.0445362801604 0.0211130022408 -0.0254823151931 0.0177782511853 2.5075096222e-05 0.00991115802591 0.0907707543321 0.116908596687 -0.0191436147098 0.0537999727462 0.0277270949116 -0.0534378024501 -0.00331035605167
32892 -0.00122975777605 0.0208621143261 0.050028934575 -0.0350598721557 -0.0344845682645 0.0260506052117 0.0224275164428 0.0444423702421 -0.00529179190377 -0.0212983837021 -0.0332573404892 0.0244457176918 0.000111571627431 0.0239438955542 -0.0371859646749 -0.0175916847873 0.0505242105669 -0.000612219212011 -0.0209121537889 -0.0353956866419
125 -0.0518728174691 0.0374360329741 0.0221216592449 -0.0709075766525 -0.152003746965 0.0131580094086 -0.0234444044174 -0.0270158643164 0.0105560141579 -0.0525948899576 0.0428042303372 0.0211816578629 0.0544474065459 0.0983458793089 0.0778630543748 0.107041478689 0.0188489450058 0.0652162933951 0.045280803089 -0.11041365801
126 0.052051805509 0.0164199594569 0.0231688840035 -0.0142568037438 0.0192880746313 -0.0121295056182 -0.0173050875569 0.032550213982 -0.0291443570373 -0.00553414368882 0.0501439054924 0.0206381557425 0.0238961500938 -0.0313501857597 0.0397985907959 -0.0219658408387 -0.0147484092388 0.0357199744731 -0.0647453464729 -0.0563096603962
128 -0.00569024268791 0.00375490254857 0.0029693324028 0.0125665447281 -0.020260690122 0.0324893054366 -0.00260662921539 -0.0148486071313 0.0199346524496 0.0109578705373 0.0170430574041 -0.0135481649809 0.0383395252476 0.0109951876305 -0.0255108278887 0.0264550317581 -0.022568397737 -0.0125883982262 -0.0266105924315 -0.0218390914327
129 -0.00237825940336 -0.00774271151519 0.014423910545 0.000800164636559 -0.0083761656185 -0.0126859991616 0.00804723721178 0.000662978285959 -0.00585641799661 0.0127537922629 0.0141349156808 -0.0160030920079 0.0152067568191 0.0140142048634 -0.009500716446 -0.0165257597393 0.0114628949565 -0.00552549928479 -0.00664022963702 0.00600428368538
32898 0.0104959519876 0.0217840561748 0.0288909801592 -0.0107538549623 -0.0487475106374 0.024782020425 -0.0401935653126 -0.0164055590333 -0.0199439151084 0.0443964171674 0.00625046053841 0.019769369904 -0.0566351399174 0.068333833478 -0.0114857197263 -0.0108484201508 0.0976783551584 -0.000190624856803 -0.0274812692495 -0.0243075403134
132 0.0104110570447 -0.0146306296392 0.00782154671055 -0.0485233096627 -0.0010797397395 -0.0041239582577 0.0277177060831 0.0591735415607 0.0401420209784 0.0248533143093 0.00990464095977 -0.0653379143453 -0.0355994600209 -0.0291420807781 0.0289468632112 0.0504836324935 0.00188863542384 -0.0510877987928 0.00446951402617 0.0369713762213
135 -0.103996466447 -0.0553773844489 0.0630181173179 -0.00849666776799 0.0672048041061 0.080700808375 0.108343039818 0.0814913797036 -0.0462951914127 0.123231285693 -0.0805053576157 0.0935879148049 0.0497898999605 0.065234847983 0.162004970997 -0.169543619965 -0.0149153020869 0.0634066766028 -0.0968822136876 -0.0889088429604
137 -0.00467076224168 -0.00144661437057 -0.0207256711295 -0.0156919039451 -0.0193140455499 -0.0160554396621 0.00941096255907 -0.0107552249648 0.0238979947344 -0.0121516316354 0.0260389494415 0.0243695526175 0.0155418999153 0.00570602956162 -0.0297014079646 0.0129644318 0.00972565151572 0.0216605999405 0.0168915581452 -0.0248227288895
32906 -0.00495976088845 0.0131990850763 -0.0255873775491 0.0241297959566 -0.0186931719678 -0.00252243451637 -0.0242338536721 0.011658296703 -0.0350211108375 0.00313066531901 -0.0114285105298 -0.014470362011 -0.0265318114918 0.0205764981958 0.0341013475922 0.0169851635781 0.00771239700567 0.0230215738971 0.0060558613571 0.0107932431887
140 -0.0893054301898 0.0786745250233 0.153036237154 0.0671093158938 -0.0125142966256 -0.0418248241446 -0.00857767911783 -0.00383836257666 0.127195429812 0.0130836540141 -0.0456946474582 0.121336054861 -0.0574613090409 -0.0252055876401 -0.0364039042642 -0.0928362840206 -0.0341060404846 0.198713891772 -0.0722329133965 -0.0653921551642
141 -0.0899578209659 0.231109978753 0.0590453225116 -0.226638994574 0.265286424639 0.0863091170221 0.296390300385 -0.0379887984238 0.164514405783 -0.0332003239844 0.0295429521801 0.200316414753 -0.0573784365981 0.0905523049682 0.0159304572432 -0.07784150197 0.124168880007 0.0754999786426 -0.171601153726 0.070044985175
144 0.00554438820935 0.0729454460828 0.117660755803 -0.0696808399023 -0.120090896947 -0.0202344900687 0.0802155094917 -0.0364935468967 -0.00719243908846 0.117965725679 -0.0573889289098 -0.09877523801 0.134376926619 0.00438359930414 -0.012375572818 0.070497448575 -0.0746396553689 0.0366142835979 -0.0539738244774 0.0380072583082
145 -0.0786500039592 -0.0602151932951 -0.00272114384805 -0.157114809973 -0.103548421143 0.0748576071196 0.0848080933755 0.0353573113604 -0.02621701359 0.175805869838 0.0971608663654 -0.129568192935 -0.000743258745947 0.0523643341806 0.0632921284023 0.000882592681735 0.15834386136 0.276007004912 -0.00425644181425 0.0734233094197
65682 -0.0796064627663 -0.0171314286231 0.00514490412746 0.057908201084 -0.023444759025 0.0707523023866 0.0152800882161 -0.0333763909261 -0.0202909828931 0.0878617546018 -0.0300249128699 0.0969311062896 0.026638774524 -0.0159256212953 -0.0394548107842 -0.0249993184713 0.0285516685787 -0.00837997816405 -0.0446193511438 0.0272180340995
147 0.0470552930564 0.0166805873807 0.162138726059 -0.0446076320071 -0.135811396221 -0.030135314205 -0.131383374561 -0.00588237672402 0.0113001206259 0.0873633226034 -0.0965924001722 0.0294392378565 0.0288124182428 0.0887477547433 -0.0477449348563 -0.011140156124 0.0395330574421 0.101809534526 0.0475648420527 -0.00105784603555
148 0.00475198757348 0.0146312390603 0.00962752831374 -0.0312109427488 -0.0363828766885 0.00271318218493 0.0425311231919 0.0178639847365 -0.00182447217897 0.0419094367576 -0.0118991681206 -0.0295914822315 0.0531524028144 0.0432915559201 -0.0289637213392 -0.034825242844 -0.032279426717 0.0198153507713 -0.0441081713782 0.0177626719666
150 0.381469658658 -0.2918369403 0.0575665686484 0.248752088537 0.35462055643 0.506329707772 -0.281996183163 -0.257122435899 0.0637193216173 0.567467614183 0.129879101595 0.0796430806035 0.511382015113 0.325376302445 -0.056333546623 -0.250098755908 0.193375177935 0.268975733993 0.0159466195169 -0.0475274174305
151 -0.12177879471 -0.159593122843 0.23145846886 -0.0902451416451 0.110633662943 -0.053471433532 0.198002297439 0.0794017592504 0.0638057123061 0.101194817359 0.0547734266274 -0.0279501564123 0.134930803846 0.0330038065771 -0.00992881200644 -0.129110762985 0.0496597520615 0.135101548936 -0.0378224428122 -0.0590463701162
153 0.0709023279163 0.0926454988682 0.0457425372084 -0.172410695314 0.178997950153 0.14639288716 -0.0951317899444 0.0235947880679 -0.197771471292 0.42573323945 0.266733403829 -0.087125374139 -0.0432618854925 0.402477899706 -0.0581950968036 -0.0877961323797 0.0422726225537 0.426289685651 0.0469514112564 -0.0994175267665
154 -0.0370360622247 0.0813262902087 -0.0154707073342 0.115342974281 -0.0466157520637 0.0839188809158 -0.0349415833974 0.00711724474032 0.0249982739964 -0.0620232773466 0.0129009614453 -0.0727195310732 0.0926864447114 0.0609729732896 0.0741756925885 -0.0292900246677 -0.0719341216014 -0.0492402151352 -0.0180158886285 0.0222935269193
155 0.0334272554798 0.0356825709165 0.0505314742215 -0.0739605136544 -0.0593550271981 -0.0156519644004 -0.023457244108 -0.00137194570519 -0.00891318629026 0.0706943775491 -0.00463338153719 0.0207471262895 0.0674789325586 0.036101729369 -0.0413317208552 0.0160523271039 -0.0582787022116 0.0314846320097 -0.0335298408523 0.0041174781464
156 -0.0326408749249 -0.00658035049102 -0.0165971364947 0.0386280121541 -0.0091836448249 0.0399777951033 -0.0606364507845 0.0754427564357 -0.032030327433 -0.0167383091367 -0.0251827333478 -0.0332136270679 -0.0240134930536 0.0170356293079 0.0277318289903 0.0440646446549 0.0259501115812 0.0414666574606 0.00171615525615 -0.025574188829
131098 -0.0032233995974 -0.0051690697843 0.0115940252792 -0.0283261564907 0.0543948442815 -0.0347814211735 0.0533425089746 -0.0217987494581 0.0663352912671 0.0224417350802 -0.0300066734838 -0.0192194491013 -0.0226665041573 0.00263429163525 0.000192090419175 0.0205488913532 0.0533587272588 -0.0372428271842 -0.0283758704594 -0.0366649675257
158 -0.0169478158645 0.103144305601 0.222393117961 -0.16264141108 0.0450117662305 0.00880593180523 -0.019234280027 0.111458556287 -0.09003914489 0.064795110217 0.272087991957 -0.146791543148 0.0387062888895 0.0290902239689 0.0463824693922 -0.0249003481543 -0.0956147780089 0.280219711608 0.0426102537543 -0.136889207096
159 0.0181256460485 -0.0583561643947 0.0534046852535 0.090916818173 -0.057071582035 0.0583021370732 -0.076429886962 0.0598043621679 -0.111828967656 0.0165032780384 0.096238273007 0.0248081342923 0.0142820189452 0.0710030736906 0.0760927982465 0.044711340597 -0.0943327054281 0.0544654614671 -0.0695870213273 -0.0951087440424
160 0.089355861337 0.0412735538716 0.230887167442 -0.131555816658 0.0809001763213 0.0388136232441 -0.217513288213 0.168302725523 -0.000130554268781 0.094848198909 0.0859286971204 -0.0449707905353 0.0290172313856 0.0703290690488 -0.148293027972 0.0243611051262 0.0664440568807 0.0879865599464 -0.0161985118982 -0.00964348075794
161 0.0177546838915 -0.278279176488 0.198251288092 -0.201415580331 -0.182225983152 0.230878794327 -0.109983847828 0.233894526639 -0.0965779142698 0.419983777787 0.382476876672 -0.280202719878 0.235706366826 0.0517882769782 0.0615815975878 0.203800351521 0.143219454989 0.281619961428 -0.201723614277 0.091621861308
162 -0.122737281135 0.056230977563 -0.156771480957 0.0275531047827 -0.0464305406571 0.192472612335 -0.154630278702 0.0365094050366 0.0800391910193 0.120562276728 -0.0453947657557 -0.183103334969 0.0967464760012 0.136627119469 0.0823674132847 0.0135142621216 0.0603101015888 0.195893122228 -0.187185496181 0.0286430344575
163 0.0594837570677 -0.112570030131 0.183660813257 -0.24876296887 -0.136650901839 0.121134501709 -0.140301331973 0.0635057428448 -0.0370773159571 0.161125200171 0.0293991665144 0.0756561682707 -0.0870246347232 0.194688744263 0.195025093641 0.0663883422126 0.222883697678 0.235172538987 0.127694395867 -0.234662038851
164 0.112590565944 0.113355888939 0.0214754553491 -0.0701838533532 0.013654607876 -0.214029968381 0.0352617710219 0.177252739418 0.0350140444969 -0.109430637132 -0.0795762479353 -0.0306933982751 -0.0638922055496 0.0757676748362 0.124590176715 -0.032729043337 -0.015106300098 0.0816535729793 -0.0525900990657 0.0323574148077
165 0.0924731316897 -0.511185263767 -0.082997583975 0.110302486395 0.0879639462351 0.408103855204 -0.105266970719 0.22458480091 -0.159320115331 0.455454037941 0.140592271764 0.0662251056638 0.0644388478352 0.237899930102 0.243346424788 -0.0191641435113 0.228837669463 0.310285439329 -0.178468791925 0.0334934802937
166 -0.0430888093995 0.0299808552217 -0.00702370059455 -0.0105476485758 -0.00329603576347 0.006943512215 -0.035282730341 -0.0261210010966 -0.0106138490803 0.0241187730952 -0.0530056283136 0.000748248338583 0.0202769770771 0.0266743684038 0.0053157689123 0.0489292398739 0.03490175646 0.0404983858462 -0.017980338645 -0.00353064896725
168 -0.170342645527 -0.0337877631509 0.253365677229 -0.233085452709 0.139042624859 -0.14036389292 -0.0155714438614 -0.0652881706853 -0.000470735820653 0.216729390883 0.156973935564 0.0886576646463 0.160310390418 0.0749050870007 -0.0720866820074 -0.00459787532588 -0.148136824834 0.143963332554 0.0761179625319 0.0988460035558
169 0.0297629676405 0.0120576377963 0.0798374327369 -0.06067990419 0.0330306212687 0.00430996253439 -0.0100384524367 0.000544165277793 -0.0114002949558 -0.0170360523295 0.0604598515572 0.0230011116804 -0.0527391886088 0.00307607093268 0.00639002801705 -0.0226554427728 0.0600554440481 0.0269119945315 -0.0827608246318 0.00516713742282
170 0.128065581001 0.0206372350237 0.0113458679311 -0.20131976997 0.0923415342957 0.0340022574674 -0.0253706421818 0.146738820025 -0.0140054383654 -0.109945011382 0.177780724974 -0.0280607398978 0.0417149908655 -0.122261840575 0.0575112688531 -0.0630909547188 -0.0172529605706 0.237976745091 -0.0331058330049 0.0502626218075
171 0.0118253358765 -0.0108701499415 -0.00428580381233 -0.0580965521751 0.0288354311456 0.0475219514294 0.0140423746466 0.018644656896 0.0114085518404 -0.067821635605 0.0516851855315 -0.0289335723537 0.029057570742 -0.0665230814084 0.0649737571922 -0.0580380559793 0.106648553799 0.0862736820945 -0.0363677077843 -0.060043454098
172 0.113642098644 -0.0366166543196 0.290084709126 0.06446075837 0.0178387692278 -0.00302042168677 -0.0588225948265 0.00748557378519 -0.0281507572715 -0.0600731070745 0.0961148119634 -0.254287141379 0.16837927761 0.0692080279916 -0.0774977781243 -0.121037515751 0.254674286455 0.0322134624553 -0.0173693953267 0.0139263753878
173 0.0571603251819 0.0565840085286 0.179373266812 -0.144112167263 0.0104436663003 -0.00778566903138 -0.0738472637483 0.0667442125263 -0.0611084885038 0.211668045035 0.132171688831 -0.212558759169 0.0329891968647 0.0143842258528 -0.0642407724053 0.0824048913521 -0.033207811953 0.176136308897 0.195452551033 -0.0758317577934
174 -0.00782600618886 0.00589221152355 -0.0137427674688 -0.0500906887507 0.0379035974147 -0.0975608760808 0.0270324522677 0.0479143031032 -0.0442850379624 0.0841678983853 -0.00058498242266 0.00144097388133 0.105259903493 0.0178440356681 0.0423565757532 -0.0203743606744 0.0379353518216 0.0176726815358 -0.07895572723 -0.016217908358
175 0.1051961325 0.196891133423 0.0605996492688 -0.142860119319 -0.186824198571 0.170654513718 0.103282465805 -0.0967471363325 -0.032241660566 0.0196167204663 -0.167788052972 -0.0942639528152 0.189600057267 0.146063040679 -0.0784800888285 0.0494982644291 -0.0183107203499 0.0351101507213 -0.0230731484266 0.0375277878465
176 0.00451280728934 0.0109190951631 -0.025358450029 0.0257513251758 -0.054304868708 0.0954512282508 -0.150330708705 0.044239456951 0.160811583722 -0.0912861992773 -0.00164419300826 -0.0517936766654 -0.024042659393 -0.0743450545323 -0.0179307243922 0.099798975491 0.0858388454637 0.142411651639 -0.0418068387036 0.0422355175095
177 -0.034625614668 0.0116052564905 -0.0490483490877 -0.0752283657529 0.0023203526867 0.0796952037742 0.0244401651689 0.0402527856241 -0.03864803338 0.0168145585954 0.0648686144859 -0.00327845105142 0.0207730103699 -0.0449643124761 0.0479977882416 -0.0241468611425 -0.0126265226168 0.0850486253187 -0.056154151477 0.0204275627785
178 0.000950397514696 0.00292624781206 0.00192550566275 -0.00624218854975 -0.0072765753377 0.000542636436986 0.00850622463839 0.00357279694729 -0.000364894435794 0.00838188735152 -0.00237983362412 -0.00591829644629 0.0106304805629 0.00865831118402 -0.00579274426785 -0.0069650485688 -0.0064558853434 0.00396307015425 -0.00882163427564 0.00355253439333
179 -0.017874845013 0.000555122335571 0.0142502888056 -0.0137657891868 -0.000538093775429 0.000143897531776 -0.0187081118611 -0.0203085399925 -0.00691310439192 0.000403250088139 -0.00603447082325 0.0149247813893 0.0268074291816 0.00201034737637 0.0113182055762 0.021824107236 0.000235543024397 0.018207280437 -0.000253103192395 -0.0189956767503
180 0.0105427880199 -0.065769347679 0.127492674938 -0.103855008813 0.0706607311168 -0.0394638253014 -0.102047050118 -0.00728236790539 0.168432324517 -0.132062422896 0.0592587772706 0.00261626446015 0.071900590125 0.0503326941079 -0.00223941166059 0.118410482745 0.0537380723536 0.0827298639362 -0.106774579937 0.135127401295
181 -0.00454667282829 0.00584325736491 0.0675887745327 -0.10574776211 -0.0355080899756 0.017210812587 -0.00175263976163 -9.17236678754e-05 -0.0573868679851 0.0381992945355 0.00323816909773 0.0111845762136 0.00987556686167 -0.0426018522303 -0.030436972442 -0.0788224519612 0.0765294013372 0.15912712284 -0.0451874000388 0.142241735871
183 0.0257266643861 -0.0224170180326 0.0357658193238 -0.0148954445648 0.0291997776136 -0.0210428094111 0.0219161249977 0.0364350681363 -0.00409573797132 -0.0127669110761 0.0111221445554 0.00255133394968 -0.0316943643348 -0.0108332528008 0.016020110956 -0.0208227899209 -0.0452993447197 0.00744967486855 0.00508202006218 0.0146012539454
184 -0.0377109775408 0.015753856551 -0.000155607889371 -0.0226944287465 0.00431560984194 0.000748371648851 0.00233931131133 0.0412683824816 0.00573190291372 0.0282644360851 -0.0183205444461 -0.0311967430713 -0.00131639508623 0.0102608389123 0.0146905873502 -0.00862972972256 0.0140701001695 0.0321718745358 -0.0528384193393 0.027908322377
185 -0.110826405104 -0.392830742415 -0.0321023642768 0.11099088376 0.173995623904 0.244569990459 0.257079099438 0.0406405213898 -0.0058343594701 0.228354539717 0.317846180449 -0.00886728846544 -0.126276627206 0.0362114204026 0.021132971046 -0.0757254091933 0.161798600238 0.223634895444 -0.12993085031 0.161360035261
186 0.0512325123414 -0.0616292008375 0.16964173981 0.0523670320515 -0.0899990172368 0.0876177854556 -0.00445698483842 0.00299217517849 -0.0514624489428 0.159789338078 0.146615619576 0.131560564117 -0.16686621333 -0.0761095082099 -0.103894391548 0.071498446115 0.00292552829288 -0.0323449320034 0.149261208187 -0.0168260536684
98491 -0.0250898363307 0.0506921198343 0.0785641117594 -0.0532079667244 -0.0558159665432 0.00898918517013 -0.150675181957 0.0258501323257 -0.0859377847521 0.0570971740484 0.0206846433499 0.0118914599746 -0.0281543913724 0.0826874528319 -0.029319038094 -0.0602957615936 0.0249978412266 0.0315977521178 0.136315809794 0.0706232035448
188 -0.0536378672108 0.0716151048951 0.0706775408319 -0.0914289773227 -0.00459298592001 0.0603003264296 -0.14880855666 0.0732853506823 0.0388797873599 0.0678533518834 0.0827480885816 -0.0611407807907 0.0843577460587 0.0775509807642 -0.0862118700385 0.060135166476 -0.0185134994259 -0.000947377911075 -0.0837988075934 0.00178749213978
189 -0.0160874964486 -0.0172890546567 -0.0204869163904 -0.00237673057074 0.0178151930531 -0.00193585098019 -0.0101872920668 -0.00574199039908 -0.0200728474989 -0.00325841683432 0.0232191523496 0.0221010247829 0.0370657924001 0.00106399756693 0.033729861705 0.00386761535273 -0.0105691140005 0.017817752614 -0.0217646048534 -0.0202657507764
190 0.0267292594821 -0.00278980409962 -0.0198081124038 0.0396680468446 0.0277417993368 0.00922249120041 -0.00549084785858 0.0238808260741 -0.0332409365033 -0.0578010106556 -0.00978974132912 0.0323759872119 -0.0886346812354 0.0365006862559 0.0313302175735 0.0330226759388 -0.0274432125949 0.0317332607178 -0.011037105183 0.00941564131389
191 -0.0283080690012 -0.0284611350959 -0.0145657010437 -0.00911245384776 0.0022000966678 -0.0284762847095 -0.0239402809034 0.0129545087116 0.00877797329327 0.0320606606616 0.0162396361443 0.0154831189618 0.000322539387342 0.0248882810066 -0.0114759328939 0.0496098254563 -0.0351179725398 0.0319780386588 -0.00520258849054 0.0290831858495
131104 -0.00290105963766 -0.00465216280587 0.0104346227513 -0.0254935408416 0.0489553598534 -0.0313032790561 0.0480082580771 -0.0196188745123 0.0597017621404 0.0201975615722 -0.0270060061354 -0.0172975041912 -0.0203998537416 0.00237086247172 0.000172881377258 0.0184940022179 0.048022854533 -0.0335185444657 -0.0255382834135 -0.0329984707732
194 0.0626780137373 -0.000349807239234 -0.0867108721306 0.096257891709 0.0527333024199 -0.0137081322618 0.0441368477444 0.14210321402 -0.0980544081188 0.0448003642976 -0.0774444667329 0.0338958671478 -0.0644622234401 0.118667276826 0.0967443159783 -0.0603934993119 -0.077384112516 0.0895895352043 -0.0177908335621 -0.0672886892917
195 -0.0471209223647 0.0267120525702 -0.0223015520437 -0.0571807987026 0.0488221304083 -0.105638633278 -0.114838617783 0.0232314309761 -0.0533474035476 0.0602723638359 0.0978943404241 0.096103898307 -0.0492076795724 0.101695781181 0.104497567726 -0.0558092544681 -0.0111839638861 0.0919869135337 -0.0774792004416 0.0376629736268
196 0.0222498636584 -0.0839525966263 0.0928165337467 -0.186488904755 0.10552320406 0.207573772565 0.0492132403794 0.0755123889755 -0.136600609697 0.0628723943808 0.0719075267351 -0.119634741527 0.0817521898662 -0.00293929768688 -0.0251710498171 0.135473592038 0.0146310492627 -0.0623260715429 0.0546019662177 0.0339878970222
198 0.11426215959 0.198137529026 -0.109372140377 -0.0897420157429 0.033644035828 0.266389944904 -0.00796213679745 -0.042865690677 -0.06803096418 0.049516505516 0.037633041655 -0.241002498569 0.00761297499299 0.0207344682747 -0.130493265205 0.0162813990277 0.0120470727109 0.188255109154 0.00226670434603 0.0730105751615
199 -0.0463599132872 0.0232515438873 0.0572386663202 0.0780935943387 -0.0539652162533 -0.0646390695169 -0.0485587334698 -2.02248139068e-05 -0.0108915262973 0.0372257846968 -0.0425265405771 0.0297889117278 -0.0171511888729 0.10243848936 -0.0174467030435 -0.0180452172874 0.0257973881543 0.0494797023587 -0.0423333465166 0.00849371738371
201 -0.0160874964486 -0.0172890546567 -0.0204869163904 -0.00237673057074 0.0178151930531 -0.00193585098019 -0.0101872920668 -0.00574199039908 -0.0200728474989 -0.00325841683432 0.0232191523496 0.0221010247829 0.0370657924001 0.00106399756693 0.033729861705 0.00386761535273 -0.0105691140005 0.017817752614 -0.0217646048534 -0.0202657507764
65738 0.00800548895418 -0.0292810223963 0.0170410645335 0.0154636284631 -0.0286549193992 0.0114734058335 0.0433408550912 0.0113059711378 -0.000606959397465 0.010697881847 0.0216681727703 -0.029442755897 -1.22339125608e-05 0.0222056145729 0.00158147108019 -0.0116565391783 0.0363509426648 -0.0331188884295 -0.0341140208302 -0.0190542624851
203 0.0563586730767 0.021835417908 0.0207998176232 0.0670695706884 0.0688326227427 -0.0624366291255 0.0160315068246 0.166331706748 0.0418114582009 -0.0210421985975 0.135773696795 -0.04368706816 -0.125061986088 0.020390578975 0.0318751302717 -0.0401673319379 0.00203852272313 -0.00468107927238 0.0314682181864 -0.135019402265
204 0.0220247120741 -0.0558618159191 0.133356276208 0.0553116345803 -0.0108533546543 0.0242922325408 0.00257066309052 -0.0310582325344 -0.141864330796 -0.0187345100269 0.0433050104215 -0.118576760229 0.00758384704929 0.0548263671796 0.103619290142 0.0364866722518 0.0209086924588 0.186692363018 0.0330767801148 -0.0826075990406
205 -0.0653282836313 0.0871575900008 -0.00892425084807 0.0141690247214 -0.00621722191229 -0.0732640728403 -0.0196747985322 -0.0505453275036 -0.0362221152996 0.0163750839983 0.0182521361183 0.0030567606687 0.0741344745147 0.0544790426834 0.104246379171 0.0526310333072 -0.000586872758785 0.0794310721802 -0.0785454999477 -0.0717840884861
207 -0.0872757843943 0.0764120669342 -0.0239432177554 -0.135874737555 0.0699239993966 0.0387653789941 -0.0624754067513 -0.0191055144848 -0.0723841505352 0.0171015463907 0.152233392627 0.177565437117 -0.007553917931 0.205402889486 0.055324768638 0.00140718073567 -0.0830838061986 0.248891301745 -0.22658307282 -0.0787717549688
208 0.175974301863 0.0469592085457 -0.0957575255699 0.00855533308048 0.117031511215 -0.128493530184 -0.107093911295 0.0373896292757 -0.00508634697157 0.283612321756 0.12948874668 -0.218549412528 0.0124652907515 0.292610235084 -0.0148354019834 0.0437897936119 0.417555684202 0.0373598929908 0.0144843918187 0.0577683319489
209 -0.0222445954907 0.00500131519385 0.0334489517657 -0.0473027464465 0.00535324225313 -0.0213173793773 -0.0634052706867 -0.0592452936167 -0.0291260438054 0.0187399663442 0.0122720519984 0.0421154973628 0.0483085429956 0.0226924079182 0.0385562460262 0.0510740344757 -0.00972293398113 0.0538444962712 -0.0129273941413 -0.0409368340946
210 -0.0521452384383 -0.0239384229045 0.0312496646617 -0.0348197083566 -0.00621944483907 0.00728754239681 -0.0280180411155 -0.0201484599801 -0.0166807806162 0.00467950344113 0.0188502275682 0.047182307758 0.0736426977569 0.0302781407933 0.018782729933 0.0373539726297 -0.0216863967094 0.0538585093597 -0.0468416528834 -0.0403654608016
211 -0.00977425110708 0.0273675608091 0.0169491206321 0.0178758779245 -0.0229159519486 0.0040863504793 -0.0321350025886 0.0278921319518 0.0164742293542 0.0366086420632 -0.0205555488136 0.0329604244066 0.054301441541 -0.0209567711006 -0.0283117054087 0.0021355821484 -0.0359312914513 -0.00490274303445 -0.0189400693493 -0.0237575995721
212 -0.0173274861418 -0.0131170491443 -0.00628982683922 -0.00494544949254 0.0453053559804 -0.0084376118941 0.0229028481138 0.006944926681 -0.024586465226 -0.0234938331541 0.0411693018485 0.00784821443921 0.0687859427406 0.0240932574122 0.0461338858785 -0.0251099379414 -0.0254778455553 -0.00737664198035 -0.0654668758721 -0.0129190269081
213 0.0349041351941 0.0460596297255 0.0658091717101 -0.0890753810048 -0.0252801509614 -0.0152465746006 0.0963424155674 0.0623279688597 -0.00230049695326 -0.00608977645812 -0.0477938048336 0.0294061715161 0.0385083456669 0.0699325186766 -0.0166836574973 -0.0374977715788 -0.0242092167492 0.021760773114 -0.133908771477 0.0138860758986
214 -0.0155424878152 0.0304091057508 -0.0154613708612 -0.0183360036807 -0.0177873132769 -0.0285886113977 -0.0312369363023 0.0486377921064 -0.0279400150148 0.0250547669422 -0.0625689975076 0.02409980053 -0.00677682476097 0.0156587889849 -0.0125720197941 -0.00856783111349 0.0662060794856 0.044125439472 -0.00380549749378 0.0211143589402
215 0.011311859116 0.00361635228405 0.061903389812 -0.0376953234512 0.00306880443928 0.0337033881171 -0.207866405685 0.0545737863575 -0.0118572623493 -0.011080366031 0.201173254825 0.00627882665925 0.0211557520911 0.201681239704 0.113383468145 0.0520785658649 0.103062345848 -0.00977767956846 -0.169861881173 -0.100760108146
216 0.0459583549885 -0.00194703421463 0.0922165660853 -0.00167840096468 0.0820219349879 0.0285773372244 -0.0863098356165 -0.0717618331608 -0.255120587146 -0.0434074067732 0.00585885350601 0.232769888531 0.0568671230113 0.315836096776 0.00894238630843 -0.030766609749 0.138886434211 0.0917189299259 0.0962705090645 -0.172035045642
217 0.0151303201906 -0.0126537880432 -0.0197678488284 0.0365070527793 0.0141913413412 -0.0568108988355 0.0511189133931 0.0327810755063 0.00770310013761 0.0143069067651 0.033324151556 -0.0347442605687 0.0410901888933 0.00996609396912 0.0509160473268 -0.0420921204098 -0.0363901329883 -0.0337240102527 -0.00184596324513 -0.026423584179
218 0.158597341278 -0.0643692266316 0.0245312844626 -0.0272139344044 -0.0581767693909 0.0048505115645 0.0360150178737 0.0341824798138 -0.0522167713433 0.00345102019508 0.137765891701 0.0378751718015 -0.107399742505 0.0244997911557 0.151786758966 0.00132185031061 -0.0300683143752 -0.0622923210126 0.0682454294118 -0.133361535526
219 -0.0160874964486 -0.0172890546567 -0.0204869163904 -0.00237673057074 0.0178151930531 -0.00193585098019 -0.0101872920668 -0.00574199039908 -0.0200728474989 -0.00325841683432 0.0232191523496 0.0221010247829 0.0370657924001 0.00106399756693 0.033729861705 0.00386761535273 -0.0105691140005 0.017817752614 -0.0217646048534 -0.0202657507764
220 -0.010427387392 -0.00932318896019 0.0270482289166 -0.0307175170661 -0.00493782989442 0.00171571430504 0.00535746838642 0.0297166352202 0.0251129633514 0.0156848397027 0.0193882293717 -0.0251158709667 -0.000624804685132 -0.0188049083591 0.00592238969059 -0.0279779721344 -0.0111580551339 0.0206652990195 -0.0260507881371 0.0241328028926
222 -0.0594837690275 -0.0305155080182 0.0288485891641 -0.139052287062 0.103000837965 -0.0282995057176 -0.161801453029 -0.201214613302 -0.00998225437058 0.0435218370809 0.030610793829 0.191223195101 0.123016203268 0.0581935367615 0.115285720418 -0.0571681197215 -0.017798887551 0.22007344714 0.071774491225 -0.0931291576855
223 -0.0748138076435 0.125503610312 0.239886660792 -0.035519290802 -0.296923324166 0.158827720592 0.00921236969485 0.054851971345 0.139235655155 0.0616836857348 -0.105692116488 -0.0903177611638 0.00401189873132 0.469297092303 0.0657832076494 0.0909223525968 0.0955484446953 0.275266836151 -0.00701149180457 0.110907056796
224 -0.163761687562 -0.00485447499654 0.11335015899 -0.218840647838 -0.141555106271 -0.0886133891559 0.0515140719473 0.158641476381 0.246412332528 0.137487954206 0.123997908431 -0.0361228421471 -0.105175029819 0.162163824617 0.0566527833961 -0.118937917769 0.166746590287 0.180158169227 0.0975465703571 -0.159894446507
225 0.0944319277754 -0.120715475592 0.162846561158 -0.0734995955074 -0.0751645540804 -0.0296531448874 -0.0384261470833 0.219117288455 -0.0247066827212 0.15847594599 -0.00122768987326 0.240035004665 0.057826954423 -0.0618397498095 0.0801847307308 0.110639417351 -0.167977876575 0.131674431188 -0.0685242896764 -0.0253645880366
227 0.0539381790701 -0.170474158138 0.0869714420817 -0.0164607288899 -0.111162789681 0.0318700811075 0.0731031403841 0.0174868047615 -0.0558631110726 0.145027076554 0.197947022637 -0.0972573917077 -0.0010853530097 -0.0332743733576 -0.022098008378 -0.0950268403621 0.0289802252347 0.124978793436 -0.066201971448 0.1115754987
228 0.0316144182165 0.0233308612136 0.0454541042961 0.00772396264719 -0.0214016217596 -0.028765618071 -0.0486624005411 0.0226918950897 0.0309174137262 0.0339511268641 0.0342510116649 -0.0265788815888 -0.0222599068304 0.013560457658 -0.00119832639869 -0.0316215502504 -0.0308625970877 0.0424581267529 -0.0288923777718 -0.0224087191446
229 0.0490801982577 0.0152338501915 0.026415706507 -0.0285280017916 -0.0426760807721 -0.0288620776144 0.0509502884471 0.126149614288 -0.0424211650026 0.000792007639879 0.0374722177555 -0.124026706067 0.0942702456901 0.0412419962848 0.0147879710324 -0.0133057870011 -0.0798071038396 0.0352937095837 -0.0404169836913 -0.016159855034
230 0.0814641827116 -0.0758690491837 0.151520261213 -0.106543105106 -0.080201307458 -0.0946288346225 0.0994338830808 0.0575577859374 0.032785835277 0.041430236026 0.127107090636 0.00526554522972 0.0934298475471 0.133919460064 0.102799555444 -0.20209323088 -0.0506711535033 0.0398466178548 0.0118548137297 -0.109181877104
231 0.20357312589 -0.116400856028 0.208423497523 0.252101091541 0.103362516287 0.378521780339 -0.240828249828 -0.0238875627369 -0.319029543119 0.244592295592 -0.1164315882 0.163547441035 -0.00871987300977 0.360862641268 -0.063069761903 0.0832850120394 0.266586515413 0.00274960795678 0.260157738991 -0.321635297918
232 -0.0199763928965 -0.0166389362862 0.0630789695668 -0.0483795396844 -0.127163358143 -0.000369505665585 -0.130029699804 0.17179988384 0.0286154584789 -0.0962618471822 0.055698393196 -0.0765654167796 0.0650794289173 0.152616746589 0.0701721613845 -0.00837507461438 0.113243071456 0.0821873092781 -0.0371091171069 -0.0673761942397
233 -0.0394811152978 0.00469128302758 0.0797546512992 -0.0238459151357 0.0722646532443 -0.0409178397453 0.00999891996326 -0.0790508903365 -0.0879071978041 0.0513982758117 -0.17052541824 -0.00544420731247 -0.0238993319369 0.0454961460834 0.0263663333179 0.0553588480711 0.0694704878576 0.0728833525118 0.0274167868038 0.0980201114856
234 -0.00489087519648 -0.0101373490285 0.0123399603086 -0.131407545549 -0.00842019472596 0.0152344222646 -0.0409436811516 0.10306835077 -0.0217754682562 0.0928571567003 0.0463914328567 -0.000294633890261 -0.0580716268012 0.0233073370912 -0.0310634105932 -0.0429622450782 -0.0324133884488 0.142856792681 0.0196273766559 0.0633742752277
235 -0.117754219812 -0.0141796355698 0.288372272209 -0.0336308362473 -0.263806908887 0.340086712016 -0.164911598095 0.0293276146138 0.0836195421986 0.0467805287765 0.318230430632 -0.121639257897 -0.141547449215 0.101877441063 -0.108082718322 -0.0468879630033 0.21744785082 0.411721462425 -0.154926217063 0.158834328545
236 -0.0138481147392 -0.144222502615 -0.0504230161713 0.0723220376223 0.0293524232304 0.0912863549589 -0.103530752709 0.0709206673084 -0.0366645833252 0.0891626273095 0.181027624834 0.0385310212154 -0.0557019183659 0.245371509432 0.137182909987 0.0873127049665 -0.14900288237 0.196492547989 -0.139261660803 -0.0540637587991
237 0.0754776218197 -0.178976430536 0.0884401992727 -0.0814146578567 -0.123502879601 0.0678759877879 -0.0344153775079 0.035860447499 -0.0722244056432 0.156894414365 0.0525246403075 0.104748270549 -0.0162525102042 0.05509506418 -0.0747631825053 -0.0583536443946 -0.0883794288939 0.177981101841 0.0979734654471 0.0351782117692
238 0.0444831311564 0.0144937202857 0.00480064006168 0.00534033442589 0.014087845687 -0.0473758800167 0.0457525608129 0.0584688356427 0.0233475232865 0.00300953511062 0.0240576215742 -0.0248848370691 0.0366225212339 -0.00874668239679 0.00171508073361 -0.0429383827695 -0.0354245571565 -0.0635328002759 -0.00392306197548 -0.02010293656
239 -0.00412039734085 0.0489475368247 0.127580401928 -0.0814277969557 0.0214765911351 0.0299082631318 -0.168940039855 -0.0332045420126 -0.111196586832 0.0453984873478 0.0911519779483 0.0370040089484 0.0494029713157 -0.0181470836166 -0.00600133463552 0.0431179368513 0.116699945899 0.0133550862856 -0.0190136901292 -0.0159470735491
240 -0.0337729964542 -0.00697172036393 0.000411047078967 -0.0178623658004 -0.00310162645231 0.0142824290696 -0.00668557392399 -0.0532317372106 -0.0116669484179 0.0074350942901 0.0118005694631 0.00455092547611 0.000698524033438 -0.00199203460258 0.0596134757946 0.0367016285576 -0.0470718372317 0.0606907805758 0.0115205413457 -0.00340310344803
241 0.00579928055507 0.0246867069525 0.0288465530093 0.0381480221028 0.00294637021845 0.0364347963108 -0.0397646251144 0.0135597939421 -0.0207626099661 -0.0133138082501 -0.0340625827777 0.0339108941197 -0.00798454415748 0.0391070634813 -0.0283689890096 -0.0207456043166 -0.0280755203708 -0.0109542276838 0.0159369496785 -0.0221325738571
242 -0.0188018863191 0.0899805308703 0.0320062746194 -0.0343427445378 -0.00646655869019 0.00632300436454 -0.0222924396415 -0.109778726685 -0.0465213310012 -0.0523520931507 0.0211735174105 0.0247906593531 0.0603056272814 0.0312944045764 0.00576985531816 0.0277884627872 0.0250726446349 0.0029653076759 0.0235391440164 0.00438920336426
243 -0.0160874964486 -0.0172890546567 -0.0204869163904 -0.00237673057074 0.0178151930531 -0.00193585098019 -0.0101872920668 -0.00574199039908 -0.0200728474989 -0.00325841683432 0.0232191523496 0.0221010247829 0.0370657924001 0.00106399756693 0.033729861705 0.00386761535273 -0.0105691140005 0.017817752614 -0.0217646048534 -0.0202657507764
246 0.0208025480307 0.179408571978 0.273504213686 -0.0754807871595 -0.152888308432 0.130564413233 -0.105063641048 0.123587706985 0.00738624505272 -0.0248178608355 -0.0827785203644 -0.152976509887 0.133899626302 0.19135442344 -0.166266330667 -0.295713747225 0.0197472218851 0.27013389328 0.0471854876731 0.0739800516027
65577 -0.0192438348493 -0.023274830624 -0.00379215523672 0.00221974153458 0.0217088971947 0.0181289314844 -0.0014907369687 -0.0192233406276 -0.00867549607869 0.0276526732074 -0.00409147360498 0.0142140886572 -0.0141025530534 0.0242035351757 -0.0209409451332 0.000393497255786 -0.000786823523451 -0.00220033530602 0.0279815653577 -0.00907287210702
248 0.0400246759142 -0.0233048059317 0.0514634622497 -0.0586268977134 -0.0747700885886 -0.0188245943475 -0.034130183242 0.0256803189226 -0.064141509392 0.0911545307758 0.00487585710903 0.0917766845199 -0.0611152702355 -0.0419802946804 0.0778235025894 -0.0166866134962 0.141801251444 0.101145129614 -0.0380809900776 -0.0260200414441
249 -0.0513702609175 0.0691561046278 -0.0250436332533 -0.05064659766 0.0132710084831 0.0426367563232 0.0244122175874 -0.111566516112 0.0119454162907 0.0652285387444 -0.0208951116495 -0.00726781537038 0.0978528957952 0.0716502239758 -0.0922188143025 -0.0179462966813 0.0524650713095 0.0642572311386 0.10903898589 -0.0184715466428
250 0.00492444228443 -0.0291455117423 -0.00745310578558 -0.0329559003168 0.0404203370834 -0.013924115076 -0.0416478711332 -0.0526879223977 -0.087398529787 0.000461948226427 0.08180400158 0.0196966223548 0.112213602914 -0.0107463396757 0.0176427636513 0.0794738917068 0.0310502014186 0.0410359737405 -0.0819542559147 -0.0187579572772
251 -0.0182828338273 -0.0044911393814 0.0276093747429 -0.00952648713722 -0.00932874100344 0.00238617634422 -0.0589037430867 -0.0563995468615 0.00655863343399 -0.00356289565761 -0.0142808432861 0.0506565780793 0.0635174594425 0.00546798325566 0.0251330355948 0.0584861403759 -0.0091931751563 0.0235854325984 -0.00724714196125 -0.0519223420338
252 -0.0279848235539 0.0328701356798 0.122655583617 0.141746877047 0.0992718224018 -0.127616766602 -0.271633952844 -0.0703184499727 0.182473825314 0.174303745962 -0.00939973537825 0.129488845651 -0.229888426531 -0.107970878842 0.234386000916 0.0622012919317 0.0740818253858 0.148714919855 -0.0390880578553 -0.0558197901245
253 -0.0425995897064 -0.0416388032198 -0.0172428326573 -0.289833484294 0.0920772552129 0.124299237007 -0.0786165290108 0.198809865536 0.187104877925 0.397574313547 0.236380372358 -0.0890663389437 0.159321387343 0.206099120878 -0.1125966151 -0.0163931325197 0.208270299746 0.095812250358 -0.0604586385832 0.0986000728539
254 -0.0160874964486 -0.0172890546567 -0.0204869163904 -0.00237673057074 0.0178151930531 -0.00193585098019 -0.0101872920668 -0.00574199039908 -0.0200728474989 -0.00325841683432 0.0232191523496 0.0221010247829 0.0370657924001 0.00106399756693 0.033729861705 0.00386761535273 -0.0105691140005 0.017817752614 -0.0217646048534 -0.0202657507764
255 0.00112590773027 -0.0212010597183 -0.00302792550907 0.0236153843188 -0.0358102394889 0.0183727376748 0.0252557333563 -0.00710642268888 -0.0343343445997 0.0631482030476 -0.0378177875792 0.042718707292 0.00265391598608 0.0463355630382 -0.0155010188464 -0.00600449074742 0.02073657899 0.0199700957228 -0.0758121581838 0.0202298012504
256 0.106381873309 0.0328273442831 0.0821928477979 0.054291383932 0.0413132201259 -0.00809012908732 -0.0876032042338 -0.00138371680377 -0.0052520321027 0.144562209281 0.0468986581387 -0.0807643686455 0.038276968161 0.170553933332 0.00855490239992 -0.0449270814285 -0.106070545284 -0.0079238233288 -0.0273900683565 -0.0272157543908
257 0.0545709241608 -0.165395504792 0.117692166029 0.0234331021127 -0.00829825885043 0.00222792713621 -0.0630735987899 -0.00240202091721 0.00946535204918 0.0274694632625 0.152432610202 -0.0354403550683 0.0837895463707 0.000266095466963 0.0333154427288 -0.025613647617 -0.0712628510602 0.0532091344841 -0.0288612052673 -0.0158598264903
258 0.0036918699748 -0.0536089033836 -0.0279908294979 0.0414345430136 0.0963000782689 0.0293612321624 -0.0187652261158 0.013281022479 -0.0656532312628 0.0561917978318 0.131951200563 0.0623248833933 0.0142929957456 -0.138003325585 0.0048519016432 0.0105084991618 0.0318731255626 0.0318844536543 -0.0557141181105 -0.0848492941239
259 0.0649076935015 0.0195360074398 0.00226779745617 -0.000100692608425 0.0110044823067 -0.0564405354935 0.00332077865636 0.0493334471713 0.0455174131514 0.0433043625973 0.000699143794109 -0.0895089786345 0.0173559675101 0.00970250193277 0.0276374183056 0.01863029735 -0.0414176374136 -0.0296282511268 0.00533371063298 -0.0489558107579
260 0.423828514738 0.245327343195 0.161918713975 0.218221574692 -0.155261735253 0.329660479857 0.277182141986 0.130779520523 0.170599040841 -0.021847277516 -0.0129620381531 -0.0766408514619 -0.464090413653 0.703897566005 0.256889876381 0.222901196844 0.324353298571 0.15432109625 0.214868928189 0.32487389687
261 -0.023101628866 -0.0831948569266 0.342777677172 -0.246455831477 0.0160870453156 -0.380674052259 -0.0864342972534 0.223438355059 0.0424850423137 0.182799139773 0.0212209424676 -0.00015393189972 0.228378507195 0.109743239095 0.112716881114 -0.0725727032792 -0.0332199318313 0.158206503024 0.0451804334056 -0.0523251314953
262 0.159234826071 0.136693802373 0.314851754479 -0.0136513426218 -0.0740056321963 -0.0648035699809 -0.130562115806 -0.0537145317798 -0.190043679114 0.0274513814357 0.083554062682 -0.00135838764119 0.159899926627 0.116361019605 -0.0122353531703 -0.0247162521825 -0.0482839013644 -0.026485520887 0.119256701625 -0.216869261265
263 -0.0166121925967 -0.00201083512634 0.0186587107969 0.0221552581546 -0.00535175739865 0.0340891472206 -0.0267823496225 0.0248162808989 0.00410762386428 -0.0196417524861 0.0244232707091 -0.0282611853396 0.0033829107653 0.0340305814216 0.0272184250691 0.00794263660529 -0.0281534383836 -0.00657756391275 -0.0265130113761 -0.0289925692463
265 -0.216981519263 0.00454146238997 -0.0419012241336 -0.0552280767633 0.0852924074917 0.170634662245 0.136263142483 0.233321629297 0.0717280674304 -0.00671303508815 0.261278207472 -0.158668679866 -0.152951784997 0.292260978446 -0.0325453075391 -0.353775036312 0.0870523283298 0.250119531203 -0.126730219242 0.00117265908356
266 -0.179971695129 -0.0772278004385 0.266374736093 -0.276337806253 0.185378838588 -0.0803825776725 -0.0265446955366 0.0535704408958 0.0950810355706 0.214082832421 0.200287850346 -0.0705939344576 -0.131615832123 0.213221905734 -0.13288744002 -0.186147116505 0.101669821802 0.368873541093 0.161451968091 0.0638839575979
267 -0.0749556943994 -0.0364734385867 0.122927565385 0.0115515129598 -0.0393494629435 0.00549225421741 -0.101978399334 0.0877582741342 -0.0858605053781 0.0785393672437 -0.0740364198811 0.0359378542833 0.0853980807885 0.141467505133 0.0718810354091 -0.0331761332447 -0.114639700608 0.211732419984 -0.0899632777006 -0.0581657901687
269 -0.0176115000675 0.0275865275696 -0.0146263606163 -0.0127092494096 -0.0148896462108 0.000902402318814 0.0232550561088 0.0193822012879 -0.0156304786357 0.0345803593413 -0.0354210812357 -0.0223155434173 0.0313727488878 0.0477742440056 -0.0108020845589 -0.0063839638975 -0.000446539552641 0.0205191421 -0.0465556262286 0.0134892427933
270 0.047923360252 0.0135911244251 0.0284104200904 0.0205390954455 0.074183887389 -0.0843128185973 -0.0867907133439 -0.0732539248576 -0.021259489773 -0.00662967800914 0.00812891105644 0.0373080060611 -0.0430818830859 0.0388218278396 0.0256858001915 -0.000414101756524 0.0442170384404 0.0858577023095 -0.0129194517861 -0.0414427038429
271 0.0350755719601 -0.0293323296877 -0.0689924064252 0.0394323552258 0.0313675093657 -0.0615311851733 0.0523875588414 0.0524549050481 0.0224663007945 -0.000937811853605 0.0590631253249 -0.00497421334826 0.0703767366023 0.0152263956195 0.053643434729 -0.0597738008894 -0.0938533699908 -0.0234675443541 0.00438674403115 -0.051715441703
272 0.0492081946817 0.0167260494841 0.174898620349 -0.226284178308 -0.00457420840004 -0.0437593401949 0.087095213862 0.272665908695 0.0576179650186 0.201389732387 -0.0488175312726 -0.0536417969141 0.107368682296 0.00983972863462 -0.128747136146 -0.309961652575 -0.0589357120193 0.249931174599 -0.000419596571126 0.0406361701362
273 -0.125270406045 -0.0894282027023 -0.0699562750818 -0.0450265254472 0.0595571514091 0.0744785571347 0.0887801524006 0.0998749228279 0.0156095252289 0.0937462908341 0.122889464995 -0.0880607604903 0.091518727381 -0.0649145077733 -0.0188215519081 -0.141803975348 0.160178937632 0.156575902744 -0.113498833958 0.0741263827018
65810 -0.00368336774157 -0.000473631423761 0.0141187533134 0.0111105544458 0.000386760376504 -0.0130325039966 0.00732456103097 0.00288171640221 -0.00278234453938 0.000525060889641 -0.0164570590114 -0.016596657476 0.0193823301876 0.0270167802116 0.0152956737195 0.0123087601551 -0.013971092486 -0.00650173247399 -0.0286813743694 0.00222203472439
275 0.0278998427407 -0.018776177211 -0.0120017517618 0.00653120607722 -0.0768533325375 0.0383604396421 0.0383798203821 -0.0134050183906 0.008865696182 0.00565819942968 -0.00466954944206 0.00771235108271 -0.0211754443121 0.0210171163097 -0.0403315435484 0.01426976951 -0.0229904449008 0.0432332727664 0.0199585813126 0.0111698545621
276 0.0456814897438 -0.0110639818919 0.0971856562051 -0.0121961227244 0.0243766511899 -0.0817367099375 -0.142147521897 0.0413618916548 -0.107677169578 0.142132359598 0.0707656091328 0.0710729145641 -0.0672650694757 0.126732985481 0.0648956142916 -0.0229369313082 0.0363960543962 0.00361177809228 0.0101043687981 -0.0652216701913
277 -0.185611360548 0.0245596099824 0.119371598701 -0.155523281597 0.135580691314 -0.152358806457 0.161345614188 0.0698754789177 -0.128066831172 0.153550474025 0.0904671299128 -0.00618920179549 0.0584649962371 0.262705126223 0.00341920905239 -0.0348778407828 -0.102881964178 -0.0191884980408 0.0361831179359 0.0617970466763
278 -0.0108658883394 0.0173325269062 -0.0177778295112 0.00388385676265 -4.27711397173e-05 0.0086832034315 -0.00384680475688 -0.0012319328894 0.000340492114024 0.00211856427995 -0.017829779757 -0.00146230507142 0.0038353639907 0.0115169552716 -0.00329391040174 0.0094975776096 0.00532282963234 0.0131144079517 -0.0174713781944 0.00832856981629
279 0.0152894363298 -0.0100015885523 -0.0134037444721 0.0113213717826 0.0442316207463 -0.0201679851595 -0.0261141069253 -0.0317577833618 -0.0424311950208 -0.029058563342 0.046546207012 0.0185477937686 0.0189823050423 0.0269929470979 0.0586017157216 -0.00352015567831 0.00643557251027 0.0231653231863 -0.0392301868244 -0.0356455708136
280 -0.12083803884 0.0845511418669 -0.0455585581656 -0.17637828484 -0.0449862542404 -0.03521155497 0.0591875114048 0.0111868800055 -0.0106586601402 0.077465064182 0.0276570323378 0.104922331229 0.0284491232949 0.0979100956592 -0.0184647579597 0.00493295737023 -0.136163400246 0.148792305624 0.0756304956787 0.0321484496127
281 0.25292012492 -0.051816775851 0.142378348788 -0.00328833993745 -0.0488890027714 -0.0899335420407 0.0147744407248 0.117350988934 0.0104814843467 -0.023432901013 0.227911785926 -0.0633436092665 0.0106508253934 0.0585397763016 0.0883265834363 -0.128273427404 -0.0565734299779 -0.000204629615319 -0.137432858794 -0.148389364897
282 -0.0242200491505 -0.00993742368183 0.0530274817052 -0.174256445727 0.0992080673178 0.0911621994287 -0.142019219899 0.125184129448 0.153332528489 0.0569150002506 0.0869355101152 0.050532582064 -0.207310631451 0.170768927275 -0.00296670861701 -0.0309428577927 -0.0893591393807 0.337636560584 0.0516555714389 -0.149441555542
283 0.00173692459049 0.0498245442622 -0.00131167835517 -0.0070383102781 -0.0221719847207 0.049298987988 -0.00865396016552 -0.000896540335897 0.0236490980274 -0.003084610927 -0.000843916365903 -0.0342812593383 0.00329375172863 0.0184389599983 -0.01135222058 -0.0260998652435 -0.036990899207 0.0349542663052 -0.0478421214306 0.0602412713151
284 -0.0084104140246 0.00894290381658 0.0212187927209 0.0312423291571 0.0323272603354 -0.0186981912935 -0.0153386756605 -0.0419382830554 0.0476618177084 0.0188608420171 -0.0452842636803 -0.0044458273012 -0.0348476564191 -0.00639209528325 -0.0362979170341 0.0252863208215 -0.000285845662514 0.0277687733928 0.0238176477542 -0.0108339110617
287 0.0088058267502 0.00399904517968 0.00880684945862 -0.0197693190002 -0.0202805647599 -0.0207159515562 -0.0211640844204 0.0278145336338 -0.00641921593285 0.00935637791987 -0.0186451677673 0.0226355044759 -0.0045639257699 -0.0100552187149 -0.0160051630903 -0.020937055144 0.0307334431366 0.0244641479667 0.0172366002814 0.0130041295918
288 0.16918996852 0.0991687760604 -0.050627727579 -0.167714192908 -0.25199524974 0.144951720726 -0.0657710277708 0.0663736853722 -0.0193767884186 0.436113203508 0.0114996864236 -0.237530392591 -0.0660594060421 0.403386222513 0.192987291868 -0.00307871334986 0.166803574579 0.149753064786 -0.0164597420419 7.07276448939e-05
289 -0.0416976375949 0.0454143031595 -0.0237507406103 0.0300435231238 0.0648161884123 -0.140867021793 -0.0705586432487 -0.0660802266056 0.0479277339997 0.0590964336043 0.00123307248735 0.0148212306931 -0.0626951169915 0.074426580334 0.0454180110607 0.0443924098154 -0.00927811720057 0.0908238105088 -0.0149772917872 -0.00356777253894
290 0.00546795491571 0.0497050540763 -0.0117724838322 -0.0354878489473 0.052150543556 0.00558566013547 -0.055495543011 0.0269917232377 0.0512360328841 -0.0744653179788 -0.12097719733 0.0363050786247 0.0760722607557 -0.0507865081398 0.104880302911 0.0324533649779 0.0209361157388 0.0862216167082 -0.00439508538387 -0.00603522686291
291 -0.0353343737963 -0.0124366699059 -0.00978588917712 -0.00169076453337 0.00422011004885 0.0104452477794 -0.00878756967654 -0.00428591577351 -0.0411281960274 0.00538937979711 0.0190249028939 0.0190518898253 0.0418389772914 -0.01708806963 0.0300559539385 0.0409761339356 -0.0145587231563 0.0358945397944 -0.0348112391686 -0.009687189125
292 0.323840118581 -0.0506682990456 0.155285689197 -0.0978175968562 -0.218770486776 0.0288478783607 0.0183252362573 0.1311430433 0.259478814202 0.00647855291813 0.107134521359 -0.00769643337645 0.0452029211102 0.405311578438 0.0533844839849 -0.0692149548064 0.0891843589166 0.101863659987 -0.256058994509 0.0863012189973
293 -0.243735546332 -0.0767680321762 0.327621051447 0.0985836320824 0.0120066504144 0.0124632415861 -0.213038051144 0.524662915099 -0.0800640903508 0.0459827925682 0.418739517192 -0.138004773289 0.109487245067 0.369622927819 -0.0149521781031 0.279345241523 0.100878151524 0.121529524675 0.126413887206 -0.0892704815158
294 0.0306872999701 0.0155915494609 0.00409831486884 0.00450335010964 0.044081014233 -0.0314619214304 0.00680944716724 -0.0209685692629 -0.0188480479798 -0.0208891192453 -0.00328462410139 -0.0117632982008 -0.0122210355752 0.0106674568327 0.0514617314754 -0.00676795799355 0.0199413610352 0.00382151626734 -0.0330788369 -0.00928916094981
49 -0.0159292073339 0.0249859837421 -0.00778156558291 0.0083283286924 0.0292581286206 0.00693222381144 -0.0189880685633 -0.0287646931747 -0.00961917211572 -0.0276604685954 0.0166977975674 0.014826891001 0.0292537781562 0.0254979485857 0.013966855773 -0.021028046113 0.00162811274718 -0.00787025770651 -0.0252665584329 0.00469786245819
296 0.304638368879 0.277445570664 0.723134810126 0.391653774874 0.178562379575 0.0807475552784 -0.244152225153 0.161604555362 0.280707323639 0.425412133799 -0.0167977982988 0.273390161283 0.12325460116 0.754273333962 0.304752567693 -0.401299255485 0.14754928582 -0.228764433719 0.370661927242 0.266552476749
298 -0.00396784998936 0.0095213587137 0.0016889229606 0.0124652492459 -0.00507144373785 0.0107295134503 -0.0195823305728 0.00115257750053 0.0114583231899 -0.0166574034829 0.00821978246072 0.00308234011509 -0.0213320214631 -0.000921576785338 0.00286415349992 0.00690172065465 -0.00903721953099 0.00818150012958 -0.00882919712209 0.0157136493574
299 0.029419543566 0.0323174887375 0.00382526235541 -0.079749136857 -0.0309580457331 -0.0110753316683 -0.00158783466592 0.106566533832 -0.0483645300148 0.0824526828317 -0.0764501874876 -0.0148886382126 0.0456608854842 0.0574182907288 -0.0712925560538 -0.0654640233414 0.0201902744583 0.0679630671233 -0.0468919337276 0.0564660010015
300 0.187538480391 0.0502824687155 0.0605528785146 -0.252591718273 -0.0958935426744 -0.349532845624 -0.0406396781811 0.175823274091 0.0417740017533 0.162582258171 -0.0142215796851 0.0276709528893 -0.0710186441921 0.344845375081 0.235305974614 0.0233734330985 0.0773354517124 0.339298333597 0.0194044512805 -0.0139405445773
302 -0.036209534258 -0.00778095742943 -0.0397156560085 -0.0192386311564 0.00672782687941 -0.0214543547011 -0.0411713508382 0.0441375261239 -0.0544080740832 0.0425380118438 -0.02791734454 0.0374550054385 0.0820372165622 4.43456233099e-05 0.0306501562272 0.0240055969778 0.0263041787688 0.0241590272067 -0.0285667329542 0.00702901657194
303 0.00979855055819 -0.0242800026359 0.0106738080525 -0.0904086557839 0.13415934848 0.147933795548 -0.109267650015 -0.200819084861 -0.187757506984 0.0898645111735 0.103587324139 0.0450536119849 -0.0107328761866 0.18560570264 -0.105944729441 0.152643105673 0.132601612309 0.146130952184 -0.0925419651335 -0.0244563513602
304 0.0251862728196 -0.0410458282668 -0.0436953523798 -0.0196059765068 -0.00772154268734 -0.000282431989338 -0.0591867614336 -0.0453928211811 -0.000399947747095 0.0310462966846 0.019894905919 0.0602392134063 0.0301413474593 0.0203988781377 0.0438328056262 0.0414569360091 -0.0477718740622 0.0184945320479 -0.0400690178995 0.0366895737386
305 -0.0558951899139 0.0105227931272 -0.0513299204794 -0.0277705011927 -0.0157357271401 0.132525446764 -0.0659417258481 0.0651566584254 -0.0104351730083 -0.0519862004558 -0.0141589070096 -0.000460649202307 -0.0481648585663 0.167584101462 -0.0347783388818 -0.0199898866967 0.0272790602011 0.0892387511561 -0.0679996209742 0.0580425593289
306 -0.0443415453231 0.106924428087 0.133347020071 -0.00906238778195 -0.065078072413 -0.0453149119984 -0.0806302356906 0.171420483792 0.00468214600336 -0.0938958181853 0.0160294490812 0.0283295785633 0.049042352324 0.166713088612 -0.0223062940468 -0.115850633227 0.0664859685716 0.129939778743 -0.162503053483 -0.00831671683866
307 -0.0342800664896 0.00345696909323 0.0011779938552 -0.0474835306811 0.100022248337 -0.0631638770501 -0.0225479423737 0.325547075463 -0.119368244562 0.0506740110862 -0.0719083138159 -0.0809306041006 0.0614419579966 0.0847991834192 0.235617715466 -0.0589780187641 0.0870197283973 0.169853314985 -0.261320430195 -0.0426214047904
308 -0.107553186557 0.0144002612529 0.0952885081482 0.0849491291047 -0.00295324406288 -0.074511060803 -0.0899649349361 0.0240452168817 -0.0938132349151 0.0416691605091 -0.0473184044338 0.0216654504769 0.0914124305978 0.216757264347 0.134629024537 -0.0332218871499 0.166386919083 0.0752363155452 -0.177474425091 -0.0740588303782
310 -0.0160874964486 -0.0172890546567 -0.0204869163904 -0.00237673057074 0.0178151930531 -0.00193585098019 -0.0101872920668 -0.00574199039908 -0.0200728474989 -0.00325841683432 0.0232191523496 0.0221010247829 0.0370657924001 0.00106399756693 0.033729861705 0.00386761535273 -0.0105691140005 0.017817752614 -0.0217646048534 -0.0202657507764
311 -0.010427387392 -0.00932318896019 0.0270482289166 -0.0307175170661 -0.00493782989442 0.00171571430504 0.00535746838642 0.0297166352202 0.0251129633514 0.0156848397027 0.0193882293717 -0.0251158709667 -0.000624804685132 -0.0188049083591 0.00592238969059 -0.0279779721344 -0.0111580551339 0.0206652990195 -0.0260507881371 0.0241328028926
312 0.0344444229934 0.0249477498888 0.0550373175571 -0.0116235650883 -0.0106990239394 -0.0404298903839 -0.0490421465636 -0.0035827026894 0.0133698457659 0.0178534337744 0.0239861959871 0.011938262974 -0.00697735725384 0.0355947379054 0.017293680211 -0.0137099875255 -0.0592464873867 0.0522142782575 -0.0199663528217 -0.0320121956721
65588 -0.0016116997987 -0.00258453489215 0.00579701263959 -0.0141630782453 0.0271974221408 -0.0173907105867 0.0266712544873 -0.0108993747291 0.0331676456335 0.0112208675401 -0.0150033367419 -0.00960972455064 -0.0113332520786 0.00131714581762 9.60452095875e-05 0.0102744456766 0.0266793636294 -0.0186214135921 -0.0141879352297 -0.0183324837629
314 -0.0439381960973 -0.0478004541578 0.00566826332628 -0.0858452857072 0.0313509579573 -0.0483117467047 0.045551220213 0.0211309260079 -0.0251957117805 0.0997474752301 0.110222580632 0.115243296813 -0.0140556546141 0.202482589297 0.14479949872 -0.0617634531224 -0.0330830153042 0.0476535129558 -0.111138189934 -0.159230958004
315 0.0694816521237 -0.0340319820702 0.106416130578 -0.203159263218 -0.0112116603482 -0.046854229505 0.0347086837711 0.0386444403816 0.0362202298758 0.194129711955 -0.0458971599341 -0.00527984440973 0.0417909799957 -0.135410672307 -0.0682143654443 0.164946961374 0.0466534781228 0.194953339769 0.109865897628 -0.106820789742
316 0.192427862778 -0.0490933557957 0.223919752618 -0.117276987854 0.189057169904 0.0148347962366 0.153229496071 -0.0106783101958 0.291842885726 0.483444840407 0.112635794888 -0.101044334611 -0.0115601298022 0.0177721561686 -0.112303754559 -0.187187853904 0.209358308407 0.394890427021 -0.0775115312355 -0.0772647729235
317 0.169348235877 -0.0618021025407 0.38396093701 -0.0480329297286 0.420899444551 0.19482049962 -0.146155646394 0.108197258602 -0.0368542450483 0.0210699129871 0.205280704028 0.0596308626513 -0.0254148380289 -0.133215452015 -0.179473765517 -0.035960533496 0.0746156367675 0.0320265576404 -0.0304572019575 -0.0933258552389
318 -0.110657658291 -0.117869767282 0.212644249448 0.847386392162 0.0561937585465 0.350476047198 0.215467092119 -0.114460017753 -0.10189917668 0.913476485232 0.559587815992 -0.143961228356 0.0632979312085 0.978530763073 0.135883616037 0.103573168606 0.402824966879 0.232620477998 0.521560641943 -0.471571639952
319 0.0750446451183 -0.00262506690138 -0.0457284842113 -0.098330962665 -0.125994784515 0.0979816210595 -0.0410238259878 0.0981772675392 -0.11260457252 0.0365734212029 -0.126844773596 -0.198367261618 0.0103371806407 0.0912486456396 0.0926731376999 -0.0292518396283 0.173089563145 0.175170579771 0.000644838002627 0.159851064319
321 -0.00487109026306 0.00332122511323 0.0304011767417 -0.00420383384566 -0.0323925104119 0.00646787847904 -0.0550011288497 0.0619023257439 -0.00445133071285 -0.0071665819263 -0.000436952980653 0.00191948729504 -0.00270232359457 0.0206236231351 0.00587820761541 -0.0199734369201 0.0128244857985 0.0260413000429 -0.00353087766759 -0.0116537297906
322 0.0816460025943 0.0457718531341 0.0085172783092 0.00197580971488 0.0137820315785 -0.099749007887 0.019290219286 -0.0191174451187 0.0101366305417 0.0156045643837 -0.0763681895762 -0.0519567423185 0.0318553046702 0.00227284204004 0.0716292618757 0.113696753783 0.0652115784679 -0.0427045921277 -0.0403300956042 -0.0371899721209
324 0.0117411023336 0.00533206023957 0.0117424659448 -0.0263590920003 -0.0270407530132 -0.0276212687415 -0.0282187792272 0.037086044845 -0.00855895457713 0.0124751705598 -0.0248602236897 0.0301806726346 -0.00608523435987 -0.0134069582865 -0.0213402174537 -0.0279160735254 0.0409779241822 0.0326188639556 0.0229821337085 0.0173388394557
325 0.00758695988675 0.0632857312304 0.0130445014373 0.00363525422228 -0.00956512951076 -0.0188570006107 0.00584858364849 -0.00545452185794 0.0208835726655 0.0548987722355 0.0292774213442 -0.0657657988801 -0.00881388450399 -0.00751322210065 -0.0171841898404 0.0181922484726 -0.0945554794858 0.0456016699629 0.0198459375404 0.00132205747086
326 -0.0300551797425 0.0198599290383 0.00364987454118 -0.00814012932759 -0.0254660963265 -0.0472971281997 -0.00884230634072 0.0435801742824 -0.0423583774732 0.0505884579236 -0.0375113036779 -0.0169717696706 0.0249850998668 0.0543053751011 -0.0240463489078 -0.0298032716077 0.085194427179 0.0277963687926 -0.0295283979955 0.0297320963181
327 0.0505629208857 0.209130206348 -0.00934517105863 -0.149807271296 -0.0572098666912 -0.0267517464626 0.137149145664 0.0988485721585 0.0417837000956 0.035818250602 0.180566873736 -0.0735800028244 -0.0796992483069 0.0199094265745 -0.0667722931937 -0.0643029797692 0.0151961636761 0.100433713945 -0.0185373277148 -0.0144664811812
328 -0.00410953493475 -0.0535708740538 0.0404351682548 -0.0553565427326 0.0233015136806 0.00208009682222 0.0905038425807 0.090205012081 -0.129261095992 0.13233673256 -0.0299319023758 -0.0313001400281 0.006288670072 -0.0172781525946 -0.028922170705 0.0337468482228 -0.0311714312395 0.0826419502291 -0.101803952689 0.0876732831925
329 -0.126401745713 0.00813694592657 -0.1458414772 -0.00794970332525 -0.120361359662 0.00601763678791 -0.12508432729 -0.0710399185193 0.33541134275 0.308172671799 0.309605771946 0.15584175566 0.165303975167 0.232654016714 0.163376472064 0.0766093021442 -0.0169448569823 0.236457417201 0.00235152442897 -0.199389251405
330 -0.00989268461014 -0.00440105889244 0.00995523224923 -0.0224180312643 0.00552753861281 -0.0144951052374 0.0377011551591 0.0703922658619 -0.0523643608192 0.0552483087627 0.0503466672363 -0.0306194290223 0.0309526323266 -0.0437931951091 -0.000309806999154 0.000815661263419 -0.0509020762466 0.0849481659711 -0.100669124416 0.0428305106672
331 -0.0116568658614 0.0228068293131 -0.0115960281459 -0.0137520027605 -0.0133404849577 -0.0214414585483 -0.0234277022267 0.0364783440798 -0.0209550112611 0.0187910752067 -0.0469267481307 0.0180748503975 -0.00508261857072 0.0117440917387 -0.00942901484561 -0.00642587333512 0.0496545596142 0.033094079604 -0.00285412312033 0.0158357692051
332 -0.02709364332 -0.0414326554728 0.0603608440767 -0.0685881163043 -0.0497376593483 0.0136708425014 -0.0347498505871 0.0600098074769 -0.0998669324407 0.0484318490208 0.0365016995242 0.0162135343637 0.0573673989309 0.0459266056497 -0.0399434552768 0.0282864157091 0.0405039283185 0.0112137673449 -0.000760400298188 0.0480846219725
333 0.148534804567 -0.0788488374995 0.0830560932778 0.0985784844168 -0.0178620722703 -0.0567785465181 0.0030358679702 0.11776742117 -0.659743872932 0.20823213379 0.0314523978797 0.290118568101 -0.199137352396 0.237472999846 0.119134811444 0.32982885765 0.122443196581 0.0929953519059 -0.00893315116839 -0.260239836051
334 0.000125379958992 0.081934326166 0.0316982622966 -0.0276951859694 0.00655207367962 -0.112377470398 5.81077675167e-05 0.0477195300409 -0.0385595488174 -0.00426722453799 -0.0918154561558 0.0612484716077 -0.0402348539672 -0.00898315541027 -0.0184198081509 0.0357672441937 0.0876375135936 0.0105251125039 -0.0160398437262 0.0638640355553
335 0.0512725573194 -0.00733571947822 -0.0147621032013 0.0194790016492 0.015398702161 -0.0543693239774 0.0244517937595 0.0578607652142 -0.0131268121221 0.0133720630185 -0.0256738981248 -0.00582625510931 0.0390797459454 -0.00560092271578 -0.0198859726073 0.0168799998053 -0.00750364642014 -0.0347991213566 0.00136749835456 -0.0277588618003
336 -0.0160874964486 -0.0172890546567 -0.0204869163904 -0.00237673057074 0.0178151930531 -0.00193585098019 -0.0101872920668 -0.00574199039908 -0.0200728474989 -0.00325841683432 0.0232191523496 0.0221010247829 0.0370657924001 0.00106399756693 0.033729861705 0.00386761535273 -0.0105691140005 0.017817752614 -0.0217646048534 -0.0202657507764
337 -0.149298717732 0.0286444848602 0.271869777226 0.0301080392184 0.0731962339591 0.193927341022 -0.359943896041 0.0826610553911 -0.136023344816 0.320707497478 0.116521352899 -0.136234021319 0.0668518434918 0.419937025331 0.157235825812 -0.137942857778 -0.0948589774397 0.264601238451 -0.0540179192475 -0.0231374608879
338 -0.0304743976467 -0.0341483946468 0.0785307249822 0.0617232197293 -0.0520406559478 0.0708472128431 -0.0557053674668 -0.0103126226971 -0.0399396310837 0.0853302258935 -0.0180925335383 0.0909065110638 -0.00239844454278 -0.0034111752865 -0.0117669798805 0.0127726717139 0.0298572453644 0.0504202159799 -0.0825742980344 0.0278466654141
164179 0.0531686921319 0.0835524317623 -0.0407189236164 0.086166614895 0.123810865539 -0.184449455103 -0.15904138059 -0.0289248255755 -0.192097865242 0.0702123035352 -0.0434959578899 0.160799000689 -0.080548775136 0.199000253174 0.0863346520611 -0.0584535660293 0.0794381660152 0.0527823828944 0.136520372365 -0.00831437672147
340 -0.0624739560489 0.000649296170169 -0.0483211884803 -0.0490804578597 0.0605140304403 0.00576081331674 -0.0043510295213 0.0548704419317 -0.0591160085197 0.0265206299066 0.0128450725911 0.00396102750444 0.0658959058838 -0.0063232832918 0.0209814503908 0.0674408761598 -0.049655177368 0.0717665280546 -0.0289386769382 -0.0309587634201
342 -0.194303083715 0.078883974698 -0.0372128796664 -0.126554126487 -0.121586655454 0.10601130729 -0.126560288013 0.0589375082782 -0.0213828385699 0.127124296842 0.0900522382598 0.0624990894478 0.14820029331 0.0559662637965 -0.0310507475231 0.0827101093422 0.0352987781905 0.260462617321 0.00942095792075 -0.107490321333
343 0.0193209110985 0.0099323857342 -0.00941814227297 0.060698214985 0.0297718576462 -0.0351563997292 0.00130467417535 0.00368297029986 -0.0114019702023 -0.0120097134796 0.0337392441913 -0.0175974671483 0.00582936023876 0.0791545289436 0.0612524778316 -0.0707440590511 -0.0185342585472 -0.019104120175 -0.0146019071245 -0.0495580469631
344 0.223749784014 -0.317221878716 0.158824165207 0.00158061335058 0.0763561740434 0.505878031455 0.127767483013 -0.0238428274253 -0.428075737955 0.144948746008 0.0644942002349 -0.042476865089 0.00329769838394 0.251526490385 0.0497552443102 0.181630679944 0.208964269398 0.318785714624 0.194327905506 -0.0932271120987
345 -0.111800720852 0.145513960818 0.0127793623195 -0.048079991488 -0.0147197498684 0.0812577758439 -0.139185675661 -0.00180449625634 -0.074901376188 0.0723208135302 0.109575791798 -0.0101279814758 0.112091703561 0.0630310584373 0.107028475741 0.0276488623768 0.0329645841279 0.177675727355 -0.0503626746909 -0.0692513799583
