610 20
1 2.70104918202 1.07907307636 1.78352522209 0.553136759153 1.19076427535 0.873343417685 1.22816667997 0.986461073269 1.02551723488 -0.329221781193 0.25699693724 1.11917961168 0.685950446629 1.90234611101 0.211826675451 1.63137633099 -0.0650648358669 1.15259626772 0.00124996851117 1.32702570693
2 -0.302052558904 0.0911177360107 0.0625209863738 0.549411901137 -0.073003586596 -0.207628283172 0.190897342058 0.263074928922 -0.127572387589 0.0512111949065 0.393919362217 0.283372773155 0.149530789033 0.0505667680298 0.26273344827 0.141371336607 0.16840990538 0.176470341105 0.296188443736 -0.167913594811
3 0.056799015634 0.208206726558 -0.0602929373609 -0.0210258563091 -0.0227980276444 -0.0491866143091 0.19174739579 -0.192071411552 -0.00411246093966 -0.133639723193 0.258225436667 -0.108591513883 0.0557288379272 0.085669364285 -0.0178567678372 -0.120298969022 0.021742122154 0.143175193698 0.0309990380356 0.00360294809025
4 0.544675601427 -0.244870417259 -0.691767579445 -0.102488943274 -0.428870323245 0.902462694711 0.433610624547 0.808477454424 0.760604969157 -1.17598465249 0.796131416596 0.307487462351 -0.243077689138 1.96376869715 0.126392197073 0.36227110796 0.850096139804 0.83113847295 -0.136679240663 0.125716674755
5 0.53015448461 0.0516574192903 0.273533595745 -0.0222750621258 0.339235156912 0.169196718953 0.870401821696 0.731043665194 0.69581948023 0.846506949821 0.689944983287 0.74833267074 0.673773565605 0.428253302608 0.638633563227 0.226005369979 0.377275768091 0.547327764703 0.665550550692 0.236208562591
6 1.0316368034 -0.145902376735 1.61648469704 -0.551128903109 1.61502890885 0.24554873007 2.1418261089 1.78633192019 0.924128088787 2.83384056036 2.10727627106 2.53353792046 2.41520914472 1.12762256971 1.91424236612 0.916209958403 -0.467017182883 2.19222955455 0.379123986031 0.373845054446
7 1.2336089191 0.284936358432 0.298465233065 0.450210862294 0.299471571421 1.27317394415 0.206217804171 0.722034886458 0.799582298188 0.534679443787 0.512772800887 1.25190496975 0.778814135817 0.534979755474 0.745245671425 0.857520424205 0.946948716897 0.212610106547 1.10070486139 1.13551541817
8 0.497423053663 -0.06922264524 0.261106868022 0.274677292189 0.670933669975 0.428876116064 1.13023291099 0.768347327813 0.717751340989 1.2965848325 0.887016809578 0.92829614809 0.655935460794 0.430228504422 0.513788486502 0.546727184928 0.435395134513 0.556714236422 0.662489208183 0.533587636796
9 0.0847257483804 0.45766305297 0.271724429702 0.159619915516 0.183696753325 0.258396328351 -0.141986318353 0.315570048671 0.440251068563 0.0909263143063 0.0422205372125 0.315747664567 -0.169644207333 -0.217973093038 0.2424197985 0.0211159825228 0.107540171936 0.0752915231048 -0.00454110003017 0.371858662322
10 0.69365112079 0.213413820994 0.0368481674352 0.201216090398 0.145881037957 0.0954715948625 0.028459598156 0.20354505939 -0.455265205428 0.0321897808719 0.541174176861 1.22951248178 0.258667621026 0.182055045526 0.723604647473 -0.47632913757 0.215399748755 0.473672304506 1.05285591604 0.459466404015
11 0.812291818036 -0.0979214270534 0.376886081572 0.278673776781 0.460543334561 0.263264628039 0.869355660221 0.633262239077 0.865646354675 0.990974089317 0.328142595241 0.552692987166 0.829043131703 0.413661149191 0.481761075347 0.644554974327 0.512359399006 0.687335902095 0.888825541354 0.478815903096
12 0.269218256424 0.0953061062544 0.275005652628 -0.183808374705 0.257332504002 -0.18318530604 -0.0440121565393 -0.047198771112 0.048332324783 -0.115099166552 0.0860537555568 0.121683488435 0.289106712764 0.122976217356 0.129001246969 0.0584301664285 0.0624725084302 0.0652654313072 0.259165004266 0.0176933913243
13 0.245790139868 -0.0334986950838 0.272015960682 0.0765437893866 0.231926841318 0.336478297549 -0.0256108805719 0.112398836364 0.22584097846 -0.0617337400934 0.0964449271256 0.0257333306739 0.0196242578122 0.100122554987 0.301725042574 0.205867879886 -0.139046693822 0.0564284743544 0.0459765495579 0.403294420028
14 0.233531890107 -0.215784734173 0.404625567036 0.140083308121 0.52880139184 0.315612787731 0.763866645802 0.466664882361 0.385010081386 1.10340635823 0.300038339996 0.542840027756 0.513995693862 0.400792521169 0.408982928867 0.161424853126 0.0782262239364 0.372352672365 0.581454245712 0.374027279399
15 1.25409164697 1.51716665171 0.995060660119 1.61495030087 0.117126110516 1.17969797696 1.27031536394 0.592600056531 0.341249392818 0.624608237871 0.402904079225 0.688271100313 0.751198364896 -0.0553807366439 1.56626465779 0.620276394088 0.239475375768 0.750779933103 1.14039969734 0.658604932304
16 0.095327764213 1.23230232155 -0.0569088669313 1.21671833697 0.0809932021013 0.690416625537 0.786393924808 0.820710400899 0.991307182003 0.451973808096 0.261530823608 0.751165037022 1.01945165564 0.589346364699 0.813134272807 0.478568659013 1.17696110375 0.194149028717 0.802424925855 1.0807846559
17 0.696373754315 1.70398844298 0.142707632423 1.51747866926 0.495223933863 1.14686363936 1.22275596127 1.18406206319 1.58143078037 1.07904673737 0.0100394222687 1.30126960801 1.25522943093 1.33563207263 0.495112083963 0.766196920247 1.00453496237 0.202956243217 1.39423664433 0.751101537085
18 0.582816234572 0.830308465183 1.09289431736 2.06306430295 1.10589431213 2.0861899033 0.55258110679 0.957760216183 1.58214600686 1.69345928326 1.790177486 2.59171100802 0.411514750006 1.29361926781 2.44246334908 0.804324370327 2.53871171102 0.318965104359 2.11092957038 2.19885423909
19 1.2631758243 1.90926307715 1.75886222347 0.645770005287 0.226527940423 1.64002327967 1.97683764531 1.41468397371 0.656686606182 0.410266622712 1.99318582559 -0.481400710349 0.384349642031 0.802830561458 0.367856371361 2.92584676701 0.0444088478235 2.10919146423 -0.635971567692 2.48343063708
20 1.17912176159 1.35781809855 2.03326000183 -0.920499823011 0.520325719374 1.03188357445 0.118961880593 -0.629388750304 -0.850121290203 -0.254741161772 1.43390622202 0.0778566124521 -0.653026058783 -0.492978364493 0.345866760117 -0.560943388968 0.0394594727526 0.231417249027 0.299788728645 0.754265041786
21 1.42256221882 0.776053286335 0.381548345132 0.300345410231 0.928250230725 1.80362544517 -0.331302532308 1.69127131597 -0.105244955333 0.0457568429431 0.0914964889968 1.9211405627 -0.693697251173 -0.501180030214 1.72533386769 0.965109034685 1.32546166014 2.48159554199 1.68540790488 2.01309791437
22 0.14619750624 0.436855630819 0.0281449041705 0.829802569369 -0.317677196712 0.66052542044 -0.119172470176 -0.1045473052 0.172059910504 0.249582348231 0.772066700097 0.664428779385 0.357389546256 -0.0958828644123 0.514844360096 0.187095750088 0.617977533294 0.36571460277 0.178593952741 -0.339838186027
23 0.329733152691 0.92699751491 0.0414589293485 0.819098863082 -0.275791907928 0.0404967810846 0.291216675354 0.445749367035 0.992250008044 0.139713728174 -0.466526112522 0.735070872104 0.850141139214 0.666044115483 0.721543562959 0.468341502517 1.04421082163 0.0877922888177 0.271215777814 0.49324152272
24 0.654621092237 0.418320633587 0.592995584782 1.03253377188 0.375762175658 0.21606577608 0.948973662401 0.670273912544 0.76431023725 0.265077116418 0.465152262844 0.778653015051 0.12750516792 0.33401160074 1.00070275152 0.282784304259 0.604700424922 1.00642486923 0.547862502982 0.384161958354
25 -0.113956270884 0.575634616841 -0.340116800264 0.473339914631 0.118077408863 0.0699707675349 0.356928862651 0.335066007259 0.12429371282 0.206141941215 0.35921668886 0.373541297108 0.25741167334 0.193519665865 0.410858586343 0.223638317485 0.290425562546 0.467829669782 0.779996730305 0.320353048275
26 0.506061144308 -0.210121929234 0.0715295494042 0.0428911691436 0.243851359034 0.151474488945 0.461166236947 0.452714483963 0.205821396272 0.620482292161 0.172873564897 0.452968355042 0.435895899056 0.293002509198 0.347620577591 0.213224603895 0.114388099547 0.356863775795 0.250263283274 0.236095332499
27 1.27049033166 0.795560970734 1.05834058579 0.0146396600369 0.574507839375 0.963970222935 1.04263379848 0.491003636655 0.645498621235 0.0692383492578 1.02625747062 1.05792967466 0.579264600564 0.442967362025 0.217170270536 0.608309261255 0.218922188669 0.497580267744 -0.420256930166 0.903380700051
28 0.267217544033 2.10000345056 1.7511257295 2.45301302457 1.53187678173 0.382922225523 0.419114586225 0.915922303903 1.59570319721 2.14949573552 0.51414679369 0.621795232438 2.33557226379 0.557928806668 0.831216398115 0.868842677674 1.92710311726 0.971388658402 -0.285705486214 0.0841108131601
29 0.447764695702 0.736753315122 0.379888339407 0.519156684594 0.68139131962 0.34819847654 0.281927996296 0.283085695068 0.312909023713 0.710299860922 -0.0590938636765 0.632261654542 1.1594372904 0.441240281727 0.967296976631 -0.445496028317 0.332246372718 0.032516189427 -0.0888168447592 0.61766805579
30 -0.199952831952 0.521449662133 -0.120217088745 0.617601122996 0.178590927043 0.429754233092 0.618795085211 0.5904796717 0.211195132957 0.642590290437 0.148713318273 0.497658834909 0.157732919826 0.281302909573 0.481123178487 0.366328568156 0.301146519251 0.488922815605 0.764372610399 0.581797841151
31 0.298133825637 0.0334967408448 0.233153461456 0.0856576768779 0.829449480076 0.5580758636 0.651735031744 0.572671391069 0.294212691423 0.702537249936 -0.037721527972 0.430536042874 0.199191753364 0.494251630928 0.0851409710554 0.271246469385 -0.204742818873 0.696402469703 0.210853379792 0.480031694556
32 0.223677263423 0.746388591947 0.358559323233 0.252855620301 0.690046837508 0.184819526307 1.3237365342 1.24063056846 1.29254685242 1.09041767528 0.427938517815 1.0030682279 0.337319220835 0.918170363041 0.363926214978 0.267934248538 0.115213981403 1.17999308894 0.603722373512 0.296458082113
33 0.676138604416 -0.182867391625 1.18867547845 0.769349069893 0.981284178175 -0.174718471134 1.40205093836 1.06841164642 1.07672063559 0.973239646239 0.954928504742 0.147104349941 1.56266321332 0.719712814086 1.44110674784 0.707838041205 0.641688666715 0.412996600428 1.14489602869 1.30733545384
34 0.520769615668 0.00620262571499 0.489564452698 0.463087247407 0.289398317632 0.289182290698 -0.207067918039 0.193168907 0.234489730603 0.361106010589 0.58064360747 0.378481565915 0.162144922245 -0.13208748456 0.623078590739 0.152738117175 0.267978448976 0.284785773296 0.466457011026 0.15841253549
35 0.289117409844 -0.197178594125 0.122347256739 -0.0458410038023 0.440301769268 -0.00865431151547 0.339855291326 0.147632170215 0.33487461667 0.474536922438 0.292308499025 0.289150283084 0.34125831514 0.124965903405 0.246209410528 0.0242909541167 0.0816794129242 0.578205847474 0.19412828464 0.175766424093
36 -0.0666750301719 0.0924080508105 0.295323743793 0.0501084064968 0.0735468777613 -0.0361295731718 0.373843707155 0.0271368888733 0.128480916039 -0.211315220324 0.0619381780047 -0.169063872555 0.249331625298 0.366632143424 0.245504798469 0.114985619874 -0.122862229635 0.233813171909 0.143044449987 0.228837538506
37 0.630695197088 -0.101348059816 0.145220853342 0.217546504134 0.25329080995 0.2477675304 0.607045453853 0.298903090391 0.383008301076 0.812470073693 0.192888539036 0.676354837742 0.613625088469 0.341266197013 0.452779038526 0.208977485013 0.281258528506 0.277216418292 0.340820970436 0.15992406246
38 0.421491741138 -0.187193833758 0.545540363746 -0.0676484453036 0.721522265799 0.306433579041 1.2608470315 0.976645019105 0.957681980712 1.28979941414 0.932922530642 0.856950986175 0.752759237094 0.500126398566 0.716865612463 0.365085227702 0.253812319608 1.08657215354 0.891200969873 0.495953433793
39 1.02372309126 1.0391507783 0.564107184329 1.02466104181 0.260517361153 1.06460281827 1.32940549479 0.536528187654 0.729596679376 -0.0102541123496 0.0677923109983 0.471669252773 0.424666988322 1.28479977194 -0.143573737549 0.791548418008 0.171988196412 0.17093189546 0.572322743388 0.901564505411
40 0.60334054751 0.0225850021251 0.75627619014 -0.260723522305 0.489233302817 0.136869583663 0.943462582106 1.02627205347 0.870862872062 1.71955683541 1.09043046412 0.455037263075 0.469397344687 0.501935209227 0.592386381192 -0.194847994385 -0.393024045139 1.301028181 0.0882108237985 -0.0726616986553
41 0.954693313954 0.467232016255 0.953896433247 1.94927166677 0.61991818654 0.664827193772 0.311575113221 0.984537266707 0.185676184814 -0.117941095928 0.320809443432 1.23296699552 1.11071183236 0.26164027836 1.34415742544 0.715877605562 1.24995397993 -0.223999271603 1.3034281122 -0.00569409493479
42 1.45911757929 -0.0492499531018 3.00161520154 0.558416457957 0.868755434429 -0.521971932753 2.35702805957 1.03879509675 2.05971319433 1.11421606658 1.11735372951 -0.450641641447 0.674295990448 2.31124812084 2.77240393497 1.60687615597 -0.390084365487 1.0237209407 1.54440384452 2.83268622615
43 1.35165980155 -0.136350451412 1.1318694082 0.0351320309668 1.11132452284 0.0673869744821 1.61236615303 1.55698878826 0.870788578888 2.58387956425 1.4272076388 1.05610862698 1.34407531032 0.953185039952 0.872275838777 0.731214931717 -0.735731141318 1.21886873063 0.625553199963 0.379619032856
44 0.222480904121 0.31146736219 0.534912285719 -0.168745231279 0.146233954798 0.229611494267 0.531370029742 0.304276496546 0.423078863902 0.300986012316 -0.156299202056 0.473182914967 0.210012393062 0.415734513884 0.186210575588 0.383724558774 -0.160784351839 0.237021395039 -0.0623533222079 0.201063585031
45 2.71005128904 1.06777057478 3.48753188101 1.8216258964 1.60764678283 2.34651330711 1.88529749386 1.50847526099 2.9037279547 0.49295832133 1.74207660423 1.34023815519 0.533541000998 0.238339554168 1.61494427388 2.25429437531 2.09817232331 1.20781518437 1.5729123022 2.54332785274
46 0.579559281248 -0.229834123581 0.257247573919 -0.203013071449 0.614928577997 0.457729425803 0.828481051288 0.784218898495 0.592677272374 1.50760759229 0.620097544241 0.348467684889 0.385310665277 0.374066608257 0.386886792913 0.51662131679 0.155751430542 0.746256859333 0.274665829357 0.105366529617
47 0.766870751374 -0.145969275512 0.490256248438 1.22461945953 0.441496667923 0.0871851923926 0.158178133462 -0.0743614808132 -0.00216577871308 0.302525633766 -0.192368844544 0.295743995104 0.561616798546 -0.0490164869574 0.185742165156 0.568658775686 0.576216132189 0.278597342405 0.400132401952 -0.20097119001
48 0.166989354529 0.40412551817 0.167541074828 0.269758991409 0.2341879151 0.41219043971 -0.169643398101 0.142588632966 0.316911217646 0.214599247499 0.242202465149 0.0947327519735 -0.00539878554053 -0.123370903876 -0.0767105026383 0.438279066103 -0.0530369410704 0.128192818288 0.218675395772 0.190383543138
49 0.263732631694 0.302035262268 0.0139297377186 0.401576836274 0.224488559723 0.177527045411 0.500505555841 0.21215098799 -0.0569090163325 0.472813979416 0.137524979933 0.191863402076 0.443399332093 0.148133363125 0.553497412565 0.230449506968 0.120875965804 0.0849488844908 0.672047564986 0.201019849825
50 0.416600449406 0.38194069534 -0.68633180971 0.862711695977 -0.0884317350205 0.453942307756 -0.468491786438 -0.273247604123 0.368786955978 0.800657004793 0.695928176094 1.16110808551 0.0978503821586 1.15501757467 0.10363354606 0.00529589127003 1.11293317237 -0.305821537442 -0.349949401207 -0.280520508817
51 1.59602962489 0.847728782254 0.466299445418 -0.24514073064 -0.319671795697 1.18575124795 0.0767791186188 0.737014408556 -0.534102124308 -0.741187773821 0.918265492343 0.420411567486 1.55174692859 0.217091125389 1.17364531922 2.08112165916 0.953644228798 1.70827314965 0.363377441029 0.378005299985
52 0.0871597024536 0.477478899673 -0.269680333812 0.821800409546 0.270663606905 0.425598182711 0.545376928853 0.726309968582 -0.392269013707 0.396786646812 1.48188082996 1.08366355513 0.397691761254 0.768650707679 0.238133148149 0.96052277826 0.729757456587 0.683311796538 0.0662596095786 -0.487045843481
53 0.0098396371925 0.207848501429 0.0579522015754 -0.0599194764725 0.0323164761897 -0.0479769063042 0.0949939824307 -0.132737498235 0.122185315613 -0.122738694561 0.161292949402 0.106658273406 0.211797334171 0.0715067751989 0.0693835396856 -0.0398025625388 0.108314821749 0.119198024362 -0.106555871606 -0.02770438619
54 0.498412423952 -0.0609835208569 0.232414266621 0.238663680218 0.309231052721 0.340449874473 0.751761884312 0.397728362293 0.488234715075 0.91727578117 0.448502617878 0.641850460363 0.589767812345 0.342658439591 0.524417659523 0.356371782698 0.258469623471 0.205440898728 0.425021014518 0.259014422171
55 0.0110119470944 0.0763297580735 0.0643437154412 0.0111599098802 0.0239074799706 0.0779472359317 0.066533045078 -0.0981536217375 0.142688708173 -0.0151885021312 0.0514150480484 0.00221216394901 0.0729702796667 0.0582521427462 0.0140101944245 0.0728485523383 0.174882291887 0.100726937838 -0.105253212662 -0.0851135228231
56 0.784550203685 -0.231346880374 0.332406671546 0.10611211287 0.41709312993 0.50440254575 0.98088754011 0.923408751262 0.52675531771 1.26919973864 0.470386807448 0.762582408409 0.811302165784 0.432482507474 0.503374243883 0.853977334226 0.392930696936 0.459092894487 0.64784469945 0.298964237038
57 0.524121260255 1.18019300493 0.215133906764 -0.566420276219 1.05543182761 2.47599357112 1.4804201087 1.29300372255 2.73533526236 -0.855876430218 1.56405255803 -0.151952888223 0.580161243795 2.28457181318 0.080719205536 1.37451647839 2.13571800703 2.6414193004 -0.0160057616749 2.92715495419
58 0.777044928037 0.0287723214676 0.863245393281 -0.320022962771 0.841258464925 0.454871094137 1.71765668017 1.76070194617 1.10590272128 2.10898355436 1.23279813286 1.55053570404 1.04949618683 0.937297202395 1.11931114483 0.917644567166 0.213389517784 1.12239517041 1.30531327613 0.360282307555
59 0.754576681284 1.38157199872 0.30915598087 0.0536873787793 0.0388228307112 1.06230792997 1.19490178816 0.651007477233 1.20626725179 -0.340611750979 -0.211584141984 0.841037392786 0.637233328105 1.1323998342 1.34601330094 0.77234389553 0.127328917188 0.510537294447 0.232533263027 0.773034684518
60 0.00126178224791 0.313655122971 0.0776306609831 0.264438586586 0.0507288786527 0.0154745917794 0.365346451259 0.295399886349 0.000418613386021 0.136265929196 0.371650732607 0.172753421436 0.394069537218 0.205174764046 0.0360198614884 0.0378726763546 0.0243041526033 0.127406498789 0.107753607452 0.030664784615
61 -0.00676030605741 0.749822676849 0.370396402339 0.573887762275 0.262447410897 0.317255999521 0.254064330167 0.560936860605 0.512438662607 0.474077316952 0.196258185649 0.0437504175268 0.393512412232 -0.0366065666675 0.0403158104111 0.300665963739 0.614427017739 0.0200047839829 0.443715714354 -0.125591985697
62 -0.585082149705 1.68105090708 2.35704876354 1.84512250814 1.47701473222 0.246583633475 0.130133696881 3.13341687896 -0.318987425218 1.56762708666 0.952238343865 1.96208338577 -0.555938758996 -0.483357738708 2.67166819134 1.03050246113 0.866353498363 0.754162765216 1.4217627923 2.31511595476
63 -0.0479635311212 0.679986923136 0.334281127648 1.50876950832 1.75375990212 2.03353311401 0.384813730499 1.21282713316 0.595731664056 1.73181665756 0.596084648836 0.453164761119 0.845010790475 1.14879143745 1.65448275186 0.811822792484 0.970045235934 0.434511146127 1.55279053137 1.3086128967
64 0.899955970933 0.252606313466 3.45855319671 1.02278213545 1.14890397013 2.78977259483 -0.12413888316 2.06974473189 0.724573267753 1.34399638194 1.33794250189 0.723180088355 0.689249365516 1.28685231208 0.0978676770548 2.08129152701 2.72204006534 -1.10346161636 0.421355321085 0.730705788312
65 -0.199410728553 0.277262213975 -0.0913581978474 0.747898241725 0.169690924956 -0.237770903183 0.14520560499 0.443288429238 0.232340946889 0.30586988826 0.555564574065 0.150250916201 0.348509488751 0.140483061269 0.217678965387 0.174623544279 0.238717764034 0.211432187682 0.76570371349 -0.0475775447245
66 0.97460407233 0.765726592771 1.07727484853 2.12169341768 0.336326529167 1.30502613651 0.433728451124 1.78577825302 2.88396365903 -0.160674915727 2.04166966056 0.633074471738 0.913749999059 0.430652509896 0.751987235619 2.08305669195 2.25345194444 1.76051563099 1.32507279076 1.46954764776
67 0.401558829155 0.38994308542 0.345259437459 0.75857135349 0.324133769016 0.534410707221 0.453861851298 0.354691527073 0.440401282056 0.237443584748 0.372317433546 0.646251765199 0.462394502653 0.0816693820259 0.578695903565 0.47849187991 0.136362014056 0.24829793379 0.810350572899 0.582070080684
68 0.519260664923 1.22571878007 2.91735389511 1.43812984994 4.2519075798 -0.404822469847 -0.438595151706 1.19783609475 -1.25869461601 -0.400624865064 2.5662415775 2.69342536401 -1.06383124954 2.35684053312 -0.344514591705 -0.126959455249 2.81287411685 3.60644178425 1.47230245237 1.35249566891
69 0.692933834064 0.392332730641 0.322984279245 0.532923386627 0.154903093704 0.576043905301 0.691557763103 0.191364823453 0.461333149995 0.128640561669 0.301301059029 0.543272793234 0.545261792802 0.509378303217 0.652606305674 0.811994620088 0.364170887369 -0.0182614335859 0.952422737636 0.303787740085
70 0.637386217371 0.365787053914 0.284360810863 1.07862711376 0.202348498531 0.254270795737 0.513282483837 -0.0435162637619 0.271355434824 -0.0489883016372 0.608790867026 0.545717828408 0.979925161641 0.404833178473 0.153734611877 0.190670892095 0.120186043647 0.318564997309 0.0448903890352 0.966038276897
71 0.161075289831 0.122564012417 0.348126669022 0.0385495317201 0.271922150656 0.251412206016 0.33809932079 0.469124661753 0.49994725523 0.608468329043 -0.0323343136374 0.419002279757 0.274384391698 0.330464719545 -0.0861690933032 0.36841689904 -0.0662651649487 0.289140937813 0.0923333777752 0.274451722634
72 0.87760766172 0.560477533976 0.485851564714 1.09173258917 0.761076930326 0.720310631088 1.39452509834 0.64210021961 0.843727610734 0.831919758319 0.387148287989 0.786177407063 1.07631463732 0.373974985823 1.00101818176 0.670321778628 0.374275689411 0.465154509761 0.703956007814 0.983530231953
73 -1.12318693156 0.661360556448 0.195669185767 0.974908471272 0.00871772398986 0.49617425959 -0.570360469874 0.968818837399 -1.45303866415 0.97381337488 0.00852900717569 -0.287152329187 -0.891213234392 -0.180631593322 1.09690816306 0.661198983182 0.620319767492 -0.521004326711 -0.107347675307 0.411021551603
74 0.860201630813 -0.140474609506 -0.0854642953203 1.34323267912 -0.131203877834 -0.466968634458 -0.473963057786 0.781475663929 0.612640828603 0.197247041243 -1.13093039815 0.675397889952 0.747349681712 0.637512666631 1.33063575433 -0.370105460974 1.26734017014 0.379786392311 -0.531598367565 -0.63766778865
75 0.243915761245 0.61378666804 0.00393149821724 0.390468075074 0.515084592304 0.66643757679 0.122606745954 0.257797288603 0.624953019711 0.205048634471 0.230181862773 0.563275426756 0.470252488536 0.268777451724 0.183455757033 0.305883351533 0.233857468361 0.28931645415 0.41552258476 0.320289859868
76 0.429763416743 1.37505291085 0.411254229362 1.2828782594 0.696932934512 0.353196293043 0.742706076188 0.720698320793 0.496779406891 0.153514496805 0.194943002139 0.731160011553 1.18291970618 0.622325939048 0.353834372262 0.333821496784 0.782332541295 0.224859960364 0.663123751193 0.0989597355164
77 0.313801311866 0.674918071628 -0.14734225 0.469055018461 0.160835783467 0.446106999503 0.0975067535642 0.418638954964 0.394159586553 0.527188719407 0.400273739898 0.627094562966 0.133834842854 -0.0827338691741 0.501690100677 0.241856936684 0.184265551166 0.431887196084 0.525149272004 0.521302309016
78 0.299299689691 0.0571815855553 0.270249352652 0.413466661336 0.681402312356 0.717975348267 0.754713581054 0.180247358016 0.55232223921 0.853252694662 -0.0422629841481 0.303420615842 0.290875101386 0.445872963487 0.293775195581 0.635538048609 0.138581285893 0.437792969856 0.681230956913 0.580189640437
79 0.707560473587 0.651818102071 0.394078810314 0.245697843644 0.491616530176 0.252507291115 0.845540590644 0.691860759889 0.657128351633 -0.130702901009 -0.0243178185612 0.438399062557 0.309400494274 0.639619627096 0.485516571715 0.536567700643 -0.0204540767978 0.734528143078 0.355492379551 0.579269759744
80 -0.501881615649 1.21805937125 0.483078002942 1.98612018838 0.253881049586 0.537579277735 1.19468597522 -0.176055607507 0.365269984699 1.14916506328 0.39434007915 1.12670276074 0.686159056139 0.0482870344366 0.776035471024 0.0570040720503 1.14120421543 1.10567163194 0.274309085864 -0.290565962924
81 0.42295928107 -0.00212720689834 0.169749773545 0.234264561695 0.24979443566 0.347110856796 0.605903216233 0.273598360323 0.416544976741 0.827717653581 0.242830195576 0.368310981427 0.472366013038 0.18252513406 0.36377214123 0.25378156811 0.224970895021 0.330344894347 0.294427051761 0.114010736027
82 1.46781213955 0.156300198785 0.96658242883 -0.143364729085 1.64743300667 1.70472009237 0.671668402391 0.934410450812 0.674992248246 0.820273294855 0.330427490917 0.843242797855 0.92188854002 0.129102604019 0.678014319429 1.11171770873 0.730562243115 1.50549529944 1.04244131704 1.07413518616
83 0.609116136225 0.413384869274 0.00304864425177 0.641894632158 0.626182688868 0.162138901276 0.106407281474 0.402845730362 0.412061656044 0.838535846198 0.323362035912 0.54818830055 0.839669549651 0.470815913211 1.14745981223 -0.0736451512311 1.02883176785 -0.0915762634958 0.756622132395 0.546059379122
84 0.977756357107 0.855892453569 0.616389834785 -0.00779615448972 0.314570765057 0.0168406933654 1.68622641888 2.33033134556 1.80749418716 1.15512323156 0.515497556309 2.47195363656 1.5446992925 2.06380233605 0.846525669578 -0.0218254208762 1.01910882639 1.97569446338 1.01632112493 1.52416976736
85 0.0635003556408 -0.0717460357438 -0.0406358775587 0.0712125502315 0.0545168541078 -0.0891775261068 0.253867744813 -0.00256047546777 0.134938032906 -0.119682293812 0.222576248092 0.11053749995 0.28219891249 0.288784202173 0.242345590088 0.0592148735145 0.166261627376 0.0323140369728 -0.0565616536806 0.21659850921
86 0.558521556007 0.357187021903 0.297908631797 0.757213687724 0.365755175042 1.19843359653 0.716096306626 0.284497045396 0.537821960795 0.578963960347 0.934317010073 1.19196333058 0.380088333058 0.0914869018786 1.07766086486 0.617307820776 0.376445098264 0.584983404758 0.789162089411 0.759331644508
87 0.0807831700321 0.188888844636 0.0360075327124 0.195300531154 -0.0266277084001 0.0197840753038 0.0306736060402 -0.0199037529862 0.121870991578 -0.10764960938 0.121316282226 -0.0495357407266 0.0205540460956 0.024425338196 0.0451049296593 -0.13867292936 0.0567247907359 0.11959802776 -0.120901634372 0.00975711623612
88 -0.152149950933 0.640852714443 0.0369452593454 0.780312449596 -0.0837686314524 0.242582025817 0.400391057052 0.257230435239 0.385359664104 0.493328549499 0.611627145995 0.179772479993 0.619370461625 0.116147332538 0.33515903032 0.202387027427 0.725529350815 0.300445764543 0.411005972942 0.0730398855119
89 -0.314332172858 -0.190469946541 0.979519884753 -0.703357605624 2.39720342055 -0.39323232524 0.751927507069 -0.325179520978 1.84033868018 0.548790090492 -0.696188031574 -1.48123833316 -1.90085520475 0.470456932078 0.113510520606 1.06797689341 2.64268788676 -0.852720420853 -0.878015153142 -1.54036377629
90 0.27759530794 0.253058835933 0.366087075287 0.362295468814 -0.044667718551 -0.00988167186901 0.619955353758 0.358433485359 0.382798172847 0.634181714859 -0.103611591975 0.00536468734507 0.276882285652 0.112871538149 0.295624164429 0.0145046627358 0.0839884141747 0.296384430878 0.118038078697 0.145395048279
91 2.96268324091 2.3379483807 1.96139164489 1.36919127518 0.450598444814 2.69413261801 0.63470040978 0.728144341151 4.00066976007 1.48362941118 1.14346305344 1.5804669983 1.76589364777 1.82725129165 0.625607110789 3.80012845057 1.97215015468 0.724278758134 1.16623109046 1.57017951098
92 0.0996787317648 0.119192757911 0.105839820071 -0.0503471785719 0.0635045664245 -0.089064581183 0.0723087182437 -0.0808078276239 -0.129188639357 -0.184672273766 0.290183223769 0.0483830306344 -0.0496839427152 0.0941990983723 -0.169163704616 -0.159506084493 0.046297005323 0.0129883850098 -0.0509296219381 -0.0233034782191
93 0.912510854082 0.198372928377 1.16109836952 0.653343528053 1.16649470363 0.358593479009 1.00205313715 0.946243531031 0.940246100259 1.28041083798 1.47043015528 0.636714505979 0.746748462659 0.0161319426449 0.620067127862 1.16279183273 -0.148787431549 1.18706103287 0.667441667189 0.415776278955
94 0.587349150981 -0.143853921095 0.410935268326 0.197359725094 0.587047201165 0.504067389617 0.968760612579 0.593929612182 0.684041068331 1.54117912964 0.681685717995 0.696407262327 0.655710066777 0.316440988209 0.510215523099 0.496085298897 0.283326936426 0.638621703295 0.451804784121 0.312710370129
95 0.554176870905 0.827977514304 -0.0287782821701 0.892151280853 1.37765191267 0.288836100061 -0.477248385231 1.02282652746 1.31178819975 1.02544730238 -0.204653073348 -1.06262066809 0.933036581348 0.130047553047 -0.136087732082 1.30694927343 1.0995743331 0.919675961618 0.481648411767 0.594112591073
96 0.940590231925 0.716019443229 0.677096662768 0.574252742307 1.01021724492 0.875586042907 0.932951286221 1.03472502667 0.940905945223 0.949011534499 0.216090861056 0.350685561667 0.855102528004 0.605125845503 0.58809201503 0.734046894322 -0.216731983438 0.597098012351 0.482952201582 1.07661161214
97 0.25589099568 0.432373672234 0.370765068396 0.129797584562 0.426376248455 0.475084095907 0.214692074474 0.209976605844 0.332576184488 0.0971552578392 0.20123877551 0.353518879505 -0.0317872819872 0.119010848207 0.404905044138 0.450398354305 -0.0600383658839 0.0891485996351 0.374198763571 0.25978855168
98 0.710166226522 0.844282965458 0.0818386042109 0.824375582833 0.0238362785512 -0.0129499470372 0.457395389194 1.00278588194 -0.0724734872421 0.348346479016 0.579103286614 1.03700822388 -0.0371549387181 0.307563014017 0.522042801205 0.804198066903 0.330398442072 -0.0328542122284 0.616038359346 0.309669440228
99 0.682220320962 -0.493847546418 0.294397619804 -0.125780807478 0.473158803249 0.0782186613814 0.325585068497 0.668709411457 0.27445489162 1.28345857321 0.38706071168 0.331181129466 0.488066267055 0.296490528861 0.400668024236 0.344278199809 -0.192090774808 0.75273062096 0.247041543469 0.0472517318536
100 0.939420377356 0.00294488820536 1.3114154369 -0.261314299235 0.802450564144 -0.213746921194 0.733277318156 -0.220899642881 0.545789000868 0.653404343675 0.217614202388 -0.453891910132 0.388389064057 0.752690605161 0.194695666634 -0.0661324781006 -0.189339471543 1.1555271849 1.02090042671 0.97927473563
101 0.121258671418 0.0795109317171 0.0305211377712 0.286794608438 0.127210974186 0.342004627818 0.193662484374 -0.0360226230628 0.253893597456 -0.0972938467043 -0.223670268094 -0.346668424102 0.272297076365 0.149186339399 0.403466427816 0.401171950566 0.278680487492 0.299567444889 0.152342176828 0.649035732542
102 0.676569517382 -0.238616127519 0.343558887274 0.0301237495255 0.332375996331 0.385675407563 0.930445110627 0.802503901217 0.584582065609 1.3179890419 0.631278104585 0.901772760522 0.72595763432 0.567984693823 0.475505669846 0.692505741903 0.25801674311 0.50228496183 0.647117182778 0.312129652047
103 -0.650801901048 0.341706837533 0.617475316993 1.31465504063 1.83317235119 1.24849538355 0.365096533822 0.125044634449 -0.195240613168 1.56149047774 0.955790409979 0.93657705867 0.268624023577 2.53038066819 -0.163718139332 -0.0440817292394 0.881260855276 -0.239654425048 2.4393430192 0.706942921095
104 1.52479489045 0.661023022305 0.293058368612 -0.569908667327 1.27265399663 0.850346464266 -0.507586621697 0.489413409927 -0.496771123536 -0.0384545798481 1.78626810842 1.28408381227 -0.114319777126 -0.327027027897 0.410317670506 0.652286687992 0.970195295938 1.05255274724 1.73195187185 0.137244624417
105 -0.517339216939 2.20170523403 2.53732162844 1.15187287235 -1.30968138019 2.20942947795 0.636029835956 4.64348816524 -0.427845837977 -1.25814069781 -1.51798361792 3.77551813041 0.739325998492 1.45405747191 1.22927485734 -0.160961057365 5.50240070992 -0.0798575650191 -0.155915214024 -1.01168371921
106 -0.0200773256159 0.281081285476 -0.384009896494 0.158259190649 -0.0137024267598 0.288025968517 -0.258544471651 0.272161322107 -0.372294413061 0.416848830077 0.328568634174 0.223872186961 -0.0765766662587 0.0239597160424 0.377678480935 -0.136540423319 0.0689162596279 0.0902849219049 0.704997089828 0.0984464798847
107 0.381345464396 -0.212661117962 0.294034499538 0.0265799375181 0.699120134794 0.340301858608 0.533973078335 0.299591472383 0.598335999086 1.07577078178 0.393883935393 0.374066869768 0.457020041445 0.200045064012 0.258499796238 0.108019176024 0.17385901513 0.502459619631 0.134749437671 0.302781465953
108 0.299804549806 0.0330887247452 0.338705086566 0.599805342857 0.272787344206 0.378227716635 -0.102003999483 0.597192300086 0.158846667888 0.0579088284983 -0.421563953463 -0.193701579962 0.295632049053 -0.528525163056 0.375136270674 0.441849239039 0.346896973441 0.86793992623 0.793864547477 0.160901205308
109 0.693604496181 0.191581320644 0.806091630658 -0.215298518967 0.76471928189 0.722663203026 1.68946590571 0.793135874999 0.919640002099 1.68954998443 0.330894004755 0.667183060123 1.34728017604 0.550218476399 1.0673057803 0.417422990375 0.596660984259 1.06011984868 1.09546879877 0.699936681771
110 0.339685452419 0.499322170352 0.30501069459 0.511571524375 0.38589354843 0.526924289529 0.286140801467 0.573723500272 0.56118165304 -0.131742816529 -0.0657121181381 -0.0400141289388 0.785880950889 0.237032736869 0.628385253374 0.265133772786 0.0675228009185 0.212430786835 0.454589602594 0.398781722124
111 0.0609206114427 -0.953048723448 1.29804075927 2.89700993342 0.4935100984 -1.32919349646 0.891897267657 1.12854900817 -1.35018935623 -1.47393651559 2.10804920758 -0.786426908394 -1.39853179637 -0.547577779935 -1.01615568947 -0.845727065224 2.83191898129 2.72981714537 0.665721134465 0.202186737381
112 0.72960282659 0.658318227961 0.244706266371 0.617820571952 0.579073646828 0.946794176417 1.11659442167 0.964252711295 0.734504435781 1.0278187633 0.198166234947 0.753873739785 0.946978484219 0.459842639575 0.917659815978 0.703402660511 0.488837646009 0.556828229679 0.908004832509 0.855930626944
113 -0.288616545334 0.203363515236 -0.058265808865 -0.600505207135 0.255123984333 0.0462114717804 0.669468072628 0.341329547993 1.01911184269 -0.900793792259 0.340029119095 0.311698078938 -0.339738590356 1.38887701609 0.208898788784 0.316748386514 0.282317233696 0.861808888164 0.577849109331 -0.238957015456
114 0.229556430635 0.113133637124 -0.0152220148801 0.213516859764 -0.0298116767634 0.10354207641 -0.0240875679407 0.137632877335 -0.182850808024 0.0721276301383 0.326101134834 0.291131565633 -0.218056893976 0.0252396488944 -0.0056952266571 0.0250701258297 0.16252279499 0.129375553325 0.0516460878992 0.128286555433
115 0.648414339315 0.955257108458 1.01085668321 0.06314204435 0.305172625263 1.10127910269 0.570646935827 0.470030361119 0.927171805249 0.692418896784 0.864556893527 0.525297571411 0.299478779112 0.390734881345 0.697910034721 0.522137025381 0.161259236366 -0.117971064601 0.889776077749 0.864955917963
116 0.520543790143 0.0488941786473 0.384844801824 0.187882671431 0.727015726755 0.858379550582 0.350343370309 0.510068439419 0.70129504192 0.718892780199 0.322174728879 0.775810100633 0.398281441246 0.538622450785 0.281603210661 0.806103011164 0.216623935951 0.349465012771 0.40454897514 0.566674019907
117 0.864288707624 -0.0472954907598 1.3417840124 -0.00366485430408 0.884855104895 0.33097578109 2.20914186652 1.54055573609 1.31638268761 2.17765997136 1.471038101 1.54221203459 1.25754533539 0.929648019109 0.970178565434 0.85899523922 0.192184261565 1.67037655004 1.16050985226 0.517383148566
118 0.205125216098 0.495440264249 0.316054630398 0.313317503962 0.234635387111 0.126353192132 0.371352311948 0.225844533974 0.296720658815 0.268167874101 0.0801365480811 0.432744262916 0.393528919142 0.287638060472 0.229012516832 0.241222600964 -0.0411280520439 -0.133530987294 0.211470491061 0.484766353648
119 0.601968986272 1.13644120292 0.0266312118261 2.09966426326 0.674282785837 -0.135452280998 -0.122856928419 0.971268199855 -0.335567172642 1.26953971941 1.68760891593 1.5288072168 0.811721185547 -0.554236800764 0.764669107688 0.655852863248 0.474250849179 1.62521529367 0.965270941745 -0.00166780712669
120 0.189210008 0.482533572468 0.293314290554 0.0308673271126 0.197547293403 0.258590582873 0.504847176364 0.305938256992 0.314945696864 0.187456047301 -0.0545951975029 0.399363971498 0.146846344283 0.258984674889 0.0158122740469 0.283246138637 -0.0844904495271 0.222859332654 0.0475991312913 0.216388377887
121 0.526082890879 -0.0426351645375 0.448231237158 -0.121710554341 0.554232863483 0.344466676968 0.993282683902 0.744462462124 0.681858667968 1.3540276585 0.321294008538 0.617030804797 0.666557384824 0.403140273 0.570890645924 0.36951274602 0.193118496371 0.776381534685 0.758005821025 0.514556190909
122 0.222312929966 0.921603311018 1.33274778934 2.26178856791 1.40736872916 1.0208644218 0.185848797346 -0.533062841607 -0.480318638367 0.545573729699 -0.41479772687 -0.47997737398 -0.990377259469 0.843234061304 1.4350288522 -0.335170573181 1.7955322915 0.175860471354 -0.402771850314 -0.711390584259
123 -0.129061623165 0.453674372986 0.237498793968 0.874716274595 0.182160140639 0.242845573104 0.602524118295 0.633250545621 0.0817979279068 0.28488434185 0.262374138731 1.03212651679 0.43721640907 0.224437718919 0.797763554863 0.427932725205 0.510729225526 0.18897224044 0.689970009009 0.218303905738
124 1.15809916766 0.157979311973 0.850787524555 0.775922440742 0.372951684231 0.818961105607 1.14989252577 0.255051769921 0.702455798959 0.372715747038 0.275295385054 0.659337209521 0.951024701071 0.226852694208 0.993597418229 0.790104423888 0.441423212611 0.0253663346973 0.570848090633 0.870407630049
125 1.05388391404 -0.130341857952 0.686635940978 1.15061576245 -0.881194182313 0.448066147403 0.212038464337 0.442953050169 -1.73320972935 0.856002055157 -0.650399157643 -0.957691283863 -0.832159500589 0.501314123402 1.98965007743 1.02469363522 0.356549156244 1.01447567639 -0.647179193537 -1.70564568941
126 0.670650940988 -0.300887127409 0.140998387843 0.122392383783 0.461965740149 0.395192760728 0.89382920278 0.660438976093 0.417376122527 1.36019024036 0.676312450145 0.764768194142 0.722718603403 0.450698500388 0.437864321766 0.451901480083 0.254809518466 0.546125874454 0.410941049957 0.307028282995
127 -0.0637111421959 0.114117470561 0.0562357616035 0.0606273208235 -0.0684560635482 0.0613700975443 0.087828400284 0.00411809896623 0.0544602775188 -0.177749957364 0.0722523661056 -0.0391900175668 0.114933496769 0.0365778608853 0.0733575048182 0.140204512697 0.152450773421 0.047496756519 -0.0435958903673 0.0852048761587
128 0.0517227964348 0.349168908491 -0.100913499446 0.294758197929 0.394483845455 0.251420884321 0.228351591249 0.492993855823 0.610748454172 0.253929131266 -0.153385512803 0.644867194043 0.168009893075 0.512067655772 0.147118691812 0.246148452918 0.32106157776 -0.0857061002952 0.333026816673 0.538851702304
129 1.33010067612 0.430916213559 0.386696217541 0.733587387628 0.750200469396 0.521132448618 -0.453047046137 0.92176204528 1.09716314354 0.802094336839 0.661696709425 1.24634727069 0.257180600713 0.0727061321694 0.248904547219 0.562573262613 1.32536528295 0.609768938183 0.460069981864 1.36873829943
130 0.566554910471 -0.300342861635 0.175739149521 0.102817801198 0.37404518869 0.227326963497 0.412208608134 0.414664560037 0.387894545186 1.02036191237 0.364446522101 0.461177693464 0.524918742466 0.205238827562 0.290199294614 0.230035710796 0.166026144583 0.412537329717 0.209262691652 0.199373126099
131 0.0836071382945 0.95438638379 0.28281675196 0.823568092367 0.648219880264 0.598131661476 0.795200553613 0.947071259902 0.795954766301 0.550126021114 0.168816105302 0.777121960624 1.13382264354 0.549983871418 0.636226719366 0.78445996704 0.670879853715 -0.0760472896484 0.794828173701 0.315067195757
132 1.55500425032 -0.295110377935 1.34162226944 0.666656190661 0.142060493387 0.88595995694 0.137649589177 1.10220674847 0.662455010873 0.0835826245013 0.72821779051 0.47944477187 0.707998347697 1.14552997141 1.58083075166 0.454118883096 1.43493211443 0.160237820941 1.34356982303 1.47617004474
133 0.454233814526 0.0500509084121 0.212994895209 0.255637131411 0.314529493311 0.355554234618 0.922123670599 0.568529724979 0.518759495203 0.88478511532 0.291834201258 0.597602201781 0.592034337393 0.387979554679 0.504388268758 0.440854188578 0.383816927308 0.347014976339 0.611490748255 0.254739183878
134 0.392468305101 -0.118160375539 0.280284825618 -0.144135863185 0.368568201977 0.361383662023 0.510304177286 0.629404394061 0.324667320455 1.06607194998 0.474317557955 0.284570711869 0.316178684257 0.167073931588 0.206600630226 0.272539492712 0.236705446514 0.297795116056 0.270457820796 0.101306877861
135 1.33284089866 1.16417877674 0.419435339375 1.13568862414 0.308649507674 0.751353398898 0.9398925909 1.90065963302 1.84861710966 0.190596986289 1.24923425156 0.404556530168 0.579556880962 2.23327179591 -0.282882969862 2.25981128793 0.44676573967 0.966114438744 1.0490631834 0.857148876225
136 0.376348435758 -0.208636926215 0.402622414548 -0.616086712672 0.823397248197 0.295049669016 0.767862881698 1.04519643857 0.447055117097 1.66343210948 0.906953063556 0.566499978732 0.472161213551 0.474083290603 0.266694700998 0.397158775997 -0.217450186375 1.27993316116 -0.017631994073 0.233683245976
137 1.35479591721 2.05768709198 0.242061532933 0.94552541413 0.587327551236 1.76754874966 0.964811950129 0.269393546899 1.75319748176 0.556343261082 0.392824652815 1.07685093414 1.31350594244 0.748143065788 1.18992381914 0.350017445942 0.803720015407 0.368301474973 0.620613468546 0.822409062001
138 0.22008269522 -0.0288236338632 -0.0557141012455 -0.102103900282 0.0346255526392 -0.00122346192304 -0.0636191899622 -0.0765402699653 -0.0656620599554 -0.1133707375 0.0900852266837 0.134504400117 -0.0251048513297 0.084164934135 0.203130934659 -0.0751780226657 -0.110211319778 0.173024956773 0.0262948580537 -0.0232027843406
139 -0.511160451035 0.433018881954 -0.0495122702556 0.270055734722 0.11649429519 0.463769746121 -0.578293437213 0.258342044459 -0.324010570691 0.723804785669 0.266358753988 0.821183201423 -0.381221437078 -0.264972922093 0.536663125948 0.00360013720093 0.475907793051 0.359416172512 0.325479398422 0.205491407199
140 0.0108342141632 -0.0396630004214 3.23563158234 1.15521417039 0.258491483801 2.07040865764 2.42909412303 2.26084159378 2.68045411216 0.675326099706 1.71543398289 2.43139194871 2.64475807325 2.4428168268 -0.0252610235736 1.76681757931 1.36486586508 1.82350761169 0.421174533466 2.13135585061
141 1.20022853458 0.973659189108 0.735265702359 1.30209747945 1.34298120856 1.11651659358 0.421960293416 0.760929079713 0.414226807998 0.742776659804 1.09124970334 0.498104225006 0.953427686585 -0.0588864828324 1.29018878518 0.80657434802 0.745658847416 0.817837661614 1.30739017777 1.24807061988
142 0.825664786858 -0.153119851536 0.384304381152 0.186288421746 0.431101125315 0.511845696696 0.887733532289 0.792834075236 0.447065489163 1.07968661155 0.644200756728 1.03656992505 0.980740361312 0.362661404782 0.672989946927 0.357460897128 0.247815568818 0.428794667075 0.453969583549 0.576016716208
143 0.462086518148 0.00723937223529 0.151826800796 0.276243463003 0.230829262935 0.217486448436 -0.0430623299508 -0.121033553677 -0.262964543121 -0.0729895430751 0.334702544596 0.398245607995 0.0310750156662 -0.051451508981 0.13332116428 -0.115791229068 0.26174517818 -0.205432692262 0.72056988388 0.732827694142
144 1.07157601886 0.438967760677 0.438796644292 0.991535992027 0.962066117696 1.4621266771 0.625791460667 1.08360069004 0.992433330103 1.79664797688 0.785164989963 0.770796519934 0.981793188789 0.147264245491 1.10067493819 1.28621000515 0.574006786206 0.835438540045 1.45669779431 0.751744204051
145 0.544379029072 -0.188480844013 0.139170993667 0.0420213734401 0.303260503019 0.281165026033 0.32994917691 0.309707087878 0.346979982518 0.792166832404 0.300160964302 0.369090260069 0.41496090073 0.218699824776 0.274076332638 0.148548266648 0.0898025569769 0.277751652281 0.152761671338 0.198021513459
146 -0.0561562627906 0.16003738727 0.160791101061 0.017573247339 0.00292439421177 0.0610114701488 0.0159603661386 0.0892064639912 -0.0547101981162 -0.0434159884732 0.188942241659 0.0238123400334 -0.00180687820157 -0.0339458271052 -0.134385849149 -0.0714293746715 0.0457119792332 0.0978810134607 0.0420227099948 -0.0955742704265
147 0.0397885937209 -0.0405664825917 0.220901529707 -0.0932678010658 0.0720334497064 0.028344236475 0.166942779512 0.207676661054 0.178906562058 -0.0416188437266 -0.0536072335472 0.13656771528 0.205379959584 0.0752282295337 0.193446361986 0.304901178908 0.0357515579223 0.225665628638 0.0747001267329 -0.0662470306827
148 0.133033298441 0.150071105984 -0.177082164711 0.176820054536 -0.112213178274 0.23219722329 -0.108179643672 0.263584245896 -0.482263034575 -0.050886080011 0.432559819834 0.813224004689 -0.0675913055544 0.0256303289477 0.255844226131 -0.266452172092 0.208843167621 0.254681724423 0.460852772472 0.475576937186
149 0.225179111151 0.591363335539 0.361304844723 0.226413822177 0.450273675725 0.537939937785 0.625537483735 0.151352083326 0.436133742989 0.342212576209 -0.105157059471 0.0175797184835 0.2498437732 0.192882954572 0.149493725361 0.428758232086 0.137448353287 0.160050847108 0.243727807622 0.211122544588
150 0.00111372800731 0.321407406787 0.373536500768 0.0112213509218 0.145470442189 0.186873165505 0.458619844141 0.390328411815 0.406333871014 0.471736446328 -0.189462847007 0.422292797191 0.227982130355 0.216849317102 0.0606609704875 0.222880669738 -0.0754528527686 0.307118786074 0.0348921129795 0.250938243504
151 0.18454148036 0.153509027364 0.613854612314 -0.0851765705416 0.372161911973 0.144494625905 0.492586315189 0.231594566898 0.10855230175 0.490370718098 -0.160790716153 0.360659079785 0.306856301243 0.358098602057 0.040294384833 0.0336373218957 -0.208073708621 0.15172600981 -0.255684785923 0.143376490601
152 -0.153785586343 0.633001088774 0.358018706828 0.65039318214 0.685684089035 0.695743934237 0.577656477114 0.844136691674 0.499221326725 0.14434853829 0.0248740962152 0.852089645981 0.791267697268 0.632164832403 0.732381611384 0.214823169418 0.537194152764 -0.274561964446 0.325938669189 0.374650219744
153 0.668426509294 -0.0502515986062 0.702704871697 1.20823048848 0.762921859683 0.0866771673517 0.226319678092 0.176875993474 0.0533595923929 0.0721012326075 0.417398514183 0.169034531801 0.911792636015 -0.0882258047872 0.549993358764 0.684771675942 0.299940341037 0.197796254519 0.456151091944 0.627959344675
154 0.0564678691285 0.216302761882 -0.0265342417394 0.101432437134 0.15213115791 0.278489599531 0.0481957081193 0.407655255543 -0.491862451611 0.034110218646 0.214357096159 0.393695525901 0.052355611964 -0.102605523404 0.449141350291 0.122069320463 0.107021043533 0.175177681225 0.265238154592 0.348514758849
155 0.60968010112 0.251067645243 0.0945412978243 -0.111428544657 0.346025162862 0.265116092886 -0.0612626072622 0.139865969737 0.23438904001 0.218364542685 0.327372348498 0.0566284935505 0.0458947683563 0.204234486194 0.169753159787 0.389181459412 -0.0676155222415 0.0603049622945 0.052884448049 0.0536961783101
156 0.460706910441 0.0062147052562 -0.0581623163149 1.43052034452 0.54526505601 1.95350175371 1.7022568774 -0.998410050416 1.33604267572 -0.320254921531 0.159908552225 0.92436839586 1.14265136723 3.14458651961 1.94472797256 1.05738057605 0.564407757675 0.668468641611 -0.0122568977713 2.03277801192
157 0.0435858015168 0.171534277564 0.00677301410023 0.259213227283 0.0773335478591 0.104622456154 0.112472426854 0.00821763665518 0.185436906639 0.0626045847065 0.236225041039 -0.0207549623969 0.203519261407 0.0936079134864 0.0813330027015 0.274734202926 0.133512237759 -0.144097275114 0.136778858345 0.29659856146
158 0.0156135309784 0.0995013876677 0.112225883071 -0.0344917911836 0.0466594057093 -0.062094586773 0.0926978599019 0.0813788128007 -0.0857942261984 -0.000373194670583 0.151781318859 -0.137044533829 -0.012553214052 0.0551856050081 -0.021344641824 -0.0505337110418 -0.0167654968575 -3.30673725269e-05 -0.177415871192 0.121893205243
159 0.924780774809 -0.247375723658 0.52659843585 0.968204017136 0.602402965158 0.300840397145 0.58198359293 0.0764550928708 0.0597354328771 0.228894605564 0.402996158828 0.625790156556 0.533159118674 0.04123617663 0.616908347381 0.354964847762 0.568660533935 0.22947221077 0.984009574469 0.651051581193
160 2.48518637981 2.48783458657 0.947320168459 0.243221412957 0.96540496892 2.26431070916 0.792059283872 0.043177223798 1.2214943181 1.52373102389 0.372634391067 -0.903080341729 0.663522210249 0.437699289698 1.16783805082 0.470697224519 0.114883233232 1.48097795383 1.18047862197 1.61765657983
161 0.208749411062 -0.0802287950798 0.113394453037 -0.0562758897429 -0.0977634093466 0.238614347522 -0.0409564524698 0.0683546954329 0.168358982654 0.28458715004 0.15504357154 -0.111174165133 -0.160008177168 0.0185114927791 -0.0316415266056 0.203587229286 0.091292173575 0.242008400542 0.0246676584916 -0.0366782633209
162 0.500553680382 0.24332487234 0.382237193895 0.0450569703028 0.454281096444 -0.104991202955 0.893997681633 0.368169032079 0.530534802042 0.857328829186 0.457877164417 0.832064285017 0.911481403962 0.481636780605 0.656088401997 -0.224161192678 -0.0714122516259 0.689995625279 0.555751537883 0.537012764322
163 0.0866427240029 -0.135134292525 0.157462457394 0.139963411238 0.0182943726954 -0.0641040099522 0.0445616860349 0.0334909429207 0.0966477046373 -0.0413142650783 0.139066340007 0.107341958784 0.131969658061 0.0874356470642 0.0916129996859 0.151006742514 0.0921825732566 -0.0969500024262 0.131249478136 0.172886725316
164 0.313177406857 0.440550465796 0.232501928991 0.387290680366 0.486227954853 0.523241435633 0.308366549942 0.339619113342 0.561377923519 0.396829839695 0.193634731005 0.386403461837 0.118509273917 0.16829485314 -0.0756911909906 0.275711174914 0.154902331339 0.296631535862 0.135809803739 0.418321140006
165 0.505511142144 0.4989582059 0.393631402852 0.403571090145 0.661739578298 0.602796940272 0.17887021498 0.522214873747 0.644983805499 0.0754354586917 -0.0210036851317 0.233587561993 0.206687223922 -0.155390631896 0.13442551751 0.397200838346 0.0785932106728 0.819079467749 0.247386215023 0.614746533267
166 1.2360617417 1.0380997424 1.01211863586 2.52092767661 1.40799557662 0.877293767157 0.891106541538 0.989276208464 2.2265662112 1.24647534031 1.57818486118 1.64079960854 1.39853539311 0.718576635181 1.19657098367 1.37801334458 0.8457950356 1.45046034293 1.35039702665 1.17391937032
167 0.830734539428 0.939304923718 0.355631572806 0.286192543834 0.478657358353 1.60450475589 0.313963400718 0.525645602368 1.23713021993 0.660433011424 1.10686738008 0.584714496156 0.526223311634 0.7231553257 0.315536569881 1.6487989459 0.630787445336 0.304700888548 1.02618855405 0.52500259342
168 0.03557626509 1.19016059549 -0.0289736964699 0.508465387811 -0.0112473072235 0.806956996666 0.609137953701 0.0862654030594 1.10805427046 -0.536401401317 -0.506699141062 0.762046395793 1.08568021845 1.14266398066 0.919594820653 -0.459797329888 0.768350160532 0.0769011255826 -0.44913751272 0.709678688112
169 1.72869044223 0.100115127717 1.63480340125 1.33876191918 2.06867723751 0.641943846806 0.958194058015 0.396356179736 -0.0536774808726 1.69469620652 1.4426572547 0.788638065788 0.891099508135 0.622892810665 -0.698913358809 0.656220920037 0.180140138867 1.17156470426 1.83265069637 1.07046880322
170 0.448473268221 -0.138183965737 0.418718209006 -0.0438904082558 0.642675679781 0.263279219815 0.991305287391 0.561070743518 0.502767848334 1.28504506585 0.692379277109 0.723510135345 0.452667138333 0.436943272189 0.317369416002 0.516324405965 -0.0112751104753 0.720246250414 0.553318362519 0.300024961647
171 0.63256599409 0.870551873618 0.87315347624 0.705838711845 0.90347898083 1.15759425983 1.08265546014 1.1734601758 1.50110720518 0.245967152717 0.178740411025 0.918560823338 0.224692032842 0.49317625317 -0.0485731685669 0.681574739417 0.535206784032 0.74965023853 0.228316753256 0.982953359896
172 0.126665161 0.406623599116 0.137933117184 0.15343392708 0.0123678063897 0.291743949964 0.295855746441 -0.0410170716276 0.0288454010779 0.145800843114 0.32631636494 0.116645817249 0.165603953295 0.185844622019 0.193789611678 0.105449967715 -0.0703788776178 -0.0328441101138 0.0494961638309 0.364239490968
173 0.429192098784 0.0194995360681 0.114090838617 0.0710532100725 0.390226238917 0.303357221522 0.58513780873 0.189609564903 0.495783232383 0.597069496419 0.54757938678 0.66094429512 0.440435349548 0.161622209895 0.422452670188 0.160307949508 0.300477790019 0.348392784096 0.490082034005 0.282249817348
174 0.768920312166 -0.263183644231 0.512948697067 -0.20073810151 0.798291303388 0.613139631381 1.12586534216 0.951327337375 0.873092617286 1.35802291243 0.719357493911 0.75533145087 0.638321575337 0.429220894594 0.592468099325 0.831324668675 0.14156150852 1.14764048577 0.532275302633 0.222998291968
175 0.0211154317023 0.101972512159 0.126836467199 -0.0760120461626 0.156770957548 0.114942042051 0.0781002140979 -0.0996279841343 0.00748779251723 0.0196599325844 -0.0651423092133 0.146082644207 -0.003453894478 -0.0430661797862 0.0840726832315 -0.0272344145132 0.043164439565 -0.0214318966724 -0.0752960677338 0.0538115923793
176 0.516058151314 -0.275991377754 0.330488037935 0.0382718821524 0.444448696328 0.509234931457 0.901811875175 0.566375979058 0.488376939703 1.12952018674 0.331945162849 0.571764439969 0.760934836715 0.445473666287 0.45225395202 0.512908071013 0.337322468248 0.562343328132 0.484912395027 0.111040349465
177 0.226838869913 3.1447038867 2.54272689496 1.24549249091 0.962487400346 2.9012281937 -0.721970574349 2.36189733037 -1.46992806173 -0.760868467259 2.80309623788 1.31074552391 1.13226768724 1.26899918673 -0.137479484633 -1.10613434972 0.256763863664 0.846860508188 3.30530266416 0.984549145794
178 0.747718155251 0.373138764839 0.358792845445 0.791936234529 0.905095658518 0.824024499039 0.940780445511 1.18880310034 0.863127465938 1.26854771807 0.67762505274 0.954636965335 1.06243617382 0.450707796362 1.21884061683 0.776800197475 0.723566491772 0.39197430186 0.977868139106 0.65790770517
179 0.880585665634 -0.156127442197 0.620405806665 0.22980343802 0.657953499185 0.694688256981 1.26129761171 1.22144108515 0.805484836399 2.13533618318 0.363926022303 1.16869888076 1.0278240683 0.716067983271 0.576209153461 0.796976448845 0.255273966013 0.586712006111 0.274074014686 0.39790449077
180 0.265238359978 0.483860992379 0.0903953722309 0.334975580384 0.127042271567 0.0879984903888 0.209659996021 0.292959486115 0.326255764456 0.0858360693789 0.200884388999 0.17679093765 0.198867232847 0.032853016721 -0.0234992132263 0.306593174172 0.21241663964 0.154451592351 0.269588520874 0.251170252661
181 0.622145598056 -0.446526781521 0.980254629255 -0.234423082038 0.803210402247 0.246484288228 1.35355118675 1.08958765458 0.626453340024 1.13692841927 0.877658256264 1.05723048226 0.792810108181 0.490583371171 0.836159987181 0.832236288025 0.0337611482127 0.838208560168 0.617543721237 0.550315764651
182 2.81134219229 0.540513471272 0.770565679812 1.37975516354 0.470381816505 1.86105095961 -1.28947359574 -1.2292727851 3.91636837529 1.67312630316 1.24448526639 -1.21186916909 2.35380219223 1.20333490899 1.21641756788 1.43084859635 3.36983999001 3.47535832832 -0.416678872874 3.0179341327
183 0.538523885372 0.56813712734 0.151840548475 0.00363911504961 0.421933466026 0.129967964961 0.576358914219 0.283507667475 0.610819479839 0.24101909684 0.32875311769 0.574034239531 0.608354804222 0.581732336933 0.0806858603771 0.291759751212 0.443051003501 0.313400065277 0.482039660831 0.408234163107
184 -0.384260385541 -0.162050635662 -0.342430755225 0.367373963488 0.480731342383 -0.544480041488 -0.286991710144 0.363246413776 -0.626602240703 0.0391358726552 -0.0907146805556 0.774868124721 0.538279108821 0.0680629717779 0.774373586484 0.201255253605 0.693072007821 0.384281633346 0.344695791766 0.0600861890692
185 0.591380617456 0.20754784627 0.350346841824 0.138286255176 0.0182214222969 0.478247398711 -0.030517117492 0.0344343166154 0.24914755254 0.236715407216 0.353984597751 0.176354499881 0.150333922261 -0.201177747888 0.0313294282766 0.151266803298 0.202065340311 0.142852552873 0.239704492049 0.185552331857
186 1.33249737175 1.30613556748 0.886081719231 -0.289733074002 1.10179341685 1.92458603542 0.917676266226 0.468338307947 1.51266135789 0.538247414727 1.31836942389 0.918997462364 0.316603102638 1.21380249654 -0.0250461951008 1.01763441052 -0.0967116036057 0.750311448859 0.746377610221 0.574099467826
187 1.19127278697 0.764549686176 0.0738601919436 0.639378317145 -0.299286433732 1.21430497976 -0.383846138908 0.161311142656 1.54519696828 0.2174488772 -0.319928943374 0.774485753135 1.25000331444 1.0812171037 1.21041017891 -0.237828650942 1.75767567664 0.606518899685 0.784704594234 -0.00636532399345
188 0.200982393299 0.332919359738 0.308673072898 0.0266430083331 -0.326160004951 -0.183152796906 0.48823420591 0.125193830728 -0.0914155063035 -0.169272473919 0.113512995868 0.186354164135 0.15655111563 0.266309971275 0.411811828134 -0.112081148962 0.21314861342 0.167736832802 0.267768884916 0.491175827218
189 0.00888900394397 0.469697228759 -0.27434095967 0.572929913009 0.0184108990422 0.292673541764 0.425482459992 0.170747090198 0.0689107897395 0.437928785569 0.485530260312 0.402403306597 0.373572372344 0.227940726751 0.304655638995 0.0831817353913 0.228472489833 0.212023652226 0.83584878947 0.158901644868
190 0.109046131901 0.125959237601 0.449472774425 0.930440497915 0.205955057663 0.396272860152 0.0380636121995 0.0985012514495 -0.00714742658359 -0.0751498831102 0.789569889779 0.412430036035 0.708231772333 -0.118729645176 0.358651221617 -0.185093319762 0.471285260887 0.328659393161 0.359940506239 0.520493403522
191 0.323133562397 0.226106814812 0.636247759581 -0.0887475120411 0.143249845487 0.0987686863311 1.02082981015 0.869984868466 0.65406709891 1.06289384155 0.0362145072189 0.0647519310307 0.778452772549 0.687535177618 0.488287166609 -0.191895265859 -0.118293543419 0.851800019756 -0.0434468418383 0.549429514308
192 0.659406969589 -0.183114612737 0.260954581325 0.0716199428569 0.432017584747 0.242413568759 0.57684473919 0.401674123446 0.430844690567 0.792548140795 0.227546105478 0.562927066444 0.514566555846 0.170832893268 0.465087328015 0.283697019655 0.181689611632 0.416831933243 0.270223665937 0.397027998807
193 0.437440789915 0.402708345923 0.0807983487545 0.644471906585 0.363894374022 0.526964374941 0.554591843268 0.549552381309 0.538661148806 0.3095987163 0.100897551076 0.578158888258 0.776916634308 0.393973225104 0.676754845831 0.643910703363 0.428831419752 -0.0906007973592 0.212877920413 0.576402137367
194 0.137112123414 0.0395604267924 0.117840597868 0.0149765022963 -0.0422648161992 -0.000773908425734 0.158502337434 0.136168646641 0.180307457394 -0.0190403024478 -0.055619163539 0.102880814753 0.173838723471 0.087522198977 0.0230642033589 0.223450820265 0.151278491075 0.19062767374 0.0891358144858 0.0428392470927
195 1.16172093181 0.300011567467 1.44624918062 1.74432489695 -0.0855335968641 0.868535602156 1.09716158135 0.226685417307 1.3483252127 0.378585126779 0.060508632139 -0.227183566216 0.559439754107 0.341567747157 0.969841979529 0.629209583067 0.276686491089 1.1602688889 0.495479905115 1.91141049035
196 0.308322895724 0.365230174733 -0.175112442172 0.327399417178 0.493971197756 0.0874451239571 0.392108609435 0.217302113812 0.182830680092 0.502144031962 0.179391312901 0.232688018669 0.360686972858 0.196391420776 0.38609011358 0.269759531176 0.143158079267 0.578602715187 0.426889288122 0.275554715354
197 0.226736715678 0.183377002534 0.308808081087 0.263068751428 0.209623064792 0.270708880056 0.379845630656 0.442159616603 0.516529367633 0.308863978377 0.14208790087 0.142433482778 0.179910726541 0.304410631094 0.348956474185 0.375723099713 0.361568886962 -0.0295289383898 0.545688627126 0.123449315432
198 1.51217417485 1.12319881486 1.17525552481 1.72403703853 1.57925227707 1.10890836935 1.9597237636 0.396336320746 2.02097000413 0.236828313013 1.13113534727 -0.394576890843 0.577857909004 0.813374263774 1.25858237548 0.493585651817 1.15635680154 0.981578205595 1.09009877822 1.06026715397
199 0.722766106894 -0.0168051189057 0.954461881702 1.88281314968 1.19425249373 0.100950823473 0.613270372948 2.04727701893 1.84197419548 -0.96327886974 1.02747339696 0.665948773596 3.26399813307 1.09126894615 1.85498709427 1.36104639073 2.1287481386 1.60308266685 1.74321634698 1.66671159868
200 1.68828253852 -0.750999337279 0.90625591434 0.850714268864 2.69248471783 1.13539335374 0.440665148393 0.719972282858 -0.348927679649 0.699895104606 1.38174278053 0.464977612366 0.540202808394 1.11140388657 0.226228617619 0.311384666952 1.71567335148 1.53265855052 0.809861694781 1.85221126517
201 1.44431857278 0.843847345358 1.31979962113 0.873136990266 1.19355241947 0.688310046738 1.12414385482 1.06601620305 1.41285057786 0.733166896717 0.141756541997 0.0118191871446 0.155094324588 0.670657505744 0.120771421089 1.64565048485 -0.102505507414 0.707935656396 0.752691605091 1.17766313378
202 0.809448452053 1.98045319277 0.289648052539 0.645578959625 1.11288931206 1.2711892507 1.49799429732 -0.683010825812 1.96091863485 -0.784492684267 2.31184251846 1.17412829947 2.3004090962 3.00600697639 1.3479288251 1.05235671173 1.06198690626 0.759372080657 -0.428283411799 2.18146085013
203 0.392670979969 0.457965778222 -0.0194119874833 0.460246587609 0.0285334424238 0.0916972536307 0.0589785681989 0.0951508182905 0.317182904693 0.676609393389 0.492119462659 0.407476297973 0.171295748911 0.0197528915228 0.49036638936 0.0645895959733 0.42624017881 0.162840119683 0.544957387162 0.100717549032
204 -0.128385154811 0.793396617917 0.63142175507 1.40878561138 0.65337079367 0.34183759907 0.403466133407 0.858563201148 0.609788763654 -0.0286877812988 0.583490326998 0.488050583105 1.04426574374 -0.107056664534 0.562340245811 0.334628058469 0.750474657134 0.264478496947 0.443297272434 0.527717787882
205 0.241414464816 0.214582276516 0.0244867147705 0.223234466546 -0.0128558774126 -0.0855833574576 0.21171469623 0.255569556624 -0.0401066821976 0.0647878627566 0.231220663029 0.492305641573 0.125636031731 0.0639686101827 0.324525275566 -0.109962663495 0.207353791808 0.274414771935 0.482995387768 0.364314236113
206 0.127918888805 0.242002038619 0.401310613455 0.103086637355 0.216819184073 0.17696410507 0.466146361551 0.385279169791 0.392003955385 0.593148933375 -0.11977785427 0.427966488973 0.240233745658 0.130118905856 0.0431141091151 0.145043377664 -0.0956698280464 0.424385827249 0.00865425549416 0.28922300079
207 -0.0298292289399 0.0361179819271 0.0805490715162 0.0420487288426 0.0531118197817 0.0434044279586 0.0598122921195 0.109633082718 0.0391953402032 -0.13394445665 0.0805729398624 0.0785726797111 0.182620484044 0.0301335513801 0.0987989144941 0.1818937377 0.0743601752038 0.0264448872606 0.0795348958174 0.126651041865
208 0.322336161142 0.211573123209 0.267508474635 0.099921563604 0.158752255422 0.273096579488 0.365085051995 0.202174125334 0.366948216856 0.0395028569429 0.0332223531292 -0.0832520358829 0.0660752689065 0.0814935384711 0.215117281344 0.230640955308 -0.000328686458546 0.336484393513 0.422016333577 0.178611407214
209 0.0873544216812 0.707375706628 -0.0848879861358 0.875752045986 0.524628990633 0.285155903271 0.401027226979 0.398898837291 0.368657527069 0.419431006022 0.621307033075 0.573954235202 0.442467710522 0.105762415553 0.460142102241 0.31761559251 0.296303565877 0.23779979637 0.84241867739 0.322678891291
210 0.685117690302 1.05482964543 -0.232560570254 0.069203121811 0.164357469936 0.596388391433 0.0678584781373 0.853589911604 -0.0906681078997 0.995642406695 0.0945942337031 0.126745961806 -0.780784294559 0.202723599849 0.368792938251 0.411309688904 -0.340041916225 1.08407386046 0.24415478377 0.240772026302
211 -0.00776290817519 0.895483942206 0.0018906437046 1.04172249441 0.838605175156 0.110631249452 0.784510016986 0.605152959177 0.644533037838 0.353437013113 1.00004871022 1.01153735028 0.591848518537 0.591712068838 0.546627557198 0.527141193904 0.625168850762 0.572859733256 0.699301732668 0.890934361469
212 0.00550110030304 1.2443121861 0.00994585776921 1.13490079019 1.1884654283 0.639345769317 0.344439749106 0.300251300338 -0.851675840927 0.657532891979 0.466024805602 1.5277543072 0.795710566611 0.92471204183 0.816156335676 1.086643125 0.783420481616 0.176911840235 0.40451818079 0.893186076851
213 0.33175619349 0.610674220908 -0.289319466092 0.77869908692 0.0521100583575 0.121558374987 -0.364248819564 0.271106920323 0.36971358521 0.378554352897 0.211856176828 0.626430475785 -0.200904875077 0.0654582871145 -0.331579600724 0.258899906077 0.843291096621 -0.0829756681943 0.361596654983 0.287630240815
214 0.0669629989429 0.0365580685159 0.252751271436 -0.0805239885409 0.235958903836 0.166426379143 0.124895977855 0.187470365074 0.175219720334 0.333251574549 -0.0795711991672 0.194933245086 0.0638959351058 0.0922407633817 0.00780832766062 0.0916037474867 -0.103168723533 0.0824684114487 -0.0670666207197 0.142227766321
215 0.84418797989 1.03443792813 0.385829620525 1.67507993168 0.291504063379 0.0975503973209 0.956668858734 0.363476234967 1.26344479321 0.36556741321 0.846856557531 0.627938209292 1.11508798872 0.582640366801 0.628998149092 0.945300455663 0.771253438117 0.28542568088 0.277490858074 1.23473970193
216 0.05940523826 0.387210769661 -0.416276469768 -0.0587570401374 -0.279875634921 0.162728959041 0.221757641278 0.0402123359712 0.472604110263 -0.675382736582 0.884467513131 0.254266748609 -0.306173894575 1.58580301956 0.225479532064 0.973143580181 -0.170294616419 0.270252237418 0.0469899367424 0.948323537623
217 2.22961153044 1.73307864871 1.56237107321 -0.661807771344 -0.175590271185 -0.229995678919 2.30157697664 0.451210251289 1.93102128568 -0.812181380959 1.14094717667 0.75629898349 1.02777825942 2.00298663972 1.53743952277 1.250391295 0.99386480469 2.47286376823 0.927241071538 1.51158739469
218 0.171157481541 0.29907009877 -0.033422629667 0.0785888762012 0.138496634096 0.164562395945 -0.186638258224 0.159571378224 0.283002022205 -0.0107397232951 -0.0473760538979 0.0170277845433 0.0388446594678 0.0218886677925 0.0353091636789 0.151859810641 0.102067706666 0.157505420335 -0.111299916595 0.0650364928697
219 1.42880623156 0.170030661369 1.43017940843 1.57766617043 2.8119809999 1.21699498348 0.0927260147986 0.676933946437 0.895168333038 0.95641696844 1.14804611045 0.53927440548 1.8551446203 1.02870007805 0.306868439324 2.61433385997 2.15879026735 2.24467140521 0.517498635289 1.49343393618
220 1.84760746236 1.36615674373 0.874000299278 1.09087611761 1.98704893282 2.17349295933 0.538633381323 1.02216798575 1.15842362 2.28424932226 0.303423647216 0.763983105666 0.585751841713 0.571739990537 0.972232711595 1.66647046732 0.327026817471 1.06350546138 1.35982207287 1.52015493832
221 -0.00119381484592 2.33602805181 -0.429085770008 1.5423420933 0.141846717787 1.26455677126 -0.369642280268 1.10451187085 2.30073692665 0.0517406994626 0.325789091211 1.00370333341 1.71658786783 1.84709477076 1.79365560786 -0.280339640862 1.32718980918 -0.239366558497 0.0241583170509 1.55795034876
222 -0.00950534065878 0.612065543001 0.474205300203 1.7524759358 0.907254372477 -0.0984033171878 0.655178767345 0.49622413807 0.703520398843 -0.165693326587 1.04515034954 0.0453653610389 0.901728885438 0.946226365291 0.209404461732 0.611361915767 0.563548814557 0.935140363254 1.71189222052 0.665326608808
223 0.50080378669 0.255876424709 0.427656642216 0.727856945067 0.583580406506 0.833767111909 0.55993070357 0.206862155918 0.796861111999 0.897512480568 0.579092250853 0.47753700492 0.427425190785 0.275631928334 0.693089956684 0.331625658715 0.317989315641 0.272585801813 0.723091849916 0.431326842548
224 0.284742373662 0.601719808952 0.00232603336999 0.58631016838 0.269044289631 -0.0238851309872 0.524636439361 -0.0590650748486 0.47900104263 0.163542973312 0.283108435801 -0.226799926016 -0.223555211488 0.733729297921 -0.394598518024 0.84526967594 -0.202932867824 0.184365847443 0.756718879147 0.552113038266
225 0.179627053553 0.56446725806 0.522632812232 0.329835170837 0.0333775687232 0.270334417127 0.522534271241 0.0729943419584 0.0280738014194 0.0268042064275 0.417778697906 0.00758178119073 -0.134822814283 0.287816778688 0.00551617471117 0.765181958309 0.119851559913 -0.21293309949 0.223515199128 0.0843846853267
226 1.98732875356 1.11767200688 3.13052281658 0.949296189899 3.13517439952 1.27736089979 0.838390880105 0.76343460603 0.341458782225 0.132753070712 1.32125676409 0.313912392875 1.36584987533 1.70235777126 0.302284239217 1.21727649281 0.0540830553004 0.811360726387 0.5241182455 2.16054495684
227 0.319145121972 0.632159099395 0.281802642252 1.46279426104 0.583433290174 0.112202143891 0.908084248887 0.534102306168 0.459921791246 0.646272627018 0.994188026382 1.64884411709 1.41422037464 0.398301074182 1.65588337711 0.849315304022 0.774071583747 0.331482036226 0.605229402156 0.524890296556
228 0.381074434704 0.363538197806 0.192999155129 0.280975540513 0.105336250343 0.139843865184 0.457005113563 0.19758724563 0.224455790383 0.104918124541 0.0574049457301 0.0990619530052 0.327003941661 0.0806863074702 0.289557972899 0.216744857962 0.182106561102 0.265829088045 0.142049243871 0.264003589929
229 0.614869397964 -0.121508082033 0.140079519846 0.00752253095547 0.548344301564 0.632468537856 1.20615357844 0.996422857575 0.928272693372 1.62645771039 0.908688498612 1.12954318551 0.85138060765 0.598561764053 0.78988320919 0.625179527757 0.370620466746 0.962574964195 0.844840573786 0.362684524529
230 0.781016727239 0.570954196427 0.0678383122256 0.151349599636 0.500127315518 0.650549877043 -0.325222710732 0.562078078132 0.250163309005 1.55634384816 0.706847337637 0.30231146897 -0.172841635018 0.380981872834 -0.175023379388 0.280538198468 0.311675889007 -0.0557101854921 0.67238472174 0.0688405328098
231 0.261556764546 0.574626974009 0.0960172312683 0.682871855109 0.388907823 0.409366825396 0.576065430362 0.464358726297 0.367546867986 0.327260353626 0.0756209690925 0.49065511708 0.441582553228 0.225104265734 0.312109288178 0.443196664649 0.157067279799 0.213628898806 0.539651999522 0.479024315088
232 1.55893406235 0.33518640782 1.56606549436 2.17249040324 3.09849200876 2.28784462519 -1.15378901318 -0.472666164037 -0.648045214894 0.941195856636 1.57012136554 2.87156443656 -0.408034490148 -0.744678352164 -2.0590158406 0.0498288653722 4.52736911028 0.971115977815 1.06393238326 0.103242125697
233 0.466128234385 0.722553670994 0.373164216959 1.68532897958 0.727545471035 0.731861620713 0.877428363081 1.09361285118 0.71737675692 0.424301053933 0.893698795769 1.24540109824 1.64652014856 0.414081676059 1.06206451293 0.782707080402 1.1371866093 0.695615730908 1.54829596067 0.402904994494
234 1.15209444836 1.56449691866 1.25610793096 -0.289298584683 1.26567653009 1.05880808743 0.672264146362 0.284228319974 0.20202355124 0.253477569976 0.984085276735 -0.0997596923267 -0.43694797503 -0.230870512417 -0.651436827592 0.881872081295 0.128518495677 1.21192476112 -0.0140424182627 0.576568958175
235 0.424058675045 0.0617028543611 0.402697632786 -0.0225094200207 0.597082439163 0.646516128258 1.3205348935 0.943554056911 0.915036771424 1.49174753027 0.882923122447 0.991281393562 0.669722494759 0.461229668258 0.62758285624 0.515750381329 0.523938229871 0.92707736481 1.13327735496 0.44348418601
236 0.265747723411 0.404476941609 0.0999844474619 -0.141741956835 0.159326533847 0.148838214902 0.0442297087598 0.166208342501 0.0990175079788 -0.170074568324 -0.0146338810543 -0.290159482069 0.22498321876 0.180140234318 0.234926901283 0.336648811561 -0.077762820892 -0.0592470333688 0.0544086014743 0.0471418042288
237 -0.146149618925 0.302764330594 0.219399967848 0.509715309252 0.132123160058 0.482408678819 0.325806631833 0.147310844553 0.181569952446 0.245642978187 0.484827987453 0.0257219018703 0.253608118526 -0.131083197296 0.381961333641 0.416254160664 0.199448470688 0.361294843753 0.128295269871 0.0661605734342
238 -0.105700217366 -0.123293347729 0.127878253081 -0.222453480259 0.148466479273 0.438042926993 -0.150057282151 -0.11899229492 0.0364168359212 -0.116220022487 0.0568543487117 0.14312168579 0.136896452785 0.215990285045 -0.0383913297697 0.250518160215 0.153956007034 -0.29511402425 -0.10173104412 0.015811051251
239 1.13811973067 1.55226718341 1.0829241193 2.12418817117 1.05100892169 0.763464547173 0.576066172797 2.2911229392 2.62433530786 2.54616860843 1.53591400072 0.873809399757 0.86800857692 1.48398316092 1.55244350891 2.18883671982 1.65343624202 0.213634453059 1.85017101329 0.949707009514
240 0.962447791695 -0.399814678929 1.1635994844 -0.256624830633 1.06646812114 0.687938993248 1.36199851788 1.11024625265 0.38053589293 2.58569382235 0.764979809729 1.08720600543 1.23857410661 0.486901204092 0.555865959425 0.671497236338 0.107549453463 1.10865055353 0.148023192204 0.647896315708
241 0.508749332051 -0.000437515293913 0.368691977309 0.88381923679 0.455491758135 0.0739787634925 0.222815548555 1.05233175755 0.305917680992 -0.204879562708 0.256293139145 0.807639291008 0.750015141115 0.339246224199 0.907499062912 0.508663192602 0.559919996004 -0.00591025001852 0.263387325166 0.391712864543
242 0.453966329275 -0.154739177144 0.194193740172 0.0629044827965 0.387704242448 0.255329359074 0.586181933383 0.612948380576 0.525009426676 0.994595111008 0.360009121953 0.437898320186 0.479813819801 0.395609031921 0.317138105492 0.376527156686 0.220530734479 0.443420612128 0.238844862487 0.155843114519
243 0.314071129743 -0.279169702953 0.286403559052 0.0502178616202 0.321758079843 0.375440343872 0.649481851054 0.364095582016 0.162047154834 0.76172555442 0.399120184756 0.209116135564 0.504382459081 0.0865019263639 0.0787330662474 0.27079201251 0.0230504326337 0.831596099487 0.291390943805 0.385512673333
244 0.652632940035 0.375628114208 0.379821382794 0.421170543252 0.466506648025 0.703507041973 1.27765910354 0.122542093572 0.933356364475 0.914357451907 0.213295726396 0.0406595895944 0.865559831151 0.26480890665 0.717593680399 0.651964150494 0.530022233019 1.17359262943 0.891988462482 0.506034778794
245 0.00134047581028 0.129510779718 -0.0226348795825 -0.0469500527904 -0.0885952914314 0.0789283580071 -0.0606753899845 0.01589741573 0.12403114812 0.016982268635 0.0375038987971 -0.0328335328662 -0.0263142293538 0.029006302506 0.0458913948992 0.00983004802847 0.0863262706446 -0.0331937843315 0.00925077524154 0.0123881943238
246 -0.110866321668 -0.170558918511 0.407197546237 0.555437922019 -0.441827998129 0.795848389374 -0.20305240991 0.533077932192 0.522913558262 -0.270895544603 1.31961001304 1.59509799734 0.101061405352 0.513860273904 1.76316092259 -0.129836046851 1.38503469052 0.778190891903 0.517991328827 1.06399738454
247 0.781215470699 1.6189477589 0.670297749884 2.10404828272 0.366341066764 1.32259584414 1.33828590624 1.39364887738 1.08805049283 1.29401682556 1.71957332399 2.12246532429 0.992474292273 0.694529627937 1.19947813941 0.777533293976 0.777017252943 0.481659428965 1.33617764922 1.37789285768
248 0.29751015103 0.118849811569 -0.0681616136487 0.241349452532 -0.0849912666523 0.344856317194 0.204795620944 0.118089915261 -0.14309539948 0.521765456054 0.0785662286256 0.494297162205 -0.0315771958368 0.0943205280366 0.399661255891 0.0721494783972 0.0441484156686 0.471084931792 0.290603389969 0.797470686151
249 -0.0385408411172 1.72823459492 3.3239239862 2.74532410204 3.41342101285 0.0436065369773 1.01151998607 2.21852037588 -2.19465127924 1.58248478625 -0.273316445664 0.866516718042 0.835031320014 1.80133544541 3.1213717663 2.606908568 1.76186748446 1.96273788294 -0.13079073346 1.77036235115
250 -0.0383423940426 -0.10508010117 0.107886029788 0.149539840355 -0.256699060691 0.0540983674699 0.197091821233 -0.13523062998 -0.0374429436239 0.0891208703061 0.372084458964 -0.00287106214135 0.16151056644 0.172584463047 0.00148308381087 -0.145536366485 0.120646422542 0.0547828314855 0.21825386381 -0.0499510619449
251 0.410048077614 0.568580673072 0.175887730909 0.765937750562 0.315990181285 0.351304616219 0.683339977058 0.593594092467 0.67962724611 0.364622419773 0.386171985541 0.373629183833 0.657622604381 0.4343613772 0.198133829983 0.40848504965 0.212009253702 -0.0459289149895 0.850879622436 0.477404128707
252 -0.006134046479 -0.123722096005 -0.185244031656 -0.0335390235036 -0.231238970415 0.210109251838 -0.235635507183 0.262884572209 -0.341545305574 0.501854644375 0.18379166974 0.363325866636 -0.0588003374974 0.160994100409 -0.0573662030709 -0.174781439904 0.0770451516978 -0.069800969108 0.210264387652 0.347325534188
253 0.0197604942 0.205763818723 -0.246890265292 -0.102281655172 -0.193616988307 0.288045654615 -0.170902481025 0.32147162073 0.295633441901 0.098288644088 -0.177561062563 0.207299069573 0.16976734169 0.315866169835 0.246412945989 -0.303288800244 0.225443718177 -0.015086950061 -0.0855555541704 0.109533245727
254 1.68804607084 1.22845783286 1.1778796903 1.92902146971 0.924637024552 1.387171213 1.12698773541 1.13237202797 1.59885009882 1.1146998421 0.739194559073 1.92720379412 1.83462959149 0.126371348548 1.68051749148 0.959512541983 0.716023478501 1.01837231993 0.91886982911 0.62279748366
255 0.280991763556 0.0831505109425 0.11461752418 0.149146271843 0.17979486763 0.172409342116 0.115598629825 0.00489389441681 0.167252291 -0.179045140364 0.123974472057 -0.000164947924634 0.0855234421253 0.0386610174701 0.0459880303024 0.554805219612 0.0113673708564 0.277046527001 -0.0555062727457 0.206380275039
256 0.756970107187 0.262833338092 1.35085217092 0.784336261406 1.08178817379 0.616585969489 0.251742718798 0.55599697296 -0.353561275509 -0.141085284495 -0.579048661872 -0.416666094735 0.430613798888 -0.531930702469 1.81191692641 -0.267949578391 -0.253231123255 1.68298494624 1.14496016103 -0.0347916439901
257 0.166242799454 0.14545054672 0.130904639523 -0.027023625248 0.0366111730898 0.160563704854 0.0163810851824 0.0299683012839 0.156914558674 0.0395345328008 -0.0248762395967 0.175149238576 0.029293368706 -0.00114999561342 -0.0874593915401 0.131492952965 0.091506365916 0.17176486556 -0.0106199078315 0.0707592079291
258 0.248392559563 0.362627518922 -0.0922586449681 0.562770401694 -0.0445187883835 0.293218250187 0.40188117452 0.0890281928786 -0.0909807236329 0.14482466806 0.239566600105 -0.120067666827 0.204871629328 0.00966412286769 0.0954214145639 -0.0496198589456 0.149315145034 0.56054310998 0.291702663914 -0.0117149221605
259 0.116704075803 0.00191150536881 0.043140543492 0.224017668183 0.114999106308 0.30797241386 -0.00312486347035 -0.1399601425 0.136764356941 0.0572138100001 0.191365568487 -0.0291015101558 0.0800365216948 -0.0287445000239 0.123733668875 0.181912792381 0.11544853589 0.133560111316 0.00769364346901 0.099664693266
260 0.329174495545 0.437803596673 0.385260794566 0.961276177403 -0.450562604621 1.08692322974 -0.319176594944 -0.0108964004538 1.02803728715 -0.061939378174 0.148322411977 -0.365228389495 1.30902426036 0.551318741956 0.109257880453 0.987576436869 0.367207502666 -0.0691727403181 -0.566787347943 -0.255125234419
261 0.166616722548 0.399958975873 0.706402616316 0.852831165412 0.538019119738 0.323021980985 0.689184424772 0.556345980166 0.315977017638 0.319136510917 0.06827099857 0.322654188915 1.1107465109 0.177636222888 0.745563678769 0.422376795047 0.112725786884 0.323981963237 0.884570780352 0.790620025459
262 0.26534836112 0.184755224118 0.480917498713 0.023026503185 0.307868348617 -0.048997272428 0.82733524298 0.548665071127 0.575696692975 0.518057562531 0.0860268477471 0.505945713692 0.436450333983 0.261051790722 0.677701076995 0.0644589016788 0.0680370100948 0.639301756444 0.410548162238 0.325991345462
263 0.890817329867 -0.207294549595 0.768648381801 0.546948288456 0.951886445749 0.933373650261 0.609945895707 0.511922274284 1.34114760878 1.04093578782 1.49012968709 1.0286128361 0.3576485411 0.504917295115 1.15333899313 1.14748369773 1.1691778226 0.973806951448 1.50076747219 0.716025010536
264 0.831791278471 0.574616041722 0.288821278073 0.451565602963 0.243950199682 0.765945752617 0.559958965667 0.275764870329 0.355533532775 0.752303579259 0.778131377622 0.665600615738 0.693478625249 0.0544900429816 0.113329360775 0.0649613166634 -0.102366368737 0.692375453528 0.417083253745 0.575334531658
265 0.600145732777 0.498824696878 0.633834007509 0.333798438741 0.791468951582 0.992189993566 0.890608459462 0.497230284707 1.585462791 0.584303034005 0.592230295752 0.51774493946 0.593138260642 0.866787201454 0.956111721671 0.234921103783 0.573627865343 0.118505030561 0.712582297452 0.313217156183
266 1.27586542054 1.37900498003 0.64514523464 1.34609103482 0.286638658375 0.762575511683 1.58448346209 1.00010138828 1.83647749518 0.483527991911 0.435721988321 -0.59900341288 1.20994964723 1.0230906693 0.393384177511 2.1065438437 0.810658674412 0.801073422285 1.02349417413 1.74002527922
267 1.07869644807 0.437165898752 0.368644187419 0.664605632506 0.519876394044 0.888201263093 0.830122411713 0.568798454075 0.966632876157 0.171053280934 -0.0486326939207 0.743617951001 0.703160450907 0.29664256948 0.878875648927 0.757134222718 0.47682247521 0.367950949205 0.588636657021 0.948680961152
268 0.447853506191 0.62911602376 0.36208929022 0.560342470878 0.373488481526 0.124278380708 0.639476957365 0.467814974219 0.768670483447 -0.365997257513 0.619989242236 0.315207031222 0.0886014763559 0.941209251562 0.0678305821074 0.785492224166 0.260474140634 0.0486948737005 -0.467192030045 1.15986480475
269 0.0925064205991 0.261826622572 0.386143267942 -0.0245802884828 0.121382852075 0.166204691771 0.288894135638 0.420597232885 0.138433897931 0.466952474373 -0.0933502319291 0.12774820396 0.146033884096 0.146769777882 0.0123141911491 0.267849433987 -0.143377436621 0.0923965189415 -0.0948865343003 0.166523593291
270 0.108383622291 0.25715144184 0.552201877957 0.0557089656235 0.229359652771 0.279485922758 0.486868176449 0.534723533912 0.495138892103 0.781697175918 -0.218668344453 0.532386001684 0.257858926134 0.252349777145 0.0207182373546 0.20395944938 -0.229255918938 0.359657780205 -0.121079488025 0.276612352742
271 0.0541241856964 0.299593546965 0.0584095168816 -0.052244746728 0.165192427664 0.288973671075 0.175029535157 -0.0458747381412 -0.0448060019101 0.062373021827 -0.00728634424405 -0.219870552126 0.149025190389 0.143527420775 0.0349058546156 0.0594984094129 -0.0171750570254 0.18274051361 0.107314218427 -0.205228284252
272 0.0203398186971 0.272131056458 0.0864158050527 0.322852812294 0.044196289024 0.19070011728 0.100795162784 0.254405827225 0.207902207433 0.383517312278 0.139823490953 0.0972930730779 -0.039873647752 0.0480095014227 0.108462183497 0.315635297571 0.0927252389751 0.0824556913778 0.279474077335 -0.0934341001539
273 0.37127057306 0.220312607896 0.451338761907 -0.197665489565 0.401757575989 0.731551337353 0.831605112158 0.752489109001 0.886040117012 0.952663810785 0.737540544247 0.731170895271 0.336653444328 0.237254196251 0.670928050872 0.540254420659 0.342143864899 0.568650487348 0.506585444195 -0.0904170160494
274 3.48842928663 3.80267605954 3.64964882992 1.56931509383 4.20466702058 0.202503436659 1.64984359824 -0.0793617820666 -1.65922311841 1.63139112421 1.31288440596 1.75728545936 3.02919744106 1.39344468505 -1.22691712627 3.50238460069 4.30381624245 2.32032978359 0.15368433824 2.85051597053
275 0.495578524478 1.65804332353 0.697712033953 2.24006502546 -0.31884458108 1.50097710467 -0.130420542516 0.47882084222 2.94311555672 -1.30021020692 1.87860266007 0.543153403927 -0.221631239724 1.57458794781 0.97760356297 2.21206798468 0.454456360054 0.927017162501 -0.546420323784 2.28317267593
276 0.749105059246 -0.107068652953 0.473032840014 0.181477540696 0.476853116958 0.858150051647 0.906659152899 0.355712088444 0.0466018771417 0.814570898598 -0.020726984938 0.76554881157 0.557124494427 0.299806865931 0.369659914404 0.469818485863 0.089109627647 0.287523736007 0.223463397696 0.776343954983
277 0.0371019274035 0.191525735415 0.368907651435 -0.0199908801197 0.149629019217 0.341782715819 0.288768397562 0.268963447075 0.209949472962 0.399195638976 -0.151085336468 0.23866304987 0.0411950301041 0.0749430500241 -0.056437794391 0.225875153783 0.0485189285193 0.177869655694 -0.2031963725 0.131929288207
278 0.0218735832477 0.0666582464044 0.101334695114 0.243282171543 -0.000244936371543 -0.0362601034692 0.228088211314 0.1502274645 0.0856288536828 0.133663894865 0.36828932452 0.0700512157942 0.199337652382 0.153476910658 0.128489107946 0.150571777028 0.0156077596287 -0.00687915315799 0.0508039887951 0.122767929244
279 0.271691060982 1.50230156006 0.0263775089835 1.69513552255 1.04329071642 0.036824595865 0.889585133064 1.02856333945 0.649785219168 1.30510815143 0.563979629169 1.63363702171 0.452709088449 1.13733737576 0.933136574215 1.02717648296 0.871746585204 0.533734210415 1.10074388723 0.0179414802355
280 0.799860439099 -0.255765973299 1.11841243297 0.359565949934 0.556642909651 0.329924065135 0.537648952741 -0.144481682062 -0.675342214551 0.106777756182 0.736993047905 0.508661385752 0.825839468774 0.742622539166 0.104905251238 -0.239805841817 1.13842644431 -0.49433160957 1.60767023551 0.0815033205353
281 0.0632463686544 0.0710691107791 0.192344663527 0.120566188526 0.118271152593 -0.0820642448348 0.0056107278291 0.246675343689 -0.0130078364871 -0.0515757851654 0.11344145779 0.143287609306 0.0938794108865 -0.0749382244224 0.140265892473 0.0887485972762 0.058224232922 0.0882572227288 0.109030978146 0.154079477135
282 1.72138168862 1.10146442408 0.909080346526 2.49261956343 0.770012531805 1.12622535627 0.356744997637 0.0112378103654 1.62574670982 0.199528300954 1.05063914264 -0.000161529448798 1.165949675 0.976333704387 0.720074503837 1.34427010765 1.43452688701 0.548914810768 1.61810861429 0.445808040791
283 0.460441117053 0.00647770378573 0.410819382273 0.327741774994 0.352608798283 0.325548867816 0.705753369632 0.173775297377 0.46963528208 0.490458514184 0.252599852995 0.442622698444 0.47750351807 0.291648261386 0.243986531369 0.36967267092 0.27222558872 0.0780142653869 0.462025576697 0.451523086352
284 0.632518787188 -0.376645740114 0.416296420832 0.0235640858946 0.470647692316 0.631004380063 1.1689077805 0.792168827785 0.685201421467 1.82916981153 0.765455842953 1.09266430029 0.623219404497 0.5109826946 0.48833305814 0.79712010949 0.439253856239 1.03286621537 0.532128279066 0.264602000733
285 0.130866888756 0.373076549112 0.0665672499462 0.172551708766 0.17527998357 -0.00475683308635 0.101254442203 0.159573363528 0.530541675383 -0.185012224992 0.0197041612434 0.23366420837 0.124830700548 0.369732952013 0.171326435388 0.188477784175 0.155255499071 0.0225079763211 0.261073663548 0.370660342069
286 0.825013954437 0.593903848088 0.99442580422 1.45419825604 0.824309323904 1.19964408124 0.728305908793 0.697319410251 0.844989175964 0.803466367494 1.30587308895 0.412627099836 1.10859628452 -0.203530641051 1.27064115946 0.605392274877 0.39388008217 0.419945276608 1.33801151325 0.647294286611
287 0.429504914656 0.269609566135 0.171611813187 0.962269338664 0.275287326963 0.35246715004 -0.154442829255 0.171959244711 0.410370129446 -0.0867168191062 -0.0212835701047 -0.40140244761 0.556948118133 0.384863390206 -0.330742917213 0.769452554508 0.203871974503 0.35836294124 0.635271281048 0.537328408419
288 -0.290426190407 1.54207456618 2.08798430936 1.0160808299 -1.0427866012 -0.0109199862993 1.04421375895 -1.41401314333 0.164877977058 0.798215345764 4.23696583126 -0.187185309316 1.72147809534 3.6895681278 -0.748940350723 2.59956343016 1.95597318461 1.05890913836 1.84509584073 2.46596165781
289 0.0169652368414 0.325747262241 0.0903328194911 0.165824344437 -0.0418714550465 0.0235883224655 0.0145379968489 -0.0235684137752 0.217550982703 -0.0788395880036 -0.0246231270898 -0.0282111770097 -0.0261349521872 0.0885197086507 -0.25945087896 0.0973857228727 0.0268972491778 0.119892443464 0.123269062614 0.0158216124897
290 0.0500396390533 1.08904366553 0.359069380342 0.764244305126 -0.326523310372 0.201635074647 1.17897635231 0.369506998635 0.989306738867 0.631573045122 0.735779835422 -0.308040544369 1.48210382068 2.75580180229 0.440473009171 -0.574656960284 0.647816258779 -0.414034618326 -0.161310901481 1.66060535647
291 -0.136704809231 0.194336689543 -0.145798110688 0.0284833279127 0.0174109084704 0.163809098247 -0.0979250475969 0.408334415357 -0.47842001068 0.130504028789 0.269333314701 0.182806085797 -0.0622154369803 -0.139375555358 0.328319392935 -0.133538634085 0.0809368216429 0.370100480984 0.458197118154 0.296431501495
292 1.11858144806 2.49011903578 0.950102268385 0.164320078601 0.47882701301 1.93267537991 0.0337767890523 0.853201228395 0.764053536495 2.23622525897 1.04318194687 1.48294641078 -1.17799011632 -0.201731216562 1.24735467589 1.69048351979 1.71210622239 0.891842970436 1.28252412965 1.11458554877
293 0.0635739100247 -0.0527273267368 0.153597488173 0.0390942317297 0.111337458163 0.116762793022 0.103664480566 0.114637533355 0.0442098809233 0.137071326864 -0.0104547851867 0.0730763535093 0.0535041884875 0.134144724731 0.0760351956902 0.0778241271509 0.0532341879181 -0.0991734731384 0.0931103250423 0.0595359014912
294 1.35616388848 1.74726734534 1.04273153803 0.21860869414 0.0505301254827 1.03294312651 1.47110718501 0.0407507824082 1.51124692779 -0.327024430815 1.58518970092 0.476951551653 1.14395265641 0.786645017095 0.294938121208 1.83384951569 0.150880219285 2.02454540858 -0.36433583618 1.45197051499
295 -0.012536298836 0.495007450764 0.401883412204 0.607298039156 0.306271296149 0.103200238395 0.482335583755 0.466701586248 0.609327792441 0.290773017247 0.265231173785 0.24160348948 0.608152381484 0.335576114986 0.638039217929 -0.0721062375725 0.384581397123 -0.108197297463 0.318704024574 0.165882377216
296 0.279430073704 0.263530391505 0.195078627494 0.593700744575 0.280902052964 0.131277892386 0.738128458966 0.327378461144 0.435043173806 0.374436452273 0.498550898651 0.369958427149 0.765401026642 0.284772592866 0.538236598283 0.0328221514221 0.372312532279 0.0512932356102 0.720078969062 0.633151127118
297 0.457366675218 0.0635938868259 0.344619361831 0.139999957615 0.106093931897 0.215790124639 0.568312468165 0.724071173378 0.622221810284 0.185920374959 0.142687352191 0.176488699574 0.62388273971 0.435478788269 0.391148111042 0.446810166393 0.235984127692 0.315179886435 0.187664196559 0.320420137733
298 0.00615908363713 1.33501628171 2.48505461574 2.56442373983 2.33189397207 0.898935459765 0.979162857505 1.28872894737 -0.154823805466 -0.320513454029 -0.146045564227 1.04326652325 0.388943134515 0.138915943244 2.44022358903 2.13589224355 1.82699899358 2.26576538813 1.1691641642 -0.557607565875
299 0.162744029678 0.372579336639 0.140410016867 0.0205643928126 0.0679109630668 0.257846495751 0.0353665243498 -0.184240021168 0.133999069373 0.296293822691 0.148007318406 -0.0860358505383 -0.0460776667804 0.115602257315 0.175454075762 0.000475529473434 -0.223896817168 -0.137704700088 0.00925831890684 0.0156723002021
300 0.162326415502 0.268924748012 0.0528312434464 0.961980668338 0.381630622115 0.0128982676104 0.493031742467 0.39334172992 0.216995261063 0.19099792345 0.588932883438 0.305898363989 0.905950276631 0.117297555921 0.542506021807 0.248886935664 0.378470616015 0.261647282372 0.634911819536 0.392799184268
301 1.03169963734 -0.00470702959044 0.827452394881 0.977861975555 0.503314496226 0.80377850669 0.967769021289 0.394084035026 0.726614628804 0.701225621825 0.870669652295 1.01941917546 0.692042650616 0.303735049871 1.33716667814 0.465329977798 0.492269110951 0.642182092097 0.844145245257 0.775323125164
302 0.364182386575 0.410067586785 0.559716860012 0.347393742078 0.427356023818 0.27476365965 0.946944251747 0.65793901627 0.879971480019 0.648507818619 -0.0256046335906 0.864874083734 0.598827599515 0.516168330321 0.488967002692 0.391806878208 0.191235684431 0.26771841501 0.24379449967 0.57694738389
303 0.588282236572 0.838895916661 0.342608475404 0.412094288615 0.554056884531 0.550898379001 0.611517448686 0.143863710014 0.47081908292 0.340928371036 0.122846949528 0.152657172584 0.0827398669762 0.286822086166 -0.0435048919191 0.710797590458 0.03844124422 0.200773166707 0.41645584485 0.471050746973
304 1.07389411735 0.364849125646 0.986302842395 0.948282665767 1.73784705358 0.776989799957 1.91094914594 1.40092595956 2.66870299383 1.81542240232 1.71895693011 1.59744880714 1.22720819333 1.18078069426 0.926354783486 1.17727460093 1.28369037392 1.38626018203 2.14125986432 0.981649566209
305 -0.113688098351 4.03211896243 2.55466336692 2.1401628479 2.08989208558 0.651994024078 3.00368165729 1.08653057079 0.220052063143 1.42607696911 0.715486883916 1.50886722252 0.0614309883608 1.83214314227 1.70554514602 0.107318565343 3.48868443089 1.58033109569 0.257213000481 0.638649367508
306 -0.0570910752422 0.126080725731 0.336993962293 0.152879594764 -0.464212925896 -0.0454886114421 0.263202802014 0.635440863891 -0.647758914577 -0.558863286757 0.177764362768 0.504501767258 -0.0765422856652 -0.00863115551304 0.204222639235 -0.175856273346 0.458043263425 0.38267773463 -0.0332351988514 0.514489153176
307 1.51147721185 0.343441252589 2.48475441394 1.67629963633 0.0794350841424 1.25257249042 1.43126573289 0.605265699885 0.51464159427 1.18017256115 1.72674615495 -0.659611370259 0.151969381824 2.65143982943 -0.0694248744027 1.16687482032 3.02719183304 -0.635300814884 -0.300393100187 0.0784485904642
308 0.0853241287766 0.270600383987 -0.133404387067 0.576473914172 0.0441725066094 0.264904131881 0.321646625032 0.621615865278 -0.146367197792 0.50141714235 0.922102507531 0.700018445011 0.18635041495 0.310853955016 0.213189164637 0.0268968118874 0.457725430989 0.409439050026 0.652627706908 0.9319149969
309 0.34662804716 0.19297506559 -0.129343683864 0.64688910661 0.306728750392 0.392693791498 -0.0325403543195 0.55554380721 0.611045289981 -0.16134245472 0.217335621015 0.547071143124 0.496615021834 1.11647493127 0.000486100409061 -0.361512340184 -0.18595382134 0.029364760028 0.360748933224 0.956312819665
310 0.699775026056 0.0122309726576 0.125702258161 0.334068018306 -0.0917699276656 0.320809864643 -0.0102532629741 -0.032456936387 0.706365171499 -0.371517965716 -0.136742069402 0.483414966546 0.525678794643 -0.0608134222322 0.496720309569 0.518814247409 0.511638100296 0.692374611386 -0.110308909331 0.264333452831
311 0.208443285089 0.0684273745592 0.0392120885353 0.0843455793691 -0.050323915386 0.0962837768221 -0.0968763617267 -0.00518244557029 0.162263384341 0.0579392281235 -0.0881744616252 0.00670241545723 -0.00612681916472 0.0592575544234 -0.0735428336859 0.109077177769 0.125452616092 -0.04200027812 -0.0174508713811 0.0167949704502
312 0.682339712832 2.62030145779 0.157347647446 0.391921751419 0.318472134055 1.72706329533 1.49775272317 -0.0715836619104 0.767863756795 0.187553880369 -0.470762224232 0.104314010132 0.944234578677 1.0734448589 0.18368465704 0.522085311849 1.11458670642 0.511605659017 0.960539922762 1.09922764296
313 0.65431174165 1.8069873473 0.275250976275 -0.0976391778569 0.32423592523 1.90824131874 1.02281571857 1.1291214329 1.06530947135 -0.5820371024 1.29375947122 0.320076444101 1.50292229078 1.91313281688 -0.276739733463 2.56552999409 1.6675512737 0.203373794317 1.11300744591 0.827069028895
314 0.50067763734 0.0526558648579 0.678959229498 0.16929150932 0.51838275797 0.75890728299 1.80374395058 0.919621267333 1.11678254616 1.38939500588 1.16710824789 1.11260781792 0.93602878441 0.69995482211 0.8962743101 0.737038066262 0.466204254271 1.02507288471 0.922774202219 0.490631230949
315 0.0274581739681 0.0259473791845 0.118812647427 0.00592199989548 -0.140519121161 0.0865694560731 0.190754992331 -0.103842795728 0.107120433028 -0.217742080364 0.0540822111193 0.065677004783 0.234783094223 0.386128463189 -0.0298609051297 -0.197439430238 0.061795900019 -0.0657140322639 -0.0416465927475 -0.0217294875954
316 0.161913583358 0.0595380260727 0.287654740588 0.0624451450139 0.107413715674 0.359056978137 0.10112784389 0.327439237334 0.11246394144 -0.123561453482 0.175607888509 0.0838315380252 0.315024456818 -0.0177611106776 0.3045920337 0.285762955984 0.170292858392 0.343003420502 0.187863162262 0.148072329881
317 0.254692517384 0.794287895207 1.34730271361 2.11600087358 0.462243558433 0.565316139022 1.89264703614 0.483952937772 0.694697837735 -0.329725581842 0.826768310383 1.50518200697 2.09156844373 1.29304697774 1.99275666929 0.31623756323 1.41377858136 -0.144306425813 1.57819628972 0.654234792976
318 -0.127489099917 0.918568716241 -1.34132991051 2.48305785687 -0.50753821332 -0.558475227901 -2.00736576014 1.69768140356 -2.60249903563 0.760758163378 -0.598003801176 -0.801928765033 -1.1988083946 1.1035509551 2.98106283941 1.00692228663 1.99093016875 1.82060783415 0.78324726472 -0.0610684765883
319 0.0902470174488 0.307517873628 0.199063163166 0.44600437684 0.324006524834 0.208420573639 0.698071012075 0.409888353451 -0.068901588163 0.413071903467 0.757086545118 0.643833861194 0.577851421336 0.183466886398 0.532819372231 0.0972726967224 0.306155311367 0.349500885586 0.527856343604 0.51818923817
320 0.0199764626433 0.106346921634 -0.0531693636716 -0.0816105501959 0.100509496512 0.0236357715824 -0.0461975855143 -0.0492894760954 0.0461679162455 0.0545329080695 0.0724661182348 0.108082080951 -0.134205059244 0.0714474232302 0.112170028342 -0.0358804035295 -0.0120314389633 0.0424559991369 -0.0893174705314 0.0144213205417
321 0.592800629521 -0.11475729842 0.390164825526 -0.207987833381 0.718821283368 0.572104080039 0.684496147708 0.734243175417 0.588139342698 1.44747146271 0.624571629742 0.95962539876 0.398250728569 0.320300555948 0.323662637498 0.612737884734 0.0602875752762 0.614762113108 0.423932841055 0.233240431839
322 0.576371407452 0.473817070685 0.449025411657 1.38840557901 0.87475096724 0.4853979711 0.769662620114 0.262236997005 1.10532296615 0.429275999798 0.69840348032 0.377692471764 0.954424885588 0.714332932284 1.00071064292 0.347380548254 0.234905949439 0.432029805612 0.769970715351 0.807994053755
323 0.684959092891 0.305217883647 0.482944039184 0.301874979774 0.730999448207 0.318925526537 0.934342533225 1.14300943316 0.897336289479 1.4022799601 0.84517210125 0.727236146931 0.942412432346 0.195208167709 1.07173069509 0.304828437193 0.179302443137 0.953185558122 0.634693080505 0.602507217275
324 0.0918754475954 0.0959114091499 0.132498037327 0.0935415325845 0.0871693757703 0.0469815280503 0.0614566697918 0.109253664405 0.197203558858 -0.0518105168722 0.0473133150839 0.0159319650357 -0.0964417263935 0.0964726647898 -0.124534606456 0.081102250017 -0.0411687286633 0.0461318791506 0.017969050747 0.145703583077
325 1.51854179722 0.393939773304 0.944383011627 0.806327914759 0.38710929305 0.0146233954225 0.981146156277 0.740926570958 0.78209107545 -0.736571214907 0.358798233672 1.21070062377 0.350539027552 1.5947760909 1.06363021607 1.682175106 -0.0233330150669 0.157629143457 1.22005099352 1.11836785306
326 0.740475148914 0.076240323136 0.837375572726 2.22617422774 0.556512860275 0.0159481879531 0.379805337858 1.11005613036 0.577830532707 0.467051342206 0.854723309937 1.80378666761 1.54867619842 -0.351187526683 1.62537126398 0.662112698845 1.47276472394 0.261738964537 0.711676994702 0.366513376581
327 0.415606417153 -0.112446759584 0.322119057005 0.555269897343 0.499923041392 0.312716317086 0.311221270601 0.248848874724 0.1584596065 0.340500006276 0.130004390647 0.410541501743 0.646280567698 0.238112801632 0.15673254625 0.347053887189 0.456192470409 -0.113069194217 0.284613312374 0.362506464584
